~o
<STREAMINFO> 1 320
<VECSIZE> 320<NULLD><USER><DIAGC>
~h "h1"
<BEGINHMM>
<NUMSTATES> 4
<STATE> 2
<MEAN> 320
 2.347299e+001 1.032083e+001 8.802741e+000 9.989128e+000 8.936646e+000 7.975255e+000 8.440162e+000 8.012322e+000 5.977770e+000 1.005703e+001 8.440264e+000 9.557978e+000 8.796551e+000 7.922763e+000 8.157525e+000 7.871192e+000 7.507946e+000 9.483638e+000 8.599456e+000 8.926077e+000 8.592910e+000 8.243542e+000 7.798696e+000 7.934370e+000 9.250522e+000 9.078404e+000 8.909965e+000 8.270951e+000 8.573570e+000 8.583673e+000 7.701763e+000 8.007843e+000 1.028371e+001 9.085207e+000 8.931355e+000 7.942707e+000 8.615719e+000 8.731756e+000 7.800955e+000 8.025036e+000 1.038197e+001 9.199554e+000 8.563432e+000 7.943160e+000 8.616865e+000 8.718692e+000 7.868682e+000 7.945589e+000 9.595726e+000 9.228707e+000 8.229777e+000 8.192576e+000 8.636590e+000 8.571039e+000 7.965798e+000 7.893950e+000 8.864835e+000 9.045519e+000 8.231987e+000 8.525675e+000 8.686544e+000 8.459458e+000 8.008573e+000 7.923379e+000 8.502842e+000 8.738819e+000 8.534448e+000 8.631857e+000 8.734125e+000 8.489249e+000 7.926830e+000 7.985840e+000 8.886658e+000 8.575736e+000 8.738702e+000 8.548768e+000 8.738796e+000 8.597752e+000 7.819079e+000 8.031350e+000 9.172723e+000 8.708620e+000 8.870235e+000 8.527531e+000 8.782804e+000 8.646347e+000 7.822508e+000 8.053743e+000 9.289705e+000 8.907198e+000 8.913031e+000 8.742589e+000 8.763944e+000 8.618389e+000 7.901065e+000 8.012900e+000 9.321554e+000 9.261109e+000 8.946543e+000 9.004930e+000 8.785314e+000 8.614442e+000 8.044647e+000 8.037120e+000 9.378953e+000 9.516665e+000 9.155881e+000 9.104805e+000 8.841164e+000 8.649279e+000 8.211385e+000 8.130493e+000 9.404684e+000 9.374067e+000 9.220316e+000 9.157662e+000 8.882787e+000 8.678403e+000 8.459738e+000 8.277368e+000 9.508317e+000 9.176288e+000 9.337648e+000 9.146730e+000 8.886741e+000 8.738993e+000 8.600812e+000 8.364778e+000 9.445187e+000 9.353399e+000 9.192387e+000 9.076265e+000 8.848719e+000 8.740086e+000 8.655859e+000 8.396160e+000 9.443959e+000 9.120491e+000 9.111158e+000 8.962475e+000 8.808354e+000 8.664907e+000 8.599653e+000 8.339052e+000 9.243527e+000 9.194187e+000 9.054966e+000 8.918852e+000 8.768011e+000 8.648415e+000 8.505399e+000 8.273865e+000 9.263205e+000 9.058378e+000 8.974841e+000 8.848709e+000 8.747355e+000 8.631180e+000 8.476158e+000 8.249771e+000 9.135303e+000 9.005770e+000 8.944571e+000 8.841856e+000 8.735493e+000 8.645938e+000 8.448302e+000 8.233591e+000 9.096300e+000 8.948378e+000 8.903863e+000 8.796087e+000 8.709427e+000 8.599617e+000 8.458982e+000 8.250863e+000 8.948765e+000 8.946354e+000 8.887754e+000 8.793575e+000 8.676044e+000 8.560689e+000 8.415981e+000 8.231153e+000 9.082964e+000 8.870070e+000 8.892132e+000 8.780882e+000 8.648329e+000 8.504233e+000 8.397969e+000 8.201341e+000 8.792735e+000 8.971800e+000 8.843893e+000 8.758650e+000 8.619002e+000 8.480985e+000 8.398076e+000 8.178424e+000 9.012292e+000 8.761966e+000 8.780510e+000 8.712766e+000 8.591711e+000 8.476609e+000 8.352849e+000 8.139709e+000 8.703217e+000 8.779831e+000 8.713603e+000 8.625127e+000 8.546137e+000 8.444614e+000 8.367500e+000 8.155785e+000 8.602033e+000 8.718376e+000 8.652611e+000 8.598043e+000 8.526188e+000 8.443829e+000 8.342132e+000 8.160352e+000 8.840898e+000 8.617209e+000 8.621780e+000 8.601211e+000 8.525277e+000 8.431670e+000 8.299668e+000 8.133526e+000 8.669838e+000 8.607984e+000 8.575844e+000 8.471784e+000 8.392431e+000 8.291175e+000 8.238943e+000 8.099436e+000 8.372265e+000 8.660208e+000 8.572789e+000 8.438217e+000 8.377594e+000 8.286901e+000 8.257500e+000 8.115138e+000 8.593402e+000 8.526430e+000 8.465916e+000 8.466630e+000 8.409996e+000 8.338587e+000 8.256212e+000 8.110480e+000 8.616045e+000 8.362514e+000 8.374438e+000 8.391625e+000 8.343163e+000 8.289981e+000 8.165483e+000 8.073050e+000 8.587808e+000 8.355622e+000 8.380013e+000 8.348508e+000 8.295235e+000 8.238088e+000 8.121141e+000 8.057824e+000 8.285501e+000 8.405825e+000 8.377394e+000 8.294511e+000 8.262474e+000 8.199412e+000 8.163649e+000 8.062346e+000 8.059839e+000 8.377992e+000 8.329726e+000 8.207339e+000 8.193991e+000 8.145775e+000 8.159391e+000 8.056462e+000 7.954542e+000 8.293502e+000 8.266285e+000 8.148861e+000 8.145645e+000 8.113871e+000 8.136683e+000 8.067893e+000 8.013536e+000 8.194086e+000 8.207114e+000 8.132981e+000 8.137342e+000 8.114569e+000 8.116419e+000 8.075933e+000 8.032424e+000 8.134362e+000 8.138775e+000 8.103754e+000 8.098036e+000 8.067369e+000 8.048268e+000 8.022739e+000 8.064328e+000 8.011873e+000 8.000980e+000 7.987538e+000 7.967027e+000 7.953222e+000 7.945633e+000 7.961637e+000
<VARIANCE> 320
 1.000000e-002 1.000000e-002 1.000000e-002 1.000000e-002 1.000000e-002 1.000000e-002 1.000000e-002 1.000000e-002 1.000000e-002 1.000000e-002 1.000000e-002 1.000000e-002 1.000000e-002 1.000000e-002 1.000000e-002 1.000000e-002 1.000000e-002 1.000000e-002 1.000000e-002 1.000000e-002 1.000000e-002 1.000000e-002 1.000000e-002 1.000000e-002 1.000000e-002 1.000000e-002 1.000000e-002 1.000000e-002 1.000000e-002 1.000000e-002 1.000000e-002 1.000000e-002 1.000000e-002 1.000000e-002 1.000000e-002 1.000000e-002 1.000000e-002 1.000000e-002 1.000000e-002 1.000000e-002 1.000000e-002 1.000000e-002 1.000000e-002 1.000000e-002 1.000000e-002 1.000000e-002 1.000000e-002 1.000000e-002 1.000000e-002 1.000000e-002 1.000000e-002 1.000000e-002 1.000000e-002 1.000000e-002 1.000000e-002 1.000000e-002 1.000000e-002 1.000000e-002 1.000000e-002 1.000000e-002 1.000000e-002 1.000000e-002 1.000000e-002 1.000000e-002 1.000000e-002 1.000000e-002 1.000000e-002 1.000000e-002 1.000000e-002 1.000000e-002 1.000000e-002 1.000000e-002 1.000000e-002 1.000000e-002 1.000000e-002 1.000000e-002 1.000000e-002 1.000000e-002 1.000000e-002 1.000000e-002 1.000000e-002 1.000000e-002 1.000000e-002 1.000000e-002 1.000000e-002 1.000000e-002 1.000000e-002 1.000000e-002 1.000000e-002 1.000000e-002 1.000000e-002 1.000000e-002 1.000000e-002 1.000000e-002 1.000000e-002 1.000000e-002 1.000000e-002 1.000000e-002 1.000000e-002 1.000000e-002 1.000000e-002 1.000000e-002 1.000000e-002 1.000000e-002 1.000000e-002 1.000000e-002 1.000000e-002 1.000000e-002 1.000000e-002 1.000000e-002 1.000000e-002 1.000000e-002 1.000000e-002 1.000000e-002 1.000000e-002 1.000000e-002 1.000000e-002 1.000000e-002 1.000000e-002 1.000000e-002 1.000000e-002 1.000000e-002 1.000000e-002 1.000000e-002 1.000000e-002 1.000000e-002 1.000000e-002 1.000000e-002 1.000000e-002 1.000000e-002 1.000000e-002 1.000000e-002 1.000000e-002 1.000000e-002 1.000000e-002 1.000000e-002 1.000000e-002 1.000000e-002 1.000000e-002 1.000000e-002 1.000000e-002 1.000000e-002 1.000000e-002 1.000000e-002 1.000000e-002 1.000000e-002 1.000000e-002 1.000000e-002 1.000000e-002 1.000000e-002 1.000000e-002 1.000000e-002 1.000000e-002 1.000000e-002 1.000000e-002 1.000000e-002 1.000000e-002 1.000000e-002 1.000000e-002 1.000000e-002 1.000000e-002 1.000000e-002 1.000000e-002 1.000000e-002 1.000000e-002 1.000000e-002 1.000000e-002 1.000000e-002 1.000000e-002 1.000000e-002 1.000000e-002 1.000000e-002 1.000000e-002 1.000000e-002 1.000000e-002 1.000000e-002 1.000000e-002 1.000000e-002 1.000000e-002 1.000000e-002 1.000000e-002 1.000000e-002 1.000000e-002 1.000000e-002 1.000000e-002 1.000000e-002 1.000000e-002 1.000000e-002 1.000000e-002 1.000000e-002 1.000000e-002 1.000000e-002 1.000000e-002 1.000000e-002 1.000000e-002 1.000000e-002 1.000000e-002 1.000000e-002 1.000000e-002 1.000000e-002 1.000000e-002 1.000000e-002 1.000000e-002 1.000000e-002 1.000000e-002 1.000000e-002 1.000000e-002 1.000000e-002 1.000000e-002 1.000000e-002 1.000000e-002 1.000000e-002 1.000000e-002 1.000000e-002 1.000000e-002 1.000000e-002 1.000000e-002 1.000000e-002 1.000000e-002 1.000000e-002 1.000000e-002 1.000000e-002 1.000000e-002 1.000000e-002 1.000000e-002 1.000000e-002 1.000000e-002 1.000000e-002 1.000000e-002 1.000000e-002 1.000000e-002 1.000000e-002 1.000000e-002 1.000000e-002 1.000000e-002 1.000000e-002 1.000000e-002 1.000000e-002 1.000000e-002 1.000000e-002 1.000000e-002 1.000000e-002 1.000000e-002 1.000000e-002 1.000000e-002 1.000000e-002 1.000000e-002 1.000000e-002 1.000000e-002 1.000000e-002 1.000000e-002 1.000000e-002 1.000000e-002 1.000000e-002 1.000000e-002 1.000000e-002 1.000000e-002 1.000000e-002 1.000000e-002 1.000000e-002 1.000000e-002 1.000000e-002 1.000000e-002 1.000000e-002 1.000000e-002 1.000000e-002 1.000000e-002 1.000000e-002 1.000000e-002 1.000000e-002 1.000000e-002 1.000000e-002 1.000000e-002 1.000000e-002 1.000000e-002 1.000000e-002 1.000000e-002 1.000000e-002 1.000000e-002 1.000000e-002 1.000000e-002 1.000000e-002 1.000000e-002 1.000000e-002 1.000000e-002 1.000000e-002 1.000000e-002 1.000000e-002 1.000000e-002 1.000000e-002 1.000000e-002 1.000000e-002 1.000000e-002 1.000000e-002 1.000000e-002 1.000000e-002 1.000000e-002 1.000000e-002 1.000000e-002 1.000000e-002 1.000000e-002 1.000000e-002 1.000000e-002 1.000000e-002 1.000000e-002 1.000000e-002 1.000000e-002 1.000000e-002 1.000000e-002 1.000000e-002 1.000000e-002 1.000000e-002 1.000000e-002 1.000000e-002 1.000000e-002 1.000000e-002 1.000000e-002 1.000000e-002 1.000000e-002 1.000000e-002
<GCONST> -8.855338e+002
<STATE> 3
<MEAN> 320
 2.630200e+001 9.170861e+000 9.114850e+000 9.057049e+000 8.913547e+000 8.788209e+000 8.518119e+000 8.289963e+000 9.099457e+000 9.294637e+000 9.090348e+000 9.059505e+000 8.911101e+000 8.760679e+000 8.518314e+000 8.257915e+000 9.027818e+000 9.453932e+000 9.067257e+000 9.079735e+000 8.887557e+000 8.737075e+000 8.482903e+000 8.231519e+000 9.040537e+000 9.674904e+000 9.117971e+000 9.147549e+000 8.907632e+000 8.740282e+000 8.471039e+000 8.217353e+000 9.105527e+000 9.779419e+000 9.137337e+000 9.172852e+000 8.906912e+000 8.722870e+000 8.461622e+000 8.213067e+000 9.188752e+000 9.660169e+000 9.136460e+000 9.173253e+000 8.943463e+000 8.759719e+000 8.527236e+000 8.263320e+000 9.224148e+000 9.350146e+000 9.192851e+000 9.162865e+000 8.985766e+000 8.792793e+000 8.589496e+000 8.309204e+000 9.319195e+000 9.049812e+000 9.281558e+000 9.138340e+000 9.007878e+000 8.799916e+000 8.608052e+000 8.320998e+000 9.310135e+000 9.002260e+000 9.312281e+000 9.125329e+000 9.022905e+000 8.838937e+000 8.636582e+000 8.346811e+000 9.283296e+000 9.204548e+000 9.223765e+000 9.140615e+000 9.013288e+000 8.871993e+000 8.651297e+000 8.366329e+000 9.219693e+000 9.331728e+000 9.115707e+000 9.142677e+000 8.992077e+000 8.864798e+000 8.650317e+000 8.377571e+000 9.271179e+000 9.149570e+000 9.147317e+000 9.085230e+000 8.974129e+000 8.813030e+000 8.620395e+000 8.356334e+000 9.262767e+000 9.070326e+000 9.214025e+000 9.040241e+000 8.944092e+000 8.767708e+000 8.554953e+000 8.307319e+000 9.178077e+000 9.287921e+000 9.126356e+000 9.041146e+000 8.887214e+000 8.712021e+000 8.488217e+000 8.259552e+000 9.204345e+000 9.199904e+000 9.094656e+000 9.010536e+000 8.853634e+000 8.649515e+000 8.456881e+000 8.225521e+000 9.329657e+000 9.060740e+000 9.155928e+000 8.975324e+000 8.817810e+000 8.621205e+000 8.384080e+000 8.171366e+000 9.071580e+000 9.288237e+000 9.039520e+000 8.953451e+000 8.780330e+000 8.587379e+000 8.386686e+000 8.171867e+000 9.243813e+000 9.038177e+000 9.037907e+000 8.899428e+000 8.759075e+000 8.571531e+000 8.391756e+000 8.180289e+000 9.030258e+000 9.102264e+000 8.980186e+000 8.875894e+000 8.732183e+000 8.582228e+000 8.395140e+000 8.198823e+000 9.058129e+000 9.022783e+000 8.935690e+000 8.837086e+000 8.734012e+000 8.585848e+000 8.451430e+000 8.240374e+000 8.967445e+000 8.966991e+000 8.899838e+000 8.825901e+000 8.719491e+000 8.597434e+000 8.424866e+000 8.232804e+000 8.969491e+000 8.926243e+000 8.878081e+000 8.789788e+000 8.702983e+000 8.564474e+000 8.424740e+000 8.226379e+000 8.844022e+000 8.904541e+000 8.831297e+000 8.765643e+000 8.656631e+000 8.521667e+000 8.341263e+000 8.171880e+000 9.006697e+000 8.803428e+000 8.818027e+000 8.717380e+000 8.607023e+000 8.458785e+000 8.293910e+000 8.136184e+000 8.666003e+000 8.895778e+000 8.762441e+000 8.682484e+000 8.567961e+000 8.423609e+000 8.297597e+000 8.133534e+000 8.968346e+000 8.693895e+000 8.706887e+000 8.657780e+000 8.545962e+000 8.437722e+000 8.276124e+000 8.130080e+000 8.650781e+000 8.736691e+000 8.680561e+000 8.593740e+000 8.518879e+000 8.415747e+000 8.333626e+000 8.174827e+000 8.572716e+000 8.686068e+000 8.638508e+000 8.583999e+000 8.510779e+000 8.423717e+000 8.315863e+000 8.176848e+000 8.805879e+000 8.576663e+000 8.597798e+000 8.588634e+000 8.506383e+000 8.407282e+000 8.244329e+000 8.120813e+000 8.596418e+000 8.550524e+000 8.539807e+000 8.440229e+000 8.361133e+000 8.253753e+000 8.162727e+000 8.072858e+000 8.261903e+000 8.616046e+000 8.545662e+000 8.415175e+000 8.358020e+000 8.258727e+000 8.206667e+000 8.096723e+000 8.529430e+000 8.507298e+000 8.448604e+000 8.463132e+000 8.403387e+000 8.330257e+000 8.242641e+000 8.110125e+000 8.572164e+000 8.347302e+000 8.348331e+000 8.375758e+000 8.324220e+000 8.277780e+000 8.166152e+000 8.089752e+000 8.552341e+000 8.330549e+000 8.339729e+000 8.316482e+000 8.261591e+000 8.213102e+000 8.109633e+000 8.073256e+000 8.230458e+000 8.377006e+000 8.353673e+000 8.273807e+000 8.242119e+000 8.172265e+000 8.140751e+000 8.061834e+000 8.001336e+000 8.361369e+000 8.325999e+000 8.210171e+000 8.197345e+000 8.130605e+000 8.136422e+000 8.044785e+000 7.932447e+000 8.292002e+000 8.268280e+000 8.160578e+000 8.154867e+000 8.111630e+000 8.121993e+000 8.056521e+000 8.022387e+000 8.207020e+000 8.215119e+000 8.148340e+000 8.147109e+000 8.124829e+000 8.121832e+000 8.073097e+000 8.022214e+000 8.140199e+000 8.141007e+000 8.110826e+000 8.102855e+000 8.076086e+000 8.061146e+000 8.025197e+000 8.023732e+000 7.995013e+000 7.984632e+000 7.973709e+000 7.957429e+000 7.948526e+000 7.946574e+000 7.964721e+000
<VARIANCE> 320
 1.000000e-002 1.000000e-002 1.000000e-002 1.000000e-002 1.000000e-002 1.000000e-002 1.000000e-002 1.000000e-002 1.000000e-002 1.000000e-002 1.000000e-002 1.000000e-002 1.000000e-002 1.000000e-002 1.000000e-002 1.000000e-002 1.000000e-002 1.000000e-002 1.000000e-002 1.000000e-002 1.000000e-002 1.000000e-002 1.000000e-002 1.000000e-002 1.000000e-002 1.000000e-002 1.000000e-002 1.000000e-002 1.000000e-002 1.000000e-002 1.000000e-002 1.000000e-002 1.000000e-002 1.000000e-002 1.000000e-002 1.000000e-002 1.000000e-002 1.000000e-002 1.000000e-002 1.000000e-002 1.000000e-002 1.000000e-002 1.000000e-002 1.000000e-002 1.000000e-002 1.000000e-002 1.000000e-002 1.000000e-002 1.000000e-002 1.000000e-002 1.000000e-002 1.000000e-002 1.000000e-002 1.000000e-002 1.000000e-002 1.000000e-002 1.000000e-002 1.000000e-002 1.000000e-002 1.000000e-002 1.000000e-002 1.000000e-002 1.000000e-002 1.000000e-002 1.000000e-002 1.000000e-002 1.000000e-002 1.000000e-002 1.000000e-002 1.000000e-002 1.000000e-002 1.000000e-002 1.000000e-002 1.000000e-002 1.000000e-002 1.000000e-002 1.000000e-002 1.000000e-002 1.000000e-002 1.000000e-002 1.000000e-002 1.000000e-002 1.000000e-002 1.000000e-002 1.000000e-002 1.000000e-002 1.000000e-002 1.000000e-002 1.000000e-002 1.000000e-002 1.000000e-002 1.000000e-002 1.000000e-002 1.000000e-002 1.000000e-002 1.000000e-002 1.000000e-002 1.000000e-002 1.000000e-002 1.000000e-002 1.000000e-002 1.000000e-002 1.000000e-002 1.000000e-002 1.000000e-002 1.000000e-002 1.000000e-002 1.000000e-002 1.000000e-002 1.000000e-002 1.000000e-002 1.000000e-002 1.000000e-002 1.000000e-002 1.000000e-002 1.000000e-002 1.000000e-002 1.000000e-002 1.000000e-002 1.000000e-002 1.000000e-002 1.000000e-002 1.000000e-002 1.000000e-002 1.000000e-002 1.000000e-002 1.000000e-002 1.000000e-002 1.000000e-002 1.000000e-002 1.000000e-002 1.000000e-002 1.000000e-002 1.000000e-002 1.000000e-002 1.000000e-002 1.000000e-002 1.000000e-002 1.000000e-002 1.000000e-002 1.000000e-002 1.000000e-002 1.000000e-002 1.000000e-002 1.000000e-002 1.000000e-002 1.000000e-002 1.000000e-002 1.000000e-002 1.000000e-002 1.000000e-002 1.000000e-002 1.000000e-002 1.000000e-002 1.000000e-002 1.000000e-002 1.000000e-002 1.000000e-002 1.000000e-002 1.000000e-002 1.000000e-002 1.000000e-002 1.000000e-002 1.000000e-002 1.000000e-002 1.000000e-002 1.000000e-002 1.000000e-002 1.000000e-002 1.000000e-002 1.000000e-002 1.000000e-002 1.000000e-002 1.000000e-002 1.000000e-002 1.000000e-002 1.000000e-002 1.000000e-002 1.000000e-002 1.000000e-002 1.000000e-002 1.000000e-002 1.000000e-002 1.000000e-002 1.000000e-002 1.000000e-002 1.000000e-002 1.000000e-002 1.000000e-002 1.000000e-002 1.000000e-002 1.000000e-002 1.000000e-002 1.000000e-002 1.000000e-002 1.000000e-002 1.000000e-002 1.000000e-002 1.000000e-002 1.000000e-002 1.000000e-002 1.000000e-002 1.000000e-002 1.000000e-002 1.000000e-002 1.000000e-002 1.000000e-002 1.000000e-002 1.000000e-002 1.000000e-002 1.000000e-002 1.000000e-002 1.000000e-002 1.000000e-002 1.000000e-002 1.000000e-002 1.000000e-002 1.000000e-002 1.000000e-002 1.000000e-002 1.000000e-002 1.000000e-002 1.000000e-002 1.000000e-002 1.000000e-002 1.000000e-002 1.000000e-002 1.000000e-002 1.000000e-002 1.000000e-002 1.000000e-002 1.000000e-002 1.000000e-002 1.000000e-002 1.000000e-002 1.000000e-002 1.000000e-002 1.000000e-002 1.000000e-002 1.000000e-002 1.000000e-002 1.000000e-002 1.000000e-002 1.000000e-002 1.000000e-002 1.000000e-002 1.000000e-002 1.000000e-002 1.000000e-002 1.000000e-002 1.000000e-002 1.000000e-002 1.000000e-002 1.000000e-002 1.000000e-002 1.000000e-002 1.000000e-002 1.000000e-002 1.000000e-002 1.000000e-002 1.000000e-002 1.000000e-002 1.000000e-002 1.000000e-002 1.000000e-002 1.000000e-002 1.000000e-002 1.000000e-002 1.000000e-002 1.000000e-002 1.000000e-002 1.000000e-002 1.000000e-002 1.000000e-002 1.000000e-002 1.000000e-002 1.000000e-002 1.000000e-002 1.000000e-002 1.000000e-002 1.000000e-002 1.000000e-002 1.000000e-002 1.000000e-002 1.000000e-002 1.000000e-002 1.000000e-002 1.000000e-002 1.000000e-002 1.000000e-002 1.000000e-002 1.000000e-002 1.000000e-002 1.000000e-002 1.000000e-002 1.000000e-002 1.000000e-002 1.000000e-002 1.000000e-002 1.000000e-002 1.000000e-002 1.000000e-002 1.000000e-002 1.000000e-002 1.000000e-002 1.000000e-002 1.000000e-002 1.000000e-002 1.000000e-002 1.000000e-002 1.000000e-002 1.000000e-002 1.000000e-002 1.000000e-002 1.000000e-002 1.000000e-002 1.000000e-002 1.000000e-002 1.000000e-002 1.000000e-002
<GCONST> -8.855338e+002
<TRANSP> 4
 0.000000e+000 1.000000e+000 0.000000e+000 0.000000e+000
 0.000000e+000 0.000000e+000 1.000000e+000 0.000000e+000
 0.000000e+000 0.000000e+000 0.000000e+000 1.000000e+000
 0.000000e+000 0.000000e+000 0.000000e+000 0.000000e+000
<ENDHMM>
~h "h2"
<BEGINHMM>
<NUMSTATES> 4
<STATE> 2
<MEAN> 320
 2.445448e+001 8.823187e+000 9.755844e+000 9.619415e+000 8.881783e+000 8.601639e+000 8.315660e+000 8.308717e+000 7.277772e+000 8.780672e+000 9.251916e+000 9.383527e+000 8.832183e+000 8.574105e+000 8.298356e+000 8.243863e+000 8.273028e+000 9.159540e+000 8.790851e+000 9.020810e+000 8.848293e+000 8.520050e+000 8.371954e+000 8.209709e+000 9.311160e+000 9.738280e+000 8.477470e+000 8.717118e+000 8.798195e+000 8.586517e+000 8.427711e+000 8.182295e+000 9.847239e+000 1.012055e+001 8.486397e+000 8.417840e+000 8.721429e+000 8.753717e+000 8.525037e+000 8.174034e+000 9.739141e+000 9.979344e+000 8.591210e+000 8.251395e+000 8.710213e+000 8.952463e+000 8.603427e+000 8.195672e+000 9.109131e+000 9.367845e+000 8.757765e+000 8.363864e+000 8.849580e+000 9.017413e+000 8.618355e+000 8.226582e+000 8.732757e+000 8.655754e+000 8.806897e+000 8.620391e+000 9.031279e+000 8.938106e+000 8.605336e+000 8.242798e+000 8.706339e+000 8.307748e+000 8.585485e+000 8.794270e+000 9.166651e+000 8.906509e+000 8.645313e+000 8.275690e+000 9.058172e+000 8.590776e+000 8.303111e+000 8.849540e+000 9.152585e+000 8.872578e+000 8.679035e+000 8.355585e+000 9.249245e+000 8.947480e+000 8.283772e+000 8.725054e+000 8.996257e+000 8.899343e+000 8.703091e+000 8.378349e+000 9.229274e+000 9.014273e+000 8.661952e+000 8.568786e+000 8.772412e+000 8.836480e+000 8.678954e+000 8.368184e+000 9.115940e+000 9.112562e+000 9.152149e+000 8.577330e+000 8.592703e+000 8.777745e+000 8.637074e+000 8.316311e+000 9.221394e+000 9.387739e+000 9.202696e+000 8.818522e+000 8.540970e+000 8.634149e+000 8.597836e+000 8.271979e+000 9.334445e+000 9.304184e+000 9.235313e+000 9.023305e+000 8.666653e+000 8.561131e+000 8.509672e+000 8.221798e+000 9.501834e+000 9.186375e+000 9.312553e+000 9.111381e+000 8.823185e+000 8.587959e+000 8.391057e+000 8.153813e+000 9.316545e+000 9.451035e+000 9.164085e+000 9.079620e+000 8.879098e+000 8.627931e+000 8.364321e+000 8.152308e+000 9.355350e+000 9.124435e+000 9.142818e+000 8.963133e+000 8.835742e+000 8.639580e+000 8.366216e+000 8.170383e+000 9.117693e+000 9.166381e+000 9.044368e+000 8.892363e+000 8.750722e+000 8.621147e+000 8.396373e+000 8.203549e+000 9.137707e+000 9.067148e+000 8.941503e+000 8.827258e+000 8.722932e+000 8.586855e+000 8.458968e+000 8.254249e+000 9.029581e+000 9.014696e+000 8.902607e+000 8.816124e+000 8.715546e+000 8.585753e+000 8.423564e+000 8.247469e+000 9.018546e+000 8.964894e+000 8.882410e+000 8.783075e+000 8.716113e+000 8.566947e+000 8.421364e+000 8.236250e+000 8.899453e+000 8.953190e+000 8.857721e+000 8.777793e+000 8.685113e+000 8.530898e+000 8.336637e+000 8.178212e+000 9.066038e+000 8.858178e+000 8.864560e+000 8.744873e+000 8.642502e+000 8.471251e+000 8.285602e+000 8.138567e+000 8.755365e+000 8.962456e+000 8.809992e+000 8.712503e+000 8.597828e+000 8.429410e+000 8.287882e+000 8.137619e+000 9.015759e+000 8.735424e+000 8.746423e+000 8.674302e+000 8.554697e+000 8.438570e+000 8.270671e+000 8.138800e+000 8.685534e+000 8.761589e+000 8.692010e+000 8.596267e+000 8.517924e+000 8.411532e+000 8.337440e+000 8.187238e+000 8.586935e+000 8.700537e+000 8.646852e+000 8.589043e+000 8.512951e+000 8.423070e+000 8.322327e+000 8.190348e+000 8.825094e+000 8.600857e+000 8.623430e+000 8.610526e+000 8.519596e+000 8.416756e+000 8.248918e+000 8.133137e+000 8.641969e+000 8.585452e+000 8.580049e+000 8.478617e+000 8.381665e+000 8.270445e+000 8.161737e+000 8.086424e+000 8.327302e+000 8.649197e+000 8.572512e+000 8.439627e+000 8.367020e+000 8.272309e+000 8.208399e+000 8.113052e+000 8.569940e+000 8.525398e+000 8.458292e+000 8.462768e+000 8.394945e+000 8.335804e+000 8.250926e+000 8.128628e+000 8.607060e+000 8.365521e+000 8.351609e+000 8.368927e+000 8.316909e+000 8.275937e+000 8.173830e+000 8.106334e+000 8.589286e+000 8.351589e+000 8.353124e+000 8.315821e+000 8.262280e+000 8.211040e+000 8.110660e+000 8.085263e+000 8.272212e+000 8.398903e+000 8.371068e+000 8.275799e+000 8.249657e+000 8.173402e+000 8.134804e+000 8.071023e+000 8.037742e+000 8.375848e+000 8.336892e+000 8.209868e+000 8.205798e+000 8.134351e+000 8.129032e+000 8.053911e+000 7.950380e+000 8.292443e+000 8.270982e+000 8.163031e+000 8.157603e+000 8.114998e+000 8.118738e+000 8.066482e+000 8.024022e+000 8.195593e+000 8.205736e+000 8.149541e+000 8.138270e+000 8.124655e+000 8.127186e+000 8.082111e+000 8.027512e+000 8.134235e+000 8.130270e+000 8.110979e+000 8.087321e+000 8.072593e+000 8.070830e+000 8.031780e+000 8.041388e+000 8.004878e+000 7.986527e+000 7.979606e+000 7.949861e+000 7.945088e+000 7.950929e+000 7.967815e+000
<VARIANCE> 320
 1.000000e-002 1.000000e-002 1.000000e-002 1.000000e-002 1.000000e-002 1.000000e-002 1.000000e-002 1.000000e-002 1.000000e-002 1.000000e-002 1.000000e-002 1.000000e-002 1.000000e-002 1.000000e-002 1.000000e-002 1.000000e-002 1.000000e-002 1.000000e-002 1.000000e-002 1.000000e-002 1.000000e-002 1.000000e-002 1.000000e-002 1.000000e-002 1.000000e-002 1.000000e-002 1.000000e-002 1.000000e-002 1.000000e-002 1.000000e-002 1.000000e-002 1.000000e-002 1.000000e-002 1.000000e-002 1.000000e-002 1.000000e-002 1.000000e-002 1.000000e-002 1.000000e-002 1.000000e-002 1.000000e-002 1.000000e-002 1.000000e-002 1.000000e-002 1.000000e-002 1.000000e-002 1.000000e-002 1.000000e-002 1.000000e-002 1.000000e-002 1.000000e-002 1.000000e-002 1.000000e-002 1.000000e-002 1.000000e-002 1.000000e-002 1.000000e-002 1.000000e-002 1.000000e-002 1.000000e-002 1.000000e-002 1.000000e-002 1.000000e-002 1.000000e-002 1.000000e-002 1.000000e-002 1.000000e-002 1.000000e-002 1.000000e-002 1.000000e-002 1.000000e-002 1.000000e-002 1.000000e-002 1.000000e-002 1.000000e-002 1.000000e-002 1.000000e-002 1.000000e-002 1.000000e-002 1.000000e-002 1.000000e-002 1.000000e-002 1.000000e-002 1.000000e-002 1.000000e-002 1.000000e-002 1.000000e-002 1.000000e-002 1.000000e-002 1.000000e-002 1.000000e-002 1.000000e-002 1.000000e-002 1.000000e-002 1.000000e-002 1.000000e-002 1.000000e-002 1.000000e-002 1.000000e-002 1.000000e-002 1.000000e-002 1.000000e-002 1.000000e-002 1.000000e-002 1.000000e-002 1.000000e-002 1.000000e-002 1.000000e-002 1.000000e-002 1.000000e-002 1.000000e-002 1.000000e-002 1.000000e-002 1.000000e-002 1.000000e-002 1.000000e-002 1.000000e-002 1.000000e-002 1.000000e-002 1.000000e-002 1.000000e-002 1.000000e-002 1.000000e-002 1.000000e-002 1.000000e-002 1.000000e-002 1.000000e-002 1.000000e-002 1.000000e-002 1.000000e-002 1.000000e-002 1.000000e-002 1.000000e-002 1.000000e-002 1.000000e-002 1.000000e-002 1.000000e-002 1.000000e-002 1.000000e-002 1.000000e-002 1.000000e-002 1.000000e-002 1.000000e-002 1.000000e-002 1.000000e-002 1.000000e-002 1.000000e-002 1.000000e-002 1.000000e-002 1.000000e-002 1.000000e-002 1.000000e-002 1.000000e-002 1.000000e-002 1.000000e-002 1.000000e-002 1.000000e-002 1.000000e-002 1.000000e-002 1.000000e-002 1.000000e-002 1.000000e-002 1.000000e-002 1.000000e-002 1.000000e-002 1.000000e-002 1.000000e-002 1.000000e-002 1.000000e-002 1.000000e-002 1.000000e-002 1.000000e-002 1.000000e-002 1.000000e-002 1.000000e-002 1.000000e-002 1.000000e-002 1.000000e-002 1.000000e-002 1.000000e-002 1.000000e-002 1.000000e-002 1.000000e-002 1.000000e-002 1.000000e-002 1.000000e-002 1.000000e-002 1.000000e-002 1.000000e-002 1.000000e-002 1.000000e-002 1.000000e-002 1.000000e-002 1.000000e-002 1.000000e-002 1.000000e-002 1.000000e-002 1.000000e-002 1.000000e-002 1.000000e-002 1.000000e-002 1.000000e-002 1.000000e-002 1.000000e-002 1.000000e-002 1.000000e-002 1.000000e-002 1.000000e-002 1.000000e-002 1.000000e-002 1.000000e-002 1.000000e-002 1.000000e-002 1.000000e-002 1.000000e-002 1.000000e-002 1.000000e-002 1.000000e-002 1.000000e-002 1.000000e-002 1.000000e-002 1.000000e-002 1.000000e-002 1.000000e-002 1.000000e-002 1.000000e-002 1.000000e-002 1.000000e-002 1.000000e-002 1.000000e-002 1.000000e-002 1.000000e-002 1.000000e-002 1.000000e-002 1.000000e-002 1.000000e-002 1.000000e-002 1.000000e-002 1.000000e-002 1.000000e-002 1.000000e-002 1.000000e-002 1.000000e-002 1.000000e-002 1.000000e-002 1.000000e-002 1.000000e-002 1.000000e-002 1.000000e-002 1.000000e-002 1.000000e-002 1.000000e-002 1.000000e-002 1.000000e-002 1.000000e-002 1.000000e-002 1.000000e-002 1.000000e-002 1.000000e-002 1.000000e-002 1.000000e-002 1.000000e-002 1.000000e-002 1.000000e-002 1.000000e-002 1.000000e-002 1.000000e-002 1.000000e-002 1.000000e-002 1.000000e-002 1.000000e-002 1.000000e-002 1.000000e-002 1.000000e-002 1.000000e-002 1.000000e-002 1.000000e-002 1.000000e-002 1.000000e-002 1.000000e-002 1.000000e-002 1.000000e-002 1.000000e-002 1.000000e-002 1.000000e-002 1.000000e-002 1.000000e-002 1.000000e-002 1.000000e-002 1.000000e-002 1.000000e-002 1.000000e-002 1.000000e-002 1.000000e-002 1.000000e-002 1.000000e-002 1.000000e-002 1.000000e-002 1.000000e-002 1.000000e-002 1.000000e-002 1.000000e-002 1.000000e-002 1.000000e-002 1.000000e-002 1.000000e-002 1.000000e-002 1.000000e-002 1.000000e-002 1.000000e-002 1.000000e-002 1.000000e-002 1.000000e-002 1.000000e-002 1.000000e-002 1.000000e-002 1.000000e-002 1.000000e-002 1.000000e-002 1.000000e-002
<GCONST> -8.855338e+002
<STATE> 3
<MEAN> 320
 2.491636e+001 7.717538e+000 8.963469e+000 1.003079e+001 1.013749e+001 9.416856e+000 8.553043e+000 8.118788e+000 7.544342e+000 7.965190e+000 8.657154e+000 9.870193e+000 9.975781e+000 9.284960e+000 8.576934e+000 8.154706e+000 8.475136e+000 8.713479e+000 8.510139e+000 9.420782e+000 9.338980e+000 8.872889e+000 8.477757e+000 8.218104e+000 9.492792e+000 9.529773e+000 8.487636e+000 8.879964e+000 8.648952e+000 8.478526e+000 8.434690e+000 8.317719e+000 9.910913e+000 9.934622e+000 8.518388e+000 8.672602e+000 8.441665e+000 8.388955e+000 8.453179e+000 8.346758e+000 9.737031e+000 9.583536e+000 8.427692e+000 8.813123e+000 8.697906e+000 8.574498e+000 8.550498e+000 8.355775e+000 9.218233e+000 8.845719e+000 8.362799e+000 9.112583e+000 9.130760e+000 8.874329e+000 8.658128e+000 8.333630e+000 8.971413e+000 8.327873e+000 8.430649e+000 9.246104e+000 9.354480e+000 9.025182e+000 8.707774e+000 8.310143e+000 9.070024e+000 8.326292e+000 8.452756e+000 9.141001e+000 9.244453e+000 8.968722e+000 8.718462e+000 8.350318e+000 9.404958e+000 8.738439e+000 8.383986e+000 9.016888e+000 8.970069e+000 8.814737e+000 8.675742e+000 8.403452e+000 9.531128e+000 9.003634e+000 8.331035e+000 8.977035e+000 8.869787e+000 8.761333e+000 8.670258e+000 8.428252e+000 9.387008e+000 8.731630e+000 8.412700e+000 9.049930e+000 9.003693e+000 8.827168e+000 8.676937e+000 8.390765e+000 9.143759e+000 8.617878e+000 8.683073e+000 9.086580e+000 9.047239e+000 8.824630e+000 8.607855e+000 8.321826e+000 9.178671e+000 9.066781e+000 8.853466e+000 9.077027e+000 8.931029e+000 8.737104e+000 8.515841e+000 8.273283e+000 9.249890e+000 9.204437e+000 9.096148e+000 9.054914e+000 8.875577e+000 8.670189e+000 8.476191e+000 8.238576e+000 9.396124e+000 9.257179e+000 9.386196e+000 8.978368e+000 8.779806e+000 8.625366e+000 8.414128e+000 8.197063e+000 9.201146e+000 9.584745e+000 9.347727e+000 8.929081e+000 8.717459e+000 8.590103e+000 8.421335e+000 8.203073e+000 9.252591e+000 9.232689e+000 9.281241e+000 8.909450e+000 8.751260e+000 8.591432e+000 8.419338e+000 8.201252e+000 9.040597e+000 9.218872e+000 9.131695e+000 8.864889e+000 8.702453e+000 8.592376e+000 8.426674e+000 8.225790e+000 9.088234e+000 9.087036e+000 9.011262e+000 8.837806e+000 8.711949e+000 8.595291e+000 8.475796e+000 8.262866e+000 9.009129e+000 9.014889e+000 8.956911e+000 8.834729e+000 8.702476e+000 8.611100e+000 8.449546e+000 8.248875e+000 9.009625e+000 8.973348e+000 8.930442e+000 8.810286e+000 8.705212e+000 8.580276e+000 8.441287e+000 8.234697e+000 8.886634e+000 8.979938e+000 8.902539e+000 8.786966e+000 8.669221e+000 8.538303e+000 8.357388e+000 8.176219e+000 9.029881e+000 8.894130e+000 8.910572e+000 8.740339e+000 8.630463e+000 8.481988e+000 8.311637e+000 8.138240e+000 8.700821e+000 8.995495e+000 8.857247e+000 8.695328e+000 8.583183e+000 8.447191e+000 8.316033e+000 8.138937e+000 8.952198e+000 8.749320e+000 8.778755e+000 8.658307e+000 8.559270e+000 8.459208e+000 8.296591e+000 8.139038e+000 8.646793e+000 8.764641e+000 8.707228e+000 8.600147e+000 8.537890e+000 8.438177e+000 8.348557e+000 8.181776e+000 8.582788e+000 8.701407e+000 8.641539e+000 8.599303e+000 8.534400e+000 8.439868e+000 8.324965e+000 8.181053e+000 8.829948e+000 8.614417e+000 8.625526e+000 8.606972e+000 8.523976e+000 8.418088e+000 8.252047e+000 8.125891e+000 8.638580e+000 8.612413e+000 8.593849e+000 8.463984e+000 8.376202e+000 8.265038e+000 8.170983e+000 8.077568e+000 8.310348e+000 8.676243e+000 8.590306e+000 8.422432e+000 8.358908e+000 8.266897e+000 8.216913e+000 8.104278e+000 8.546965e+000 8.535002e+000 8.461227e+000 8.453856e+000 8.395945e+000 8.333209e+000 8.252379e+000 8.119606e+000 8.594176e+000 8.366533e+000 8.337573e+000 8.372770e+000 8.328227e+000 8.279644e+000 8.170632e+000 8.092800e+000 8.581279e+000 8.350053e+000 8.333632e+000 8.320814e+000 8.269012e+000 8.216225e+000 8.113548e+000 8.071366e+000 8.263670e+000 8.399663e+000 8.361487e+000 8.282762e+000 8.246101e+000 8.175673e+000 8.143058e+000 8.059513e+000 8.032597e+000 8.382682e+000 8.337463e+000 8.218148e+000 8.198525e+000 8.133668e+000 8.137339e+000 8.042862e+000 7.954937e+000 8.305804e+000 8.271047e+000 8.166146e+000 8.156232e+000 8.112007e+000 8.122069e+000 8.055143e+000 8.030782e+000 8.208053e+000 8.203869e+000 8.148441e+000 8.148447e+000 8.122548e+000 8.121618e+000 8.074632e+000 8.024908e+000 8.139179e+000 8.135242e+000 8.107914e+000 8.099091e+000 8.075047e+000 8.063334e+000 8.029757e+000 8.036070e+000 8.007670e+000 7.996383e+000 7.975496e+000 7.953312e+000 7.949158e+000 7.949168e+000 7.967226e+000
<VARIANCE> 320
 1.000000e-002 1.000000e-002 1.000000e-002 1.000000e-002 1.000000e-002 1.000000e-002 1.000000e-002 1.000000e-002 1.000000e-002 1.000000e-002 1.000000e-002 1.000000e-002 1.000000e-002 1.000000e-002 1.000000e-002 1.000000e-002 1.000000e-002 1.000000e-002 1.000000e-002 1.000000e-002 1.000000e-002 1.000000e-002 1.000000e-002 1.000000e-002 1.000000e-002 1.000000e-002 1.000000e-002 1.000000e-002 1.000000e-002 1.000000e-002 1.000000e-002 1.000000e-002 1.000000e-002 1.000000e-002 1.000000e-002 1.000000e-002 1.000000e-002 1.000000e-002 1.000000e-002 1.000000e-002 1.000000e-002 1.000000e-002 1.000000e-002 1.000000e-002 1.000000e-002 1.000000e-002 1.000000e-002 1.000000e-002 1.000000e-002 1.000000e-002 1.000000e-002 1.000000e-002 1.000000e-002 1.000000e-002 1.000000e-002 1.000000e-002 1.000000e-002 1.000000e-002 1.000000e-002 1.000000e-002 1.000000e-002 1.000000e-002 1.000000e-002 1.000000e-002 1.000000e-002 1.000000e-002 1.000000e-002 1.000000e-002 1.000000e-002 1.000000e-002 1.000000e-002 1.000000e-002 1.000000e-002 1.000000e-002 1.000000e-002 1.000000e-002 1.000000e-002 1.000000e-002 1.000000e-002 1.000000e-002 1.000000e-002 1.000000e-002 1.000000e-002 1.000000e-002 1.000000e-002 1.000000e-002 1.000000e-002 1.000000e-002 1.000000e-002 1.000000e-002 1.000000e-002 1.000000e-002 1.000000e-002 1.000000e-002 1.000000e-002 1.000000e-002 1.000000e-002 1.000000e-002 1.000000e-002 1.000000e-002 1.000000e-002 1.000000e-002 1.000000e-002 1.000000e-002 1.000000e-002 1.000000e-002 1.000000e-002 1.000000e-002 1.000000e-002 1.000000e-002 1.000000e-002 1.000000e-002 1.000000e-002 1.000000e-002 1.000000e-002 1.000000e-002 1.000000e-002 1.000000e-002 1.000000e-002 1.000000e-002 1.000000e-002 1.000000e-002 1.000000e-002 1.000000e-002 1.000000e-002 1.000000e-002 1.000000e-002 1.000000e-002 1.000000e-002 1.000000e-002 1.000000e-002 1.000000e-002 1.000000e-002 1.000000e-002 1.000000e-002 1.000000e-002 1.000000e-002 1.000000e-002 1.000000e-002 1.000000e-002 1.000000e-002 1.000000e-002 1.000000e-002 1.000000e-002 1.000000e-002 1.000000e-002 1.000000e-002 1.000000e-002 1.000000e-002 1.000000e-002 1.000000e-002 1.000000e-002 1.000000e-002 1.000000e-002 1.000000e-002 1.000000e-002 1.000000e-002 1.000000e-002 1.000000e-002 1.000000e-002 1.000000e-002 1.000000e-002 1.000000e-002 1.000000e-002 1.000000e-002 1.000000e-002 1.000000e-002 1.000000e-002 1.000000e-002 1.000000e-002 1.000000e-002 1.000000e-002 1.000000e-002 1.000000e-002 1.000000e-002 1.000000e-002 1.000000e-002 1.000000e-002 1.000000e-002 1.000000e-002 1.000000e-002 1.000000e-002 1.000000e-002 1.000000e-002 1.000000e-002 1.000000e-002 1.000000e-002 1.000000e-002 1.000000e-002 1.000000e-002 1.000000e-002 1.000000e-002 1.000000e-002 1.000000e-002 1.000000e-002 1.000000e-002 1.000000e-002 1.000000e-002 1.000000e-002 1.000000e-002 1.000000e-002 1.000000e-002 1.000000e-002 1.000000e-002 1.000000e-002 1.000000e-002 1.000000e-002 1.000000e-002 1.000000e-002 1.000000e-002 1.000000e-002 1.000000e-002 1.000000e-002 1.000000e-002 1.000000e-002 1.000000e-002 1.000000e-002 1.000000e-002 1.000000e-002 1.000000e-002 1.000000e-002 1.000000e-002 1.000000e-002 1.000000e-002 1.000000e-002 1.000000e-002 1.000000e-002 1.000000e-002 1.000000e-002 1.000000e-002 1.000000e-002 1.000000e-002 1.000000e-002 1.000000e-002 1.000000e-002 1.000000e-002 1.000000e-002 1.000000e-002 1.000000e-002 1.000000e-002 1.000000e-002 1.000000e-002 1.000000e-002 1.000000e-002 1.000000e-002 1.000000e-002 1.000000e-002 1.000000e-002 1.000000e-002 1.000000e-002 1.000000e-002 1.000000e-002 1.000000e-002 1.000000e-002 1.000000e-002 1.000000e-002 1.000000e-002 1.000000e-002 1.000000e-002 1.000000e-002 1.000000e-002 1.000000e-002 1.000000e-002 1.000000e-002 1.000000e-002 1.000000e-002 1.000000e-002 1.000000e-002 1.000000e-002 1.000000e-002 1.000000e-002 1.000000e-002 1.000000e-002 1.000000e-002 1.000000e-002 1.000000e-002 1.000000e-002 1.000000e-002 1.000000e-002 1.000000e-002 1.000000e-002 1.000000e-002 1.000000e-002 1.000000e-002 1.000000e-002 1.000000e-002 1.000000e-002 1.000000e-002 1.000000e-002 1.000000e-002 1.000000e-002 1.000000e-002 1.000000e-002 1.000000e-002 1.000000e-002 1.000000e-002 1.000000e-002 1.000000e-002 1.000000e-002 1.000000e-002 1.000000e-002 1.000000e-002 1.000000e-002 1.000000e-002 1.000000e-002 1.000000e-002 1.000000e-002 1.000000e-002 1.000000e-002 1.000000e-002 1.000000e-002 1.000000e-002 1.000000e-002 1.000000e-002 1.000000e-002 1.000000e-002 1.000000e-002 1.000000e-002 1.000000e-002 1.000000e-002
<GCONST> -8.855338e+002
<TRANSP> 4
 0.000000e+000 1.000000e+000 0.000000e+000 0.000000e+000
 0.000000e+000 0.000000e+000 1.000000e+000 0.000000e+000
 0.000000e+000 0.000000e+000 0.000000e+000 1.000000e+000
 0.000000e+000 0.000000e+000 0.000000e+000 0.000000e+000
<ENDHMM>
~h "h3"
<BEGINHMM>
<NUMSTATES> 3
<STATE> 2
<MEAN> 320
 2.422354e+001 9.556641e+000 9.079956e+000 8.345112e+000 1.000341e+001 8.096981e+000 8.309356e+000 8.471591e+000 6.669350e+000 9.378271e+000 8.890773e+000 8.397403e+000 9.607070e+000 7.973898e+000 8.185821e+000 8.502745e+000 7.959986e+000 9.188573e+000 8.853185e+000 8.776192e+000 8.845282e+000 8.179322e+000 8.159586e+000 8.444961e+000 9.466063e+000 9.196772e+000 8.939292e+000 9.157648e+000 8.183802e+000 8.468929e+000 8.220968e+000 8.363512e+000 1.034659e+001 9.373831e+000 9.000446e+000 9.249399e+000 7.952883e+000 8.545168e+000 8.274828e+000 8.387011e+000 1.028116e+001 9.392687e+000 8.863859e+000 9.047147e+000 8.200779e+000 8.372778e+000 8.229836e+000 8.525046e+000 9.403518e+000 9.232880e+000 8.680710e+000 8.749681e+000 8.767694e+000 8.169803e+000 8.213972e+000 8.633728e+000 8.663302e+000 8.856751e+000 8.510990e+000 8.645103e+000 9.170280e+000 8.104960e+000 8.239932e+000 8.608432e+000 8.281508e+000 8.457894e+000 8.549915e+000 8.748966e+000 9.129882e+000 8.111784e+000 8.211441e+000 8.611991e+000 8.641325e+000 8.390324e+000 8.607957e+000 8.980371e+000 8.836227e+000 8.235627e+000 8.217396e+000 8.617825e+000 9.051513e+000 8.565936e+000 8.685217e+000 9.103044e+000 8.642524e+000 8.281417e+000 8.172794e+000 8.610856e+000 9.177451e+000 8.832301e+000 8.881717e+000 8.994159e+000 8.757992e+000 8.185791e+000 8.179836e+000 8.607453e+000 9.223666e+000 9.235550e+000 9.102097e+000 8.898741e+000 8.936049e+000 8.201947e+000 8.285620e+000 8.529338e+000 9.372869e+000 9.521049e+000 9.249043e+000 8.997132e+000 8.889852e+000 8.429859e+000 8.363881e+000 8.395552e+000 9.413223e+000 9.408356e+000 9.257430e+000 9.053539e+000 8.919075e+000 8.665070e+000 8.496306e+000 8.257206e+000 9.488590e+000 9.236260e+000 9.323793e+000 9.081342e+000 8.896364e+000 8.843796e+000 8.573667e+000 8.131114e+000 9.382335e+000 9.441380e+000 9.142086e+000 9.105797e+000 8.807033e+000 8.888801e+000 8.590578e+000 8.118204e+000 9.403008e+000 9.152800e+000 9.117740e+000 8.979634e+000 8.797394e+000 8.774803e+000 8.531148e+000 8.161831e+000 9.193328e+000 9.204907e+000 9.055243e+000 8.946457e+000 8.745319e+000 8.685653e+000 8.446773e+000 8.186334e+000 9.204996e+000 9.071892e+000 8.966507e+000 8.906837e+000 8.716864e+000 8.611494e+000 8.424948e+000 8.237205e+000 9.076138e+000 9.015351e+000 8.923871e+000 8.903404e+000 8.718971e+000 8.614540e+000 8.391140e+000 8.216159e+000 9.058038e+000 8.966743e+000 8.889874e+000 8.858859e+000 8.707377e+000 8.588906e+000 8.428127e+000 8.224110e+000 8.943668e+000 8.965837e+000 8.870062e+000 8.843727e+000 8.682150e+000 8.584161e+000 8.388177e+000 8.163936e+000 9.092433e+000 8.880186e+000 8.878859e+000 8.793774e+000 8.650644e+000 8.541066e+000 8.362885e+000 8.124398e+000 8.798538e+000 8.981890e+000 8.822453e+000 8.755561e+000 8.603273e+000 8.508846e+000 8.350031e+000 8.119966e+000 9.024279e+000 8.752735e+000 8.767196e+000 8.691528e+000 8.571774e+000 8.482237e+000 8.300854e+000 8.129905e+000 8.695475e+000 8.767196e+000 8.703214e+000 8.607302e+000 8.529514e+000 8.423972e+000 8.331825e+000 8.185758e+000 8.583456e+000 8.704714e+000 8.648234e+000 8.586921e+000 8.527211e+000 8.423210e+000 8.321423e+000 8.188828e+000 8.821195e+000 8.614153e+000 8.621829e+000 8.603379e+000 8.535734e+000 8.435357e+000 8.280823e+000 8.119885e+000 8.644035e+000 8.610250e+000 8.582808e+000 8.479656e+000 8.405525e+000 8.316250e+000 8.212942e+000 8.057879e+000 8.343484e+000 8.668365e+000 8.572906e+000 8.457455e+000 8.378986e+000 8.312919e+000 8.237545e+000 8.088595e+000 8.578831e+000 8.531225e+000 8.463729e+000 8.489005e+000 8.405544e+000 8.351310e+000 8.246861e+000 8.113935e+000 8.617663e+000 8.364038e+000 8.366238e+000 8.408863e+000 8.331901e+000 8.285803e+000 8.155568e+000 8.092095e+000 8.599493e+000 8.351567e+000 8.370510e+000 8.353504e+000 8.278650e+000 8.226042e+000 8.104163e+000 8.068428e+000 8.287766e+000 8.402256e+000 8.373182e+000 8.296741e+000 8.251335e+000 8.189961e+000 8.147150e+000 8.058210e+000 8.052597e+000 8.380136e+000 8.328049e+000 8.213325e+000 8.191811e+000 8.144248e+000 8.151154e+000 8.049263e+000 7.951714e+000 8.297285e+000 8.270220e+000 8.152530e+000 8.149593e+000 8.118017e+000 8.134655e+000 8.064095e+000 8.014281e+000 8.198101e+000 8.213315e+000 8.133962e+000 8.142767e+000 8.117855e+000 8.123393e+000 8.082792e+000 8.024706e+000 8.140845e+000 8.139015e+000 8.107679e+000 8.100517e+000 8.067430e+000 8.055649e+000 8.029797e+000 8.050849e+000 8.019051e+000 7.995561e+000 7.991538e+000 7.965643e+000 7.952116e+000 7.943177e+000 7.956868e+000
<VARIANCE> 320
 1.000000e-002 1.000000e-002 1.000000e-002 1.000000e-002 1.000000e-002 1.000000e-002 1.000000e-002 1.000000e-002 1.000000e-002 1.000000e-002 1.000000e-002 1.000000e-002 1.000000e-002 1.000000e-002 1.000000e-002 1.000000e-002 1.000000e-002 1.000000e-002 1.000000e-002 1.000000e-002 1.000000e-002 1.000000e-002 1.000000e-002 1.000000e-002 1.000000e-002 1.000000e-002 1.000000e-002 1.000000e-002 1.000000e-002 1.000000e-002 1.000000e-002 1.000000e-002 1.000000e-002 1.000000e-002 1.000000e-002 1.000000e-002 1.000000e-002 1.000000e-002 1.000000e-002 1.000000e-002 1.000000e-002 1.000000e-002 1.000000e-002 1.000000e-002 1.000000e-002 1.000000e-002 1.000000e-002 1.000000e-002 1.000000e-002 1.000000e-002 1.000000e-002 1.000000e-002 1.000000e-002 1.000000e-002 1.000000e-002 1.000000e-002 1.000000e-002 1.000000e-002 1.000000e-002 1.000000e-002 1.000000e-002 1.000000e-002 1.000000e-002 1.000000e-002 1.000000e-002 1.000000e-002 1.000000e-002 1.000000e-002 1.000000e-002 1.000000e-002 1.000000e-002 1.000000e-002 1.000000e-002 1.000000e-002 1.000000e-002 1.000000e-002 1.000000e-002 1.000000e-002 1.000000e-002 1.000000e-002 1.000000e-002 1.000000e-002 1.000000e-002 1.000000e-002 1.000000e-002 1.000000e-002 1.000000e-002 1.000000e-002 1.000000e-002 1.000000e-002 1.000000e-002 1.000000e-002 1.000000e-002 1.000000e-002 1.000000e-002 1.000000e-002 1.000000e-002 1.000000e-002 1.000000e-002 1.000000e-002 1.000000e-002 1.000000e-002 1.000000e-002 1.000000e-002 1.000000e-002 1.000000e-002 1.000000e-002 1.000000e-002 1.000000e-002 1.000000e-002 1.000000e-002 1.000000e-002 1.000000e-002 1.000000e-002 1.000000e-002 1.000000e-002 1.000000e-002 1.000000e-002 1.000000e-002 1.000000e-002 1.000000e-002 1.000000e-002 1.000000e-002 1.000000e-002 1.000000e-002 1.000000e-002 1.000000e-002 1.000000e-002 1.000000e-002 1.000000e-002 1.000000e-002 1.000000e-002 1.000000e-002 1.000000e-002 1.000000e-002 1.000000e-002 1.000000e-002 1.000000e-002 1.000000e-002 1.000000e-002 1.000000e-002 1.000000e-002 1.000000e-002 1.000000e-002 1.000000e-002 1.000000e-002 1.000000e-002 1.000000e-002 1.000000e-002 1.000000e-002 1.000000e-002 1.000000e-002 1.000000e-002 1.000000e-002 1.000000e-002 1.000000e-002 1.000000e-002 1.000000e-002 1.000000e-002 1.000000e-002 1.000000e-002 1.000000e-002 1.000000e-002 1.000000e-002 1.000000e-002 1.000000e-002 1.000000e-002 1.000000e-002 1.000000e-002 1.000000e-002 1.000000e-002 1.000000e-002 1.000000e-002 1.000000e-002 1.000000e-002 1.000000e-002 1.000000e-002 1.000000e-002 1.000000e-002 1.000000e-002 1.000000e-002 1.000000e-002 1.000000e-002 1.000000e-002 1.000000e-002 1.000000e-002 1.000000e-002 1.000000e-002 1.000000e-002 1.000000e-002 1.000000e-002 1.000000e-002 1.000000e-002 1.000000e-002 1.000000e-002 1.000000e-002 1.000000e-002 1.000000e-002 1.000000e-002 1.000000e-002 1.000000e-002 1.000000e-002 1.000000e-002 1.000000e-002 1.000000e-002 1.000000e-002 1.000000e-002 1.000000e-002 1.000000e-002 1.000000e-002 1.000000e-002 1.000000e-002 1.000000e-002 1.000000e-002 1.000000e-002 1.000000e-002 1.000000e-002 1.000000e-002 1.000000e-002 1.000000e-002 1.000000e-002 1.000000e-002 1.000000e-002 1.000000e-002 1.000000e-002 1.000000e-002 1.000000e-002 1.000000e-002 1.000000e-002 1.000000e-002 1.000000e-002 1.000000e-002 1.000000e-002 1.000000e-002 1.000000e-002 1.000000e-002 1.000000e-002 1.000000e-002 1.000000e-002 1.000000e-002 1.000000e-002 1.000000e-002 1.000000e-002 1.000000e-002 1.000000e-002 1.000000e-002 1.000000e-002 1.000000e-002 1.000000e-002 1.000000e-002 1.000000e-002 1.000000e-002 1.000000e-002 1.000000e-002 1.000000e-002 1.000000e-002 1.000000e-002 1.000000e-002 1.000000e-002 1.000000e-002 1.000000e-002 1.000000e-002 1.000000e-002 1.000000e-002 1.000000e-002 1.000000e-002 1.000000e-002 1.000000e-002 1.000000e-002 1.000000e-002 1.000000e-002 1.000000e-002 1.000000e-002 1.000000e-002 1.000000e-002 1.000000e-002 1.000000e-002 1.000000e-002 1.000000e-002 1.000000e-002 1.000000e-002 1.000000e-002 1.000000e-002 1.000000e-002 1.000000e-002 1.000000e-002 1.000000e-002 1.000000e-002 1.000000e-002 1.000000e-002 1.000000e-002 1.000000e-002 1.000000e-002 1.000000e-002 1.000000e-002 1.000000e-002 1.000000e-002 1.000000e-002 1.000000e-002 1.000000e-002 1.000000e-002 1.000000e-002 1.000000e-002 1.000000e-002 1.000000e-002 1.000000e-002 1.000000e-002 1.000000e-002 1.000000e-002 1.000000e-002 1.000000e-002 1.000000e-002 1.000000e-002 1.000000e-002 1.000000e-002 1.000000e-002 1.000000e-002 1.000000e-002 1.000000e-002 1.000000e-002
<GCONST> -8.855338e+002
<TRANSP> 3
 0.000000e+000 1.000000e+000 0.000000e+000
 0.000000e+000 0.000000e+000 1.000000e+000
 0.000000e+000 0.000000e+000 0.000000e+000
<ENDHMM>
~h "h4"
<BEGINHMM>
<NUMSTATES> 3
<STATE> 2
<MEAN> 320
 2.526277e+001 7.790453e+000 8.139281e+000 8.766024e+000 9.087587e+000 9.146230e+000 8.900624e+000 8.513574e+000 7.835984e+000 7.981761e+000 8.300677e+000 8.931414e+000 9.100500e+000 9.058945e+000 8.791285e+000 8.410520e+000 8.515941e+000 8.797086e+000 8.863038e+000 9.256890e+000 9.075072e+000 8.864492e+000 8.507854e+000 8.221352e+000 9.342454e+000 9.718645e+000 9.405650e+000 9.525047e+000 9.041608e+000 8.669744e+000 8.258847e+000 8.055883e+000 9.693892e+000 1.013403e+001 9.580440e+000 9.590949e+000 9.011412e+000 8.591660e+000 8.214808e+000 8.036930e+000 9.443784e+000 9.644185e+000 9.310350e+000 9.457883e+000 9.012100e+000 8.683015e+000 8.383245e+000 8.165530e+000 8.742776e+000 8.661624e+000 8.999332e+000 9.228090e+000 8.984108e+000 8.819410e+000 8.607508e+000 8.342940e+000 8.417773e+000 8.022239e+000 8.902637e+000 9.084658e+000 8.964056e+000 8.879175e+000 8.713002e+000 8.427945e+000 8.466009e+000 8.041842e+000 9.020344e+000 9.137327e+000 8.995020e+000 8.897532e+000 8.699903e+000 8.412862e+000 8.705660e+000 8.493332e+000 9.199501e+000 9.292993e+000 9.018517e+000 8.886884e+000 8.611833e+000 8.338214e+000 8.850808e+000 8.771658e+000 9.171311e+000 9.328184e+000 8.999980e+000 8.850795e+000 8.579575e+000 8.329352e+000 8.773645e+000 8.481965e+000 9.101294e+000 9.182863e+000 8.951406e+000 8.813564e+000 8.601298e+000 8.367441e+000 8.692632e+000 8.444961e+000 9.134278e+000 9.095098e+000 8.934127e+000 8.796085e+000 8.569343e+000 8.338362e+000 8.897261e+000 8.971311e+000 9.130478e+000 9.100374e+000 8.901719e+000 8.735920e+000 8.492003e+000 8.269583e+000 9.196086e+000 9.181326e+000 9.146689e+000 9.060457e+000 8.878642e+000 8.663958e+000 8.456447e+000 8.231061e+000 9.538857e+000 9.311102e+000 9.286473e+000 9.020423e+000 8.834645e+000 8.611352e+000 8.367897e+000 8.169716e+000 9.443512e+000 9.671140e+000 9.165019e+000 8.984240e+000 8.792563e+000 8.564909e+000 8.368191e+000 8.168118e+000 9.454439e+000 9.272374e+000 9.094553e+000 8.912068e+000 8.770047e+000 8.566759e+000 8.389729e+000 8.182622e+000 9.158654e+000 9.254720e+000 9.041669e+000 8.889219e+000 8.734189e+000 8.572572e+000 8.387570e+000 8.198316e+000 9.129005e+000 9.104741e+000 8.993517e+000 8.852311e+000 8.737535e+000 8.579639e+000 8.445844e+000 8.239686e+000 9.003976e+000 9.021548e+000 8.964589e+000 8.832859e+000 8.717446e+000 8.595340e+000 8.428020e+000 8.237900e+000 8.993407e+000 8.968101e+000 8.926998e+000 8.802289e+000 8.711638e+000 8.571063e+000 8.432769e+000 8.230697e+000 8.880948e+000 8.957344e+000 8.872499e+000 8.781258e+000 8.666809e+000 8.531490e+000 8.353320e+000 8.177904e+000 9.059858e+000 8.876469e+000 8.851897e+000 8.734360e+000 8.619925e+000 8.470428e+000 8.308386e+000 8.143339e+000 8.750888e+000 8.987698e+000 8.788249e+000 8.692182e+000 8.577122e+000 8.433217e+000 8.310786e+000 8.140190e+000 9.004060e+000 8.751908e+000 8.718109e+000 8.658175e+000 8.552358e+000 8.445004e+000 8.289736e+000 8.136299e+000 8.665495e+000 8.757946e+000 8.683471e+000 8.596522e+000 8.527061e+000 8.426469e+000 8.345547e+000 8.179644e+000 8.573616e+000 8.686382e+000 8.646354e+000 8.596918e+000 8.524877e+000 8.436317e+000 8.324524e+000 8.180158e+000 8.829731e+000 8.606316e+000 8.629408e+000 8.610573e+000 8.524990e+000 8.416889e+000 8.247078e+000 8.122723e+000 8.661444e+000 8.614300e+000 8.577384e+000 8.466465e+000 8.381645e+000 8.261131e+000 8.162470e+000 8.073254e+000 8.343431e+000 8.684986e+000 8.570910e+000 8.427678e+000 8.367544e+000 8.260409e+000 8.206202e+000 8.097268e+000 8.565670e+000 8.536961e+000 8.457387e+000 8.462069e+000 8.400582e+000 8.329166e+000 8.243402e+000 8.111819e+000 8.590895e+000 8.353785e+000 8.347911e+000 8.377674e+000 8.324166e+000 8.279426e+000 8.168012e+000 8.090406e+000 8.574024e+000 8.339991e+000 8.344342e+000 8.319797e+000 8.261971e+000 8.214455e+000 8.111958e+000 8.074306e+000 8.260981e+000 8.395989e+000 8.362553e+000 8.272927e+000 8.239950e+000 8.172628e+000 8.143202e+000 8.064449e+000 8.027531e+000 8.377320e+000 8.332950e+000 8.204185e+000 8.192283e+000 8.131833e+000 8.140454e+000 8.048063e+000 7.946649e+000 8.296629e+000 8.269979e+000 8.156249e+000 8.150473e+000 8.112985e+000 8.125208e+000 8.058732e+000 8.026442e+000 8.201210e+000 8.210576e+000 8.148274e+000 8.146778e+000 8.124650e+000 8.120296e+000 8.072647e+000 8.028401e+000 8.139979e+000 8.141960e+000 8.112473e+000 8.103223e+000 8.074532e+000 8.057234e+000 8.023550e+000 8.042190e+000 8.011066e+000 7.997326e+000 7.978484e+000 7.958616e+000 7.947104e+000 7.943819e+000 7.963439e+000
<VARIANCE> 320
 1.000000e-002 1.000000e-002 1.000000e-002 1.000000e-002 1.000000e-002 1.000000e-002 1.000000e-002 1.000000e-002 1.000000e-002 1.000000e-002 1.000000e-002 1.000000e-002 1.000000e-002 1.000000e-002 1.000000e-002 1.000000e-002 1.000000e-002 1.000000e-002 1.000000e-002 1.000000e-002 1.000000e-002 1.000000e-002 1.000000e-002 1.000000e-002 1.000000e-002 1.000000e-002 1.000000e-002 1.000000e-002 1.000000e-002 1.000000e-002 1.000000e-002 1.000000e-002 1.000000e-002 1.000000e-002 1.000000e-002 1.000000e-002 1.000000e-002 1.000000e-002 1.000000e-002 1.000000e-002 1.000000e-002 1.000000e-002 1.000000e-002 1.000000e-002 1.000000e-002 1.000000e-002 1.000000e-002 1.000000e-002 1.000000e-002 1.000000e-002 1.000000e-002 1.000000e-002 1.000000e-002 1.000000e-002 1.000000e-002 1.000000e-002 1.000000e-002 1.000000e-002 1.000000e-002 1.000000e-002 1.000000e-002 1.000000e-002 1.000000e-002 1.000000e-002 1.000000e-002 1.000000e-002 1.000000e-002 1.000000e-002 1.000000e-002 1.000000e-002 1.000000e-002 1.000000e-002 1.000000e-002 1.000000e-002 1.000000e-002 1.000000e-002 1.000000e-002 1.000000e-002 1.000000e-002 1.000000e-002 1.000000e-002 1.000000e-002 1.000000e-002 1.000000e-002 1.000000e-002 1.000000e-002 1.000000e-002 1.000000e-002 1.000000e-002 1.000000e-002 1.000000e-002 1.000000e-002 1.000000e-002 1.000000e-002 1.000000e-002 1.000000e-002 1.000000e-002 1.000000e-002 1.000000e-002 1.000000e-002 1.000000e-002 1.000000e-002 1.000000e-002 1.000000e-002 1.000000e-002 1.000000e-002 1.000000e-002 1.000000e-002 1.000000e-002 1.000000e-002 1.000000e-002 1.000000e-002 1.000000e-002 1.000000e-002 1.000000e-002 1.000000e-002 1.000000e-002 1.000000e-002 1.000000e-002 1.000000e-002 1.000000e-002 1.000000e-002 1.000000e-002 1.000000e-002 1.000000e-002 1.000000e-002 1.000000e-002 1.000000e-002 1.000000e-002 1.000000e-002 1.000000e-002 1.000000e-002 1.000000e-002 1.000000e-002 1.000000e-002 1.000000e-002 1.000000e-002 1.000000e-002 1.000000e-002 1.000000e-002 1.000000e-002 1.000000e-002 1.000000e-002 1.000000e-002 1.000000e-002 1.000000e-002 1.000000e-002 1.000000e-002 1.000000e-002 1.000000e-002 1.000000e-002 1.000000e-002 1.000000e-002 1.000000e-002 1.000000e-002 1.000000e-002 1.000000e-002 1.000000e-002 1.000000e-002 1.000000e-002 1.000000e-002 1.000000e-002 1.000000e-002 1.000000e-002 1.000000e-002 1.000000e-002 1.000000e-002 1.000000e-002 1.000000e-002 1.000000e-002 1.000000e-002 1.000000e-002 1.000000e-002 1.000000e-002 1.000000e-002 1.000000e-002 1.000000e-002 1.000000e-002 1.000000e-002 1.000000e-002 1.000000e-002 1.000000e-002 1.000000e-002 1.000000e-002 1.000000e-002 1.000000e-002 1.000000e-002 1.000000e-002 1.000000e-002 1.000000e-002 1.000000e-002 1.000000e-002 1.000000e-002 1.000000e-002 1.000000e-002 1.000000e-002 1.000000e-002 1.000000e-002 1.000000e-002 1.000000e-002 1.000000e-002 1.000000e-002 1.000000e-002 1.000000e-002 1.000000e-002 1.000000e-002 1.000000e-002 1.000000e-002 1.000000e-002 1.000000e-002 1.000000e-002 1.000000e-002 1.000000e-002 1.000000e-002 1.000000e-002 1.000000e-002 1.000000e-002 1.000000e-002 1.000000e-002 1.000000e-002 1.000000e-002 1.000000e-002 1.000000e-002 1.000000e-002 1.000000e-002 1.000000e-002 1.000000e-002 1.000000e-002 1.000000e-002 1.000000e-002 1.000000e-002 1.000000e-002 1.000000e-002 1.000000e-002 1.000000e-002 1.000000e-002 1.000000e-002 1.000000e-002 1.000000e-002 1.000000e-002 1.000000e-002 1.000000e-002 1.000000e-002 1.000000e-002 1.000000e-002 1.000000e-002 1.000000e-002 1.000000e-002 1.000000e-002 1.000000e-002 1.000000e-002 1.000000e-002 1.000000e-002 1.000000e-002 1.000000e-002 1.000000e-002 1.000000e-002 1.000000e-002 1.000000e-002 1.000000e-002 1.000000e-002 1.000000e-002 1.000000e-002 1.000000e-002 1.000000e-002 1.000000e-002 1.000000e-002 1.000000e-002 1.000000e-002 1.000000e-002 1.000000e-002 1.000000e-002 1.000000e-002 1.000000e-002 1.000000e-002 1.000000e-002 1.000000e-002 1.000000e-002 1.000000e-002 1.000000e-002 1.000000e-002 1.000000e-002 1.000000e-002 1.000000e-002 1.000000e-002 1.000000e-002 1.000000e-002 1.000000e-002 1.000000e-002 1.000000e-002 1.000000e-002 1.000000e-002 1.000000e-002 1.000000e-002 1.000000e-002 1.000000e-002 1.000000e-002 1.000000e-002 1.000000e-002 1.000000e-002 1.000000e-002 1.000000e-002 1.000000e-002 1.000000e-002 1.000000e-002 1.000000e-002 1.000000e-002 1.000000e-002 1.000000e-002 1.000000e-002 1.000000e-002 1.000000e-002 1.000000e-002 1.000000e-002 1.000000e-002 1.000000e-002 1.000000e-002 1.000000e-002 1.000000e-002 1.000000e-002
<GCONST> -8.855338e+002
<TRANSP> 3
 0.000000e+000 1.000000e+000 0.000000e+000
 0.000000e+000 0.000000e+000 1.000000e+000
 0.000000e+000 0.000000e+000 0.000000e+000
<ENDHMM>
~h "h5"
<BEGINHMM>
<NUMSTATES> 4
<STATE> 2
<MEAN> 320
 2.399260e+001 1.002161e+001 8.800487e+000 1.008639e+001 8.931333e+000 8.067661e+000 8.469385e+000 8.012705e+000 6.413946e+000 9.773901e+000 8.661644e+000 9.597712e+000 8.812895e+000 8.080088e+000 8.170550e+000 7.917193e+000 7.814986e+000 9.332067e+000 8.811490e+000 8.894215e+000 8.722354e+000 8.352874e+000 7.923590e+000 7.972332e+000 9.440625e+000 9.068516e+000 9.009078e+000 8.313167e+000 8.693874e+000 8.674037e+000 7.860341e+000 8.069510e+000 1.043613e+001 9.118992e+000 8.972572e+000 8.030800e+000 8.692457e+000 8.850561e+000 7.924709e+000 8.086987e+000 1.049495e+001 9.225617e+000 8.593372e+000 8.016164e+000 8.683053e+000 8.821829e+000 7.975987e+000 7.996423e+000 9.619222e+000 9.260325e+000 8.255571e+000 8.245623e+000 8.698097e+000 8.655307e+000 8.060625e+000 7.933228e+000 8.803728e+000 9.088665e+000 8.260184e+000 8.561692e+000 8.748911e+000 8.527054e+000 8.095654e+000 7.950024e+000 8.413155e+000 8.770628e+000 8.551716e+000 8.648636e+000 8.782194e+000 8.534223e+000 7.996539e+000 7.999790e+000 8.815699e+000 8.580856e+000 8.735186e+000 8.556853e+000 8.765790e+000 8.627430e+000 7.862143e+000 8.032045e+000 9.122843e+000 8.704426e+000 8.862575e+000 8.538396e+000 8.802046e+000 8.673005e+000 7.847910e+000 8.042573e+000 9.255636e+000 8.914447e+000 8.917883e+000 8.756664e+000 8.791400e+000 8.646038e+000 7.921456e+000 7.991553e+000 9.297268e+000 9.275248e+000 8.959957e+000 9.019154e+000 8.818892e+000 8.639376e+000 8.061161e+000 8.006512e+000 9.367158e+000 9.534498e+000 9.162098e+000 9.129560e+000 8.874333e+000 8.675972e+000 8.218451e+000 8.092425e+000 9.388222e+000 9.390373e+000 9.235034e+000 9.185658e+000 8.921057e+000 8.708740e+000 8.462502e+000 8.235836e+000 9.482134e+000 9.183756e+000 9.361614e+000 9.164143e+000 8.924986e+000 8.762667e+000 8.598378e+000 8.320505e+000 9.426445e+000 9.362825e+000 9.198504e+000 9.098394e+000 8.878946e+000 8.759135e+000 8.641807e+000 8.352863e+000 9.429360e+000 9.123092e+000 9.127490e+000 8.977486e+000 8.834556e+000 8.678694e+000 8.575838e+000 8.298326e+000 9.231931e+000 9.196336e+000 9.061547e+000 8.928937e+000 8.785781e+000 8.652457e+000 8.473674e+000 8.237787e+000 9.257652e+000 9.055582e+000 8.978468e+000 8.855398e+000 8.756820e+000 8.630553e+000 8.438810e+000 8.222639e+000 9.130572e+000 8.998846e+000 8.945132e+000 8.844396e+000 8.740602e+000 8.641787e+000 8.409626e+000 8.212218e+000 9.092649e+000 8.941432e+000 8.903065e+000 8.798747e+000 8.712280e+000 8.594413e+000 8.421446e+000 8.236403e+000 8.942948e+000 8.940439e+000 8.887310e+000 8.798267e+000 8.681996e+000 8.556804e+000 8.380917e+000 8.218456e+000 9.075665e+000 8.864211e+000 8.897267e+000 8.789005e+000 8.655852e+000 8.503527e+000 8.364308e+000 8.192543e+000 8.779937e+000 8.969055e+000 8.847969e+000 8.767806e+000 8.628983e+000 8.478916e+000 8.368736e+000 8.174761e+000 9.001453e+000 8.755755e+000 8.787743e+000 8.720736e+000 8.596292e+000 8.476440e+000 8.323723e+000 8.143552e+000 8.694449e+000 8.775912e+000 8.717821e+000 8.632011e+000 8.548882e+000 8.441093e+000 8.343472e+000 8.167381e+000 8.598210e+000 8.715301e+000 8.655443e+000 8.604333e+000 8.528442e+000 8.440887e+000 8.322844e+000 8.172665e+000 8.838874e+000 8.615456e+000 8.624909e+000 8.611049e+000 8.527111e+000 8.431779e+000 8.281296e+000 8.142123e+000 8.666531e+000 8.606693e+000 8.580035e+000 8.482139e+000 8.395743e+000 8.289276e+000 8.220728e+000 8.107292e+000 8.367626e+000 8.659368e+000 8.575349e+000 8.445951e+000 8.380311e+000 8.284062e+000 8.243945e+000 8.124397e+000 8.589478e+000 8.524856e+000 8.466565e+000 8.473824e+000 8.408819e+000 8.337649e+000 8.248192e+000 8.121750e+000 8.614024e+000 8.361525e+000 8.374213e+000 8.399071e+000 8.341711e+000 8.289042e+000 8.158328e+000 8.083565e+000 8.587474e+000 8.355148e+000 8.381058e+000 8.355954e+000 8.295317e+000 8.236907e+000 8.113859e+000 8.063076e+000 8.284144e+000 8.406633e+000 8.378957e+000 8.302251e+000 8.263696e+000 8.198096e+000 8.158434e+000 8.064311e+000 8.057041e+000 8.378701e+000 8.330454e+000 8.213566e+000 8.194407e+000 8.144316e+000 8.155484e+000 8.059503e+000 7.952212e+000 8.293369e+000 8.266405e+000 8.152333e+000 8.144694e+000 8.112319e+000 8.134606e+000 8.071996e+000 8.012707e+000 8.194027e+000 8.207370e+000 8.134943e+000 8.136170e+000 8.114013e+000 8.117096e+000 8.078967e+000 8.031244e+000 8.134205e+000 8.139125e+000 8.105883e+000 8.097754e+000 8.067099e+000 8.047769e+000 8.023047e+000 8.062807e+000 8.011276e+000 8.000952e+000 7.989422e+000 7.967346e+000 7.951991e+000 7.941685e+000 7.960286e+000
<VARIANCE> 320
 1.000000e-002 1.000000e-002 1.000000e-002 1.000000e-002 1.000000e-002 1.000000e-002 1.000000e-002 1.000000e-002 1.000000e-002 1.000000e-002 1.000000e-002 1.000000e-002 1.000000e-002 1.000000e-002 1.000000e-002 1.000000e-002 1.000000e-002 1.000000e-002 1.000000e-002 1.000000e-002 1.000000e-002 1.000000e-002 1.000000e-002 1.000000e-002 1.000000e-002 1.000000e-002 1.000000e-002 1.000000e-002 1.000000e-002 1.000000e-002 1.000000e-002 1.000000e-002 1.000000e-002 1.000000e-002 1.000000e-002 1.000000e-002 1.000000e-002 1.000000e-002 1.000000e-002 1.000000e-002 1.000000e-002 1.000000e-002 1.000000e-002 1.000000e-002 1.000000e-002 1.000000e-002 1.000000e-002 1.000000e-002 1.000000e-002 1.000000e-002 1.000000e-002 1.000000e-002 1.000000e-002 1.000000e-002 1.000000e-002 1.000000e-002 1.000000e-002 1.000000e-002 1.000000e-002 1.000000e-002 1.000000e-002 1.000000e-002 1.000000e-002 1.000000e-002 1.000000e-002 1.000000e-002 1.000000e-002 1.000000e-002 1.000000e-002 1.000000e-002 1.000000e-002 1.000000e-002 1.000000e-002 1.000000e-002 1.000000e-002 1.000000e-002 1.000000e-002 1.000000e-002 1.000000e-002 1.000000e-002 1.000000e-002 1.000000e-002 1.000000e-002 1.000000e-002 1.000000e-002 1.000000e-002 1.000000e-002 1.000000e-002 1.000000e-002 1.000000e-002 1.000000e-002 1.000000e-002 1.000000e-002 1.000000e-002 1.000000e-002 1.000000e-002 1.000000e-002 1.000000e-002 1.000000e-002 1.000000e-002 1.000000e-002 1.000000e-002 1.000000e-002 1.000000e-002 1.000000e-002 1.000000e-002 1.000000e-002 1.000000e-002 1.000000e-002 1.000000e-002 1.000000e-002 1.000000e-002 1.000000e-002 1.000000e-002 1.000000e-002 1.000000e-002 1.000000e-002 1.000000e-002 1.000000e-002 1.000000e-002 1.000000e-002 1.000000e-002 1.000000e-002 1.000000e-002 1.000000e-002 1.000000e-002 1.000000e-002 1.000000e-002 1.000000e-002 1.000000e-002 1.000000e-002 1.000000e-002 1.000000e-002 1.000000e-002 1.000000e-002 1.000000e-002 1.000000e-002 1.000000e-002 1.000000e-002 1.000000e-002 1.000000e-002 1.000000e-002 1.000000e-002 1.000000e-002 1.000000e-002 1.000000e-002 1.000000e-002 1.000000e-002 1.000000e-002 1.000000e-002 1.000000e-002 1.000000e-002 1.000000e-002 1.000000e-002 1.000000e-002 1.000000e-002 1.000000e-002 1.000000e-002 1.000000e-002 1.000000e-002 1.000000e-002 1.000000e-002 1.000000e-002 1.000000e-002 1.000000e-002 1.000000e-002 1.000000e-002 1.000000e-002 1.000000e-002 1.000000e-002 1.000000e-002 1.000000e-002 1.000000e-002 1.000000e-002 1.000000e-002 1.000000e-002 1.000000e-002 1.000000e-002 1.000000e-002 1.000000e-002 1.000000e-002 1.000000e-002 1.000000e-002 1.000000e-002 1.000000e-002 1.000000e-002 1.000000e-002 1.000000e-002 1.000000e-002 1.000000e-002 1.000000e-002 1.000000e-002 1.000000e-002 1.000000e-002 1.000000e-002 1.000000e-002 1.000000e-002 1.000000e-002 1.000000e-002 1.000000e-002 1.000000e-002 1.000000e-002 1.000000e-002 1.000000e-002 1.000000e-002 1.000000e-002 1.000000e-002 1.000000e-002 1.000000e-002 1.000000e-002 1.000000e-002 1.000000e-002 1.000000e-002 1.000000e-002 1.000000e-002 1.000000e-002 1.000000e-002 1.000000e-002 1.000000e-002 1.000000e-002 1.000000e-002 1.000000e-002 1.000000e-002 1.000000e-002 1.000000e-002 1.000000e-002 1.000000e-002 1.000000e-002 1.000000e-002 1.000000e-002 1.000000e-002 1.000000e-002 1.000000e-002 1.000000e-002 1.000000e-002 1.000000e-002 1.000000e-002 1.000000e-002 1.000000e-002 1.000000e-002 1.000000e-002 1.000000e-002 1.000000e-002 1.000000e-002 1.000000e-002 1.000000e-002 1.000000e-002 1.000000e-002 1.000000e-002 1.000000e-002 1.000000e-002 1.000000e-002 1.000000e-002 1.000000e-002 1.000000e-002 1.000000e-002 1.000000e-002 1.000000e-002 1.000000e-002 1.000000e-002 1.000000e-002 1.000000e-002 1.000000e-002 1.000000e-002 1.000000e-002 1.000000e-002 1.000000e-002 1.000000e-002 1.000000e-002 1.000000e-002 1.000000e-002 1.000000e-002 1.000000e-002 1.000000e-002 1.000000e-002 1.000000e-002 1.000000e-002 1.000000e-002 1.000000e-002 1.000000e-002 1.000000e-002 1.000000e-002 1.000000e-002 1.000000e-002 1.000000e-002 1.000000e-002 1.000000e-002 1.000000e-002 1.000000e-002 1.000000e-002 1.000000e-002 1.000000e-002 1.000000e-002 1.000000e-002 1.000000e-002 1.000000e-002 1.000000e-002 1.000000e-002 1.000000e-002 1.000000e-002 1.000000e-002 1.000000e-002 1.000000e-002 1.000000e-002 1.000000e-002 1.000000e-002 1.000000e-002 1.000000e-002 1.000000e-002 1.000000e-002 1.000000e-002 1.000000e-002 1.000000e-002 1.000000e-002 1.000000e-002 1.000000e-002 1.000000e-002 1.000000e-002 1.000000e-002 1.000000e-002
<GCONST> -8.855338e+002
<STATE> 3
<MEAN> 320
 2.641747e+001 9.328094e+000 9.235213e+000 9.104806e+000 8.907028e+000 8.751786e+000 8.470705e+000 8.259314e+000 9.280746e+000 9.483391e+000 9.215896e+000 9.100889e+000 8.903431e+000 8.724109e+000 8.474116e+000 8.229356e+000 9.218929e+000 9.661119e+000 9.189281e+000 9.112614e+000 8.880810e+000 8.705119e+000 8.447718e+000 8.209112e+000 9.225051e+000 9.823971e+000 9.171194e+000 9.128195e+000 8.868340e+000 8.689771e+000 8.429317e+000 8.193845e+000 9.208981e+000 9.905735e+000 9.171325e+000 9.159157e+000 8.897066e+000 8.711090e+000 8.458323e+000 8.211955e+000 9.263467e+000 9.749619e+000 9.153633e+000 9.158010e+000 8.937392e+000 8.753687e+000 8.527439e+000 8.262839e+000 9.268342e+000 9.402287e+000 9.188836e+000 9.144464e+000 8.984083e+000 8.794753e+000 8.594491e+000 8.309699e+000 9.336206e+000 9.071603e+000 9.261847e+000 9.117841e+000 9.009183e+000 8.806648e+000 8.616051e+000 8.322027e+000 9.311822e+000 9.003722e+000 9.285774e+000 9.109136e+000 9.025510e+000 8.844762e+000 8.643396e+000 8.347372e+000 9.274267e+000 9.189102e+000 9.197399e+000 9.133308e+000 9.016294e+000 8.875840e+000 8.654407e+000 8.365750e+000 9.205288e+000 9.308109e+000 9.093760e+000 9.139341e+000 8.992216e+000 8.866185e+000 8.651024e+000 8.376858e+000 9.264805e+000 9.130031e+000 9.130178e+000 9.080385e+000 8.969725e+000 8.811158e+000 8.619922e+000 8.356090e+000 9.261667e+000 9.054224e+000 9.198712e+000 9.035823e+000 8.939838e+000 8.766159e+000 8.554421e+000 8.306924e+000 9.169616e+000 9.269251e+000 9.113491e+000 9.037223e+000 8.884752e+000 8.712099e+000 8.488120e+000 8.258781e+000 9.194516e+000 9.182872e+000 9.084357e+000 9.005309e+000 8.850725e+000 8.648889e+000 8.455959e+000 8.224388e+000 9.321088e+000 9.044271e+000 9.144108e+000 8.970510e+000 8.816111e+000 8.620738e+000 8.383033e+000 8.170264e+000 9.054360e+000 9.269151e+000 9.029781e+000 8.950429e+000 8.779295e+000 8.586872e+000 8.385630e+000 8.170962e+000 9.230813e+000 9.024254e+000 9.032442e+000 8.898025e+000 8.757839e+000 8.570394e+000 8.390162e+000 8.179415e+000 9.014114e+000 9.088519e+000 8.976110e+000 8.875288e+000 8.731729e+000 8.581664e+000 8.393947e+000 8.198207e+000 9.041173e+000 9.013895e+000 8.937581e+000 8.839365e+000 8.734731e+000 8.585420e+000 8.450260e+000 8.239804e+000 8.950115e+000 8.959035e+000 8.901523e+000 8.826777e+000 8.719769e+000 8.597298e+000 8.424562e+000 8.232761e+000 8.951605e+000 8.922421e+000 8.882483e+000 8.792461e+000 8.704907e+000 8.565360e+000 8.425358e+000 8.226475e+000 8.826437e+000 8.900293e+000 8.833031e+000 8.765912e+000 8.657684e+000 8.522566e+000 8.342509e+000 8.172244e+000 8.990909e+000 8.801822e+000 8.819957e+000 8.718110e+000 8.609498e+000 8.460706e+000 8.295767e+000 8.136494e+000 8.651750e+000 8.894784e+000 8.763209e+000 8.682954e+000 8.570563e+000 8.425549e+000 8.299155e+000 8.133739e+000 8.958498e+000 8.695558e+000 8.708677e+000 8.657959e+000 8.548532e+000 8.439073e+000 8.277294e+000 8.130171e+000 8.645005e+000 8.740871e+000 8.683164e+000 8.594583e+000 8.521470e+000 8.417288e+000 8.334635e+000 8.174866e+000 8.570710e+000 8.690697e+000 8.640511e+000 8.583235e+000 8.511400e+000 8.424111e+000 8.316474e+000 8.177059e+000 8.804961e+000 8.578909e+000 8.597268e+000 8.586169e+000 8.505502e+000 8.407025e+000 8.244746e+000 8.121199e+000 8.598207e+000 8.550138e+000 8.536042e+000 8.436506e+000 8.359070e+000 8.252889e+000 8.162532e+000 8.072887e+000 8.266631e+000 8.613806e+000 8.540676e+000 8.411878e+000 8.355292e+000 8.257025e+000 8.205649e+000 8.096281e+000 8.537229e+000 8.505586e+000 8.444172e+000 8.460986e+000 8.400853e+000 8.328539e+000 8.241248e+000 8.109522e+000 8.582259e+000 8.345748e+000 8.343501e+000 8.373462e+000 8.321133e+000 8.275764e+000 8.164381e+000 8.088910e+000 8.564440e+000 8.327265e+000 8.332448e+000 8.312630e+000 8.257151e+000 8.210233e+000 8.107388e+000 8.072286e+000 8.241011e+000 8.371590e+000 8.346233e+000 8.269386e+000 8.236988e+000 8.168890e+000 8.138345e+000 8.061028e+000 8.009738e+000 8.355402e+000 8.320307e+000 8.206946e+000 8.192834e+000 8.127397e+000 8.134089e+000 8.043951e+000 7.941752e+000 8.287471e+000 8.263049e+000 8.157820e+000 8.151022e+000 8.108824e+000 8.119744e+000 8.055555e+000 8.032066e+000 8.204464e+000 8.210535e+000 8.145741e+000 8.143712e+000 8.122398e+000 8.119871e+000 8.072335e+000 8.027866e+000 8.137631e+000 8.137822e+000 8.109230e+000 8.100498e+000 8.074439e+000 8.059789e+000 8.024707e+000 8.024366e+000 7.992037e+000 7.982744e+000 7.973066e+000 7.956316e+000 7.947836e+000 7.945965e+000 7.964427e+000
<VARIANCE> 320
 1.000000e-002 1.000000e-002 1.000000e-002 1.000000e-002 1.000000e-002 1.000000e-002 1.000000e-002 1.000000e-002 1.000000e-002 1.000000e-002 1.000000e-002 1.000000e-002 1.000000e-002 1.000000e-002 1.000000e-002 1.000000e-002 1.000000e-002 1.000000e-002 1.000000e-002 1.000000e-002 1.000000e-002 1.000000e-002 1.000000e-002 1.000000e-002 1.000000e-002 1.000000e-002 1.000000e-002 1.000000e-002 1.000000e-002 1.000000e-002 1.000000e-002 1.000000e-002 1.000000e-002 1.000000e-002 1.000000e-002 1.000000e-002 1.000000e-002 1.000000e-002 1.000000e-002 1.000000e-002 1.000000e-002 1.000000e-002 1.000000e-002 1.000000e-002 1.000000e-002 1.000000e-002 1.000000e-002 1.000000e-002 1.000000e-002 1.000000e-002 1.000000e-002 1.000000e-002 1.000000e-002 1.000000e-002 1.000000e-002 1.000000e-002 1.000000e-002 1.000000e-002 1.000000e-002 1.000000e-002 1.000000e-002 1.000000e-002 1.000000e-002 1.000000e-002 1.000000e-002 1.000000e-002 1.000000e-002 1.000000e-002 1.000000e-002 1.000000e-002 1.000000e-002 1.000000e-002 1.000000e-002 1.000000e-002 1.000000e-002 1.000000e-002 1.000000e-002 1.000000e-002 1.000000e-002 1.000000e-002 1.000000e-002 1.000000e-002 1.000000e-002 1.000000e-002 1.000000e-002 1.000000e-002 1.000000e-002 1.000000e-002 1.000000e-002 1.000000e-002 1.000000e-002 1.000000e-002 1.000000e-002 1.000000e-002 1.000000e-002 1.000000e-002 1.000000e-002 1.000000e-002 1.000000e-002 1.000000e-002 1.000000e-002 1.000000e-002 1.000000e-002 1.000000e-002 1.000000e-002 1.000000e-002 1.000000e-002 1.000000e-002 1.000000e-002 1.000000e-002 1.000000e-002 1.000000e-002 1.000000e-002 1.000000e-002 1.000000e-002 1.000000e-002 1.000000e-002 1.000000e-002 1.000000e-002 1.000000e-002 1.000000e-002 1.000000e-002 1.000000e-002 1.000000e-002 1.000000e-002 1.000000e-002 1.000000e-002 1.000000e-002 1.000000e-002 1.000000e-002 1.000000e-002 1.000000e-002 1.000000e-002 1.000000e-002 1.000000e-002 1.000000e-002 1.000000e-002 1.000000e-002 1.000000e-002 1.000000e-002 1.000000e-002 1.000000e-002 1.000000e-002 1.000000e-002 1.000000e-002 1.000000e-002 1.000000e-002 1.000000e-002 1.000000e-002 1.000000e-002 1.000000e-002 1.000000e-002 1.000000e-002 1.000000e-002 1.000000e-002 1.000000e-002 1.000000e-002 1.000000e-002 1.000000e-002 1.000000e-002 1.000000e-002 1.000000e-002 1.000000e-002 1.000000e-002 1.000000e-002 1.000000e-002 1.000000e-002 1.000000e-002 1.000000e-002 1.000000e-002 1.000000e-002 1.000000e-002 1.000000e-002 1.000000e-002 1.000000e-002 1.000000e-002 1.000000e-002 1.000000e-002 1.000000e-002 1.000000e-002 1.000000e-002 1.000000e-002 1.000000e-002 1.000000e-002 1.000000e-002 1.000000e-002 1.000000e-002 1.000000e-002 1.000000e-002 1.000000e-002 1.000000e-002 1.000000e-002 1.000000e-002 1.000000e-002 1.000000e-002 1.000000e-002 1.000000e-002 1.000000e-002 1.000000e-002 1.000000e-002 1.000000e-002 1.000000e-002 1.000000e-002 1.000000e-002 1.000000e-002 1.000000e-002 1.000000e-002 1.000000e-002 1.000000e-002 1.000000e-002 1.000000e-002 1.000000e-002 1.000000e-002 1.000000e-002 1.000000e-002 1.000000e-002 1.000000e-002 1.000000e-002 1.000000e-002 1.000000e-002 1.000000e-002 1.000000e-002 1.000000e-002 1.000000e-002 1.000000e-002 1.000000e-002 1.000000e-002 1.000000e-002 1.000000e-002 1.000000e-002 1.000000e-002 1.000000e-002 1.000000e-002 1.000000e-002 1.000000e-002 1.000000e-002 1.000000e-002 1.000000e-002 1.000000e-002 1.000000e-002 1.000000e-002 1.000000e-002 1.000000e-002 1.000000e-002 1.000000e-002 1.000000e-002 1.000000e-002 1.000000e-002 1.000000e-002 1.000000e-002 1.000000e-002 1.000000e-002 1.000000e-002 1.000000e-002 1.000000e-002 1.000000e-002 1.000000e-002 1.000000e-002 1.000000e-002 1.000000e-002 1.000000e-002 1.000000e-002 1.000000e-002 1.000000e-002 1.000000e-002 1.000000e-002 1.000000e-002 1.000000e-002 1.000000e-002 1.000000e-002 1.000000e-002 1.000000e-002 1.000000e-002 1.000000e-002 1.000000e-002 1.000000e-002 1.000000e-002 1.000000e-002 1.000000e-002 1.000000e-002 1.000000e-002 1.000000e-002 1.000000e-002 1.000000e-002 1.000000e-002 1.000000e-002 1.000000e-002 1.000000e-002 1.000000e-002 1.000000e-002 1.000000e-002 1.000000e-002 1.000000e-002 1.000000e-002 1.000000e-002 1.000000e-002 1.000000e-002 1.000000e-002 1.000000e-002 1.000000e-002 1.000000e-002 1.000000e-002 1.000000e-002 1.000000e-002 1.000000e-002 1.000000e-002 1.000000e-002 1.000000e-002 1.000000e-002 1.000000e-002 1.000000e-002 1.000000e-002 1.000000e-002 1.000000e-002 1.000000e-002 1.000000e-002 1.000000e-002 1.000000e-002 1.000000e-002 1.000000e-002
<GCONST> -8.855338e+002
<TRANSP> 4
 0.000000e+000 1.000000e+000 0.000000e+000 0.000000e+000
 0.000000e+000 0.000000e+000 1.000000e+000 0.000000e+000
 0.000000e+000 0.000000e+000 0.000000e+000 1.000000e+000
 0.000000e+000 0.000000e+000 0.000000e+000 0.000000e+000
<ENDHMM>
~h "h6"
<BEGINHMM>
<NUMSTATES> 3
<STATE> 2
<MEAN> 320
 2.485863e+001 8.502394e+000 9.851075e+000 9.537313e+000 9.027982e+000 8.560935e+000 8.371049e+000 8.314483e+000 7.456932e+000 8.649197e+000 9.422817e+000 9.285837e+000 8.984924e+000 8.526673e+000 8.415097e+000 8.314240e+000 8.389369e+000 9.113976e+000 8.881010e+000 9.008120e+000 8.945447e+000 8.534432e+000 8.457253e+000 8.315642e+000 9.434721e+000 9.707333e+000 8.552574e+000 8.724600e+000 8.887248e+000 8.616377e+000 8.507758e+000 8.298423e+000 9.955606e+000 1.010886e+001 8.534536e+000 8.446866e+000 8.791800e+000 8.797239e+000 8.590507e+000 8.287009e+000 9.809198e+000 9.979560e+000 8.617476e+000 8.287115e+000 8.761096e+000 8.997579e+000 8.654035e+000 8.296325e+000 9.120445e+000 9.381034e+000 8.773477e+000 8.398542e+000 8.886498e+000 9.058995e+000 8.659159e+000 8.314013e+000 8.688214e+000 8.685665e+000 8.815597e+000 8.656520e+000 9.058015e+000 8.978465e+000 8.639685e+000 8.319050e+000 8.643891e+000 8.333385e+000 8.585142e+000 8.822432e+000 9.183758e+000 8.937945e+000 8.670546e+000 8.333639e+000 9.011718e+000 8.596301e+000 8.295044e+000 8.865972e+000 9.164603e+000 8.892419e+000 8.695658e+000 8.393445e+000 9.219268e+000 8.944858e+000 8.277493e+000 8.738639e+000 9.009451e+000 8.915611e+000 8.717611e+000 8.405064e+000 9.205567e+000 9.022940e+000 8.662455e+000 8.588173e+000 8.789947e+000 8.856883e+000 8.696539e+000 8.392267e+000 9.096361e+000 9.128444e+000 9.157160e+000 8.600583e+000 8.614641e+000 8.800443e+000 8.656814e+000 8.337499e+000 9.220105e+000 9.401077e+000 9.207595e+000 8.846067e+000 8.567834e+000 8.659115e+000 8.617836e+000 8.290084e+000 9.326054e+000 9.320137e+000 9.244387e+000 9.055488e+000 8.697097e+000 8.590502e+000 8.532875e+000 8.241202e+000 9.478444e+000 9.203465e+000 9.325315e+000 9.140958e+000 8.854275e+000 8.615721e+000 8.415239e+000 8.170900e+000 9.313953e+000 9.462055e+000 9.169740e+000 9.109652e+000 8.909023e+000 8.654392e+000 8.384632e+000 8.164832e+000 9.342350e+000 9.138927e+000 9.153531e+000 8.990828e+000 8.864196e+000 8.663980e+000 8.386080e+000 8.179839e+000 9.114962e+000 9.177566e+000 9.050543e+000 8.915904e+000 8.775213e+000 8.640544e+000 8.411369e+000 8.207389e+000 9.136012e+000 9.075206e+000 8.945784e+000 8.846747e+000 8.742766e+000 8.603213e+000 8.471764e+000 8.255344e+000 9.027278e+000 9.019862e+000 8.905216e+000 8.831303e+000 8.732444e+000 8.598626e+000 8.434149e+000 8.245746e+000 9.017005e+000 8.969257e+000 8.884027e+000 8.797256e+000 8.731488e+000 8.579530e+000 8.431711e+000 8.233828e+000 8.897648e+000 8.957985e+000 8.859624e+000 8.793207e+000 8.702261e+000 8.543932e+000 8.346973e+000 8.174846e+000 9.058374e+000 8.864815e+000 8.870165e+000 8.761963e+000 8.661860e+000 8.485697e+000 8.297368e+000 8.135076e+000 8.750504e+000 8.968608e+000 8.812746e+000 8.731031e+000 8.616556e+000 8.443857e+000 8.297798e+000 8.132968e+000 9.003810e+000 8.740293e+000 8.751813e+000 8.687811e+000 8.570995e+000 8.449222e+000 8.279367e+000 8.131963e+000 8.678656e+000 8.764915e+000 8.693276e+000 8.608120e+000 8.530169e+000 8.420448e+000 8.343480e+000 8.177916e+000 8.582323e+000 8.702473e+000 8.646175e+000 8.598489e+000 8.522802e+000 8.430090e+000 8.326716e+000 8.178910e+000 8.820721e+000 8.603155e+000 8.625803e+000 8.619414e+000 8.531152e+000 8.423297e+000 8.254002e+000 8.121049e+000 8.638171e+000 8.589985e+000 8.583567e+000 8.491483e+000 8.395470e+000 8.278968e+000 8.166659e+000 8.072880e+000 8.324579e+000 8.652890e+000 8.572321e+000 8.450403e+000 8.377319e+000 8.279178e+000 8.211607e+000 8.100190e+000 8.563819e+000 8.525135e+000 8.457047e+000 8.467234e+000 8.400482e+000 8.338607e+000 8.252539e+000 8.116879e+000 8.603876e+000 8.365067e+000 8.350801e+000 8.372865e+000 8.322569e+000 8.278076e+000 8.174870e+000 8.093328e+000 8.587437e+000 8.352281e+000 8.354260e+000 8.321472e+000 8.269357e+000 8.214455e+000 8.112387e+000 8.072587e+000 8.270395e+000 8.401279e+000 8.372198e+000 8.282674e+000 8.256571e+000 8.177313e+000 8.136494e+000 8.060760e+000 8.035253e+000 8.378046e+000 8.336589e+000 8.215339e+000 8.211024e+000 8.137304e+000 8.130093e+000 8.045398e+000 7.947788e+000 8.292968e+000 8.270062e+000 8.165907e+000 8.160284e+000 8.116459e+000 8.119021e+000 8.059285e+000 8.021987e+000 8.194930e+000 8.204402e+000 8.150063e+000 8.138756e+000 8.125018e+000 8.127172e+000 8.076811e+000 8.025665e+000 8.134152e+000 8.129891e+000 8.112250e+000 8.088775e+000 8.073502e+000 8.071329e+000 8.028276e+000 8.041245e+000 8.006730e+000 7.988222e+000 7.983061e+000 7.953589e+000 7.946862e+000 7.951564e+000 7.965225e+000
<VARIANCE> 320
 1.000000e-002 1.000000e-002 1.000000e-002 1.000000e-002 1.000000e-002 1.000000e-002 1.000000e-002 1.000000e-002 1.000000e-002 1.000000e-002 1.000000e-002 1.000000e-002 1.000000e-002 1.000000e-002 1.000000e-002 1.000000e-002 1.000000e-002 1.000000e-002 1.000000e-002 1.000000e-002 1.000000e-002 1.000000e-002 1.000000e-002 1.000000e-002 1.000000e-002 1.000000e-002 1.000000e-002 1.000000e-002 1.000000e-002 1.000000e-002 1.000000e-002 1.000000e-002 1.000000e-002 1.000000e-002 1.000000e-002 1.000000e-002 1.000000e-002 1.000000e-002 1.000000e-002 1.000000e-002 1.000000e-002 1.000000e-002 1.000000e-002 1.000000e-002 1.000000e-002 1.000000e-002 1.000000e-002 1.000000e-002 1.000000e-002 1.000000e-002 1.000000e-002 1.000000e-002 1.000000e-002 1.000000e-002 1.000000e-002 1.000000e-002 1.000000e-002 1.000000e-002 1.000000e-002 1.000000e-002 1.000000e-002 1.000000e-002 1.000000e-002 1.000000e-002 1.000000e-002 1.000000e-002 1.000000e-002 1.000000e-002 1.000000e-002 1.000000e-002 1.000000e-002 1.000000e-002 1.000000e-002 1.000000e-002 1.000000e-002 1.000000e-002 1.000000e-002 1.000000e-002 1.000000e-002 1.000000e-002 1.000000e-002 1.000000e-002 1.000000e-002 1.000000e-002 1.000000e-002 1.000000e-002 1.000000e-002 1.000000e-002 1.000000e-002 1.000000e-002 1.000000e-002 1.000000e-002 1.000000e-002 1.000000e-002 1.000000e-002 1.000000e-002 1.000000e-002 1.000000e-002 1.000000e-002 1.000000e-002 1.000000e-002 1.000000e-002 1.000000e-002 1.000000e-002 1.000000e-002 1.000000e-002 1.000000e-002 1.000000e-002 1.000000e-002 1.000000e-002 1.000000e-002 1.000000e-002 1.000000e-002 1.000000e-002 1.000000e-002 1.000000e-002 1.000000e-002 1.000000e-002 1.000000e-002 1.000000e-002 1.000000e-002 1.000000e-002 1.000000e-002 1.000000e-002 1.000000e-002 1.000000e-002 1.000000e-002 1.000000e-002 1.000000e-002 1.000000e-002 1.000000e-002 1.000000e-002 1.000000e-002 1.000000e-002 1.000000e-002 1.000000e-002 1.000000e-002 1.000000e-002 1.000000e-002 1.000000e-002 1.000000e-002 1.000000e-002 1.000000e-002 1.000000e-002 1.000000e-002 1.000000e-002 1.000000e-002 1.000000e-002 1.000000e-002 1.000000e-002 1.000000e-002 1.000000e-002 1.000000e-002 1.000000e-002 1.000000e-002 1.000000e-002 1.000000e-002 1.000000e-002 1.000000e-002 1.000000e-002 1.000000e-002 1.000000e-002 1.000000e-002 1.000000e-002 1.000000e-002 1.000000e-002 1.000000e-002 1.000000e-002 1.000000e-002 1.000000e-002 1.000000e-002 1.000000e-002 1.000000e-002 1.000000e-002 1.000000e-002 1.000000e-002 1.000000e-002 1.000000e-002 1.000000e-002 1.000000e-002 1.000000e-002 1.000000e-002 1.000000e-002 1.000000e-002 1.000000e-002 1.000000e-002 1.000000e-002 1.000000e-002 1.000000e-002 1.000000e-002 1.000000e-002 1.000000e-002 1.000000e-002 1.000000e-002 1.000000e-002 1.000000e-002 1.000000e-002 1.000000e-002 1.000000e-002 1.000000e-002 1.000000e-002 1.000000e-002 1.000000e-002 1.000000e-002 1.000000e-002 1.000000e-002 1.000000e-002 1.000000e-002 1.000000e-002 1.000000e-002 1.000000e-002 1.000000e-002 1.000000e-002 1.000000e-002 1.000000e-002 1.000000e-002 1.000000e-002 1.000000e-002 1.000000e-002 1.000000e-002 1.000000e-002 1.000000e-002 1.000000e-002 1.000000e-002 1.000000e-002 1.000000e-002 1.000000e-002 1.000000e-002 1.000000e-002 1.000000e-002 1.000000e-002 1.000000e-002 1.000000e-002 1.000000e-002 1.000000e-002 1.000000e-002 1.000000e-002 1.000000e-002 1.000000e-002 1.000000e-002 1.000000e-002 1.000000e-002 1.000000e-002 1.000000e-002 1.000000e-002 1.000000e-002 1.000000e-002 1.000000e-002 1.000000e-002 1.000000e-002 1.000000e-002 1.000000e-002 1.000000e-002 1.000000e-002 1.000000e-002 1.000000e-002 1.000000e-002 1.000000e-002 1.000000e-002 1.000000e-002 1.000000e-002 1.000000e-002 1.000000e-002 1.000000e-002 1.000000e-002 1.000000e-002 1.000000e-002 1.000000e-002 1.000000e-002 1.000000e-002 1.000000e-002 1.000000e-002 1.000000e-002 1.000000e-002 1.000000e-002 1.000000e-002 1.000000e-002 1.000000e-002 1.000000e-002 1.000000e-002 1.000000e-002 1.000000e-002 1.000000e-002 1.000000e-002 1.000000e-002 1.000000e-002 1.000000e-002 1.000000e-002 1.000000e-002 1.000000e-002 1.000000e-002 1.000000e-002 1.000000e-002 1.000000e-002 1.000000e-002 1.000000e-002 1.000000e-002 1.000000e-002 1.000000e-002 1.000000e-002 1.000000e-002 1.000000e-002 1.000000e-002 1.000000e-002 1.000000e-002 1.000000e-002 1.000000e-002 1.000000e-002 1.000000e-002 1.000000e-002 1.000000e-002 1.000000e-002 1.000000e-002 1.000000e-002 1.000000e-002 1.000000e-002 1.000000e-002 1.000000e-002 1.000000e-002 1.000000e-002
<GCONST> -8.855338e+002
<TRANSP> 3
 0.000000e+000 1.000000e+000 0.000000e+000
 0.000000e+000 0.000000e+000 1.000000e+000
 0.000000e+000 0.000000e+000 0.000000e+000
<ENDHMM>
~h "h7"
<BEGINHMM>
<NUMSTATES> 4
<STATE> 2
<MEAN> 320
 2.387713e+001 8.311081e+000 8.616467e+000 1.013048e+001 1.001359e+001 9.460746e+000 8.602580e+000 8.022283e+000 6.684783e+000 8.350297e+000 8.248744e+000 9.918024e+000 9.746202e+000 9.216613e+000 8.405446e+000 7.925245e+000 7.930904e+000 8.854203e+000 8.305382e+000 9.293303e+000 9.159846e+000 8.723337e+000 8.278304e+000 7.976660e+000 9.197248e+000 9.398911e+000 8.461512e+000 8.653889e+000 8.496891e+000 8.325540e+000 8.214398e+000 8.126698e+000 9.884506e+000 9.577698e+000 8.640237e+000 8.403275e+000 8.323155e+000 8.237282e+000 8.226674e+000 8.215806e+000 9.883249e+000 9.145831e+000 8.590840e+000 8.557255e+000 8.579683e+000 8.435363e+000 8.261144e+000 8.207210e+000 9.420561e+000 8.480853e+000 8.442673e+000 8.915684e+000 8.966525e+000 8.725515e+000 8.292474e+000 8.143431e+000 9.142222e+000 8.132633e+000 8.357676e+000 9.154258e+000 9.145595e+000 8.888986e+000 8.329273e+000 8.076289e+000 9.055513e+000 8.365614e+000 8.238608e+000 9.178602e+000 9.054536e+000 8.855919e+000 8.400396e+000 8.124383e+000 9.360247e+000 8.778957e+000 8.249843e+000 9.050654e+000 8.839662e+000 8.751563e+000 8.401034e+000 8.153886e+000 9.471312e+000 9.041212e+000 8.283145e+000 8.967992e+000 8.835382e+000 8.692389e+000 8.528741e+000 8.230180e+000 9.397167e+000 8.734889e+000 8.408401e+000 9.044051e+000 9.001424e+000 8.803305e+000 8.625803e+000 8.282969e+000 9.220654e+000 8.590829e+000 8.707528e+000 9.082458e+000 9.060675e+000 8.835901e+000 8.627353e+000 8.307882e+000 9.290606e+000 9.032213e+000 8.874556e+000 9.080783e+000 8.940653e+000 8.769702e+000 8.571953e+000 8.328754e+000 9.339076e+000 9.160159e+000 9.082521e+000 9.039877e+000 8.856103e+000 8.681112e+000 8.516737e+000 8.308431e+000 9.447074e+000 9.226099e+000 9.353797e+000 8.963310e+000 8.754532e+000 8.624954e+000 8.437574e+000 8.251681e+000 9.254208e+000 9.536940e+000 9.336826e+000 8.909700e+000 8.696501e+000 8.584437e+000 8.427294e+000 8.226532e+000 9.323271e+000 9.187536e+000 9.270155e+000 8.889749e+000 8.729067e+000 8.579874e+000 8.406995e+000 8.197435e+000 9.112144e+000 9.189214e+000 9.134333e+000 8.858695e+000 8.693287e+000 8.593022e+000 8.416844e+000 8.214687e+000 9.145106e+000 9.052938e+000 9.013032e+000 8.825092e+000 8.697112e+000 8.587011e+000 8.453883e+000 8.249327e+000 9.046260e+000 8.990347e+000 8.964939e+000 8.825227e+000 8.691350e+000 8.605807e+000 8.432874e+000 8.246041e+000 9.036510e+000 8.955640e+000 8.938841e+000 8.803164e+000 8.691902e+000 8.571940e+000 8.427618e+000 8.243682e+000 8.912129e+000 8.973090e+000 8.913109e+000 8.783557e+000 8.658173e+000 8.536677e+000 8.360847e+000 8.201236e+000 9.050624e+000 8.892424e+000 8.911940e+000 8.739210e+000 8.617991e+000 8.481544e+000 8.326372e+000 8.171707e+000 8.730170e+000 8.990492e+000 8.857476e+000 8.691669e+000 8.569975e+000 8.446322e+000 8.334027e+000 8.168756e+000 8.978390e+000 8.749647e+000 8.772072e+000 8.657773e+000 8.547133e+000 8.455130e+000 8.308130e+000 8.157245e+000 8.672513e+000 8.758773e+000 8.703946e+000 8.595422e+000 8.525835e+000 8.429357e+000 8.348460e+000 8.188184e+000 8.602307e+000 8.695213e+000 8.643131e+000 8.595135e+000 8.525761e+000 8.431011e+000 8.316484e+000 8.183480e+000 8.854146e+000 8.607383e+000 8.629222e+000 8.603981e+000 8.516096e+000 8.411777e+000 8.238909e+000 8.131629e+000 8.669686e+000 8.604205e+000 8.595770e+000 8.458931e+000 8.366592e+000 8.258752e+000 8.157730e+000 8.091104e+000 8.344838e+000 8.669629e+000 8.593735e+000 8.418627e+000 8.350470e+000 8.261941e+000 8.207562e+000 8.122340e+000 8.574455e+000 8.535160e+000 8.466196e+000 8.455875e+000 8.389698e+000 8.333484e+000 8.250655e+000 8.140096e+000 8.603498e+000 8.372514e+000 8.344826e+000 8.378259e+000 8.325729e+000 8.285679e+000 8.182684e+000 8.116839e+000 8.584706e+000 8.359638e+000 8.341474e+000 8.327874e+000 8.271330e+000 8.226201e+000 8.134928e+000 8.093648e+000 8.280546e+000 8.403222e+000 8.364669e+000 8.286171e+000 8.246152e+000 8.182506e+000 8.157819e+000 8.073598e+000 8.057407e+000 8.381494e+000 8.339768e+000 8.218204e+000 8.196530e+000 8.134755e+000 8.140636e+000 8.049577e+000 7.970902e+000 8.303348e+000 8.275636e+000 8.162947e+000 8.155422e+000 8.108604e+000 8.115204e+000 8.058864e+000 8.033313e+000 8.202500e+000 8.208256e+000 8.140791e+000 8.147751e+000 8.114565e+000 8.106036e+000 8.076741e+000 8.029393e+000 8.131602e+000 8.136600e+000 8.098886e+000 8.095791e+000 8.066650e+000 8.046791e+000 8.033287e+000 8.043959e+000 8.002481e+000 7.996838e+000 7.970396e+000 7.949979e+000 7.945724e+000 7.941520e+000 7.972672e+000
<VARIANCE> 320
 1.000000e-002 1.000000e-002 1.000000e-002 1.000000e-002 1.000000e-002 1.000000e-002 1.000000e-002 1.000000e-002 1.000000e-002 1.000000e-002 1.000000e-002 1.000000e-002 1.000000e-002 1.000000e-002 1.000000e-002 1.000000e-002 1.000000e-002 1.000000e-002 1.000000e-002 1.000000e-002 1.000000e-002 1.000000e-002 1.000000e-002 1.000000e-002 1.000000e-002 1.000000e-002 1.000000e-002 1.000000e-002 1.000000e-002 1.000000e-002 1.000000e-002 1.000000e-002 1.000000e-002 1.000000e-002 1.000000e-002 1.000000e-002 1.000000e-002 1.000000e-002 1.000000e-002 1.000000e-002 1.000000e-002 1.000000e-002 1.000000e-002 1.000000e-002 1.000000e-002 1.000000e-002 1.000000e-002 1.000000e-002 1.000000e-002 1.000000e-002 1.000000e-002 1.000000e-002 1.000000e-002 1.000000e-002 1.000000e-002 1.000000e-002 1.000000e-002 1.000000e-002 1.000000e-002 1.000000e-002 1.000000e-002 1.000000e-002 1.000000e-002 1.000000e-002 1.000000e-002 1.000000e-002 1.000000e-002 1.000000e-002 1.000000e-002 1.000000e-002 1.000000e-002 1.000000e-002 1.000000e-002 1.000000e-002 1.000000e-002 1.000000e-002 1.000000e-002 1.000000e-002 1.000000e-002 1.000000e-002 1.000000e-002 1.000000e-002 1.000000e-002 1.000000e-002 1.000000e-002 1.000000e-002 1.000000e-002 1.000000e-002 1.000000e-002 1.000000e-002 1.000000e-002 1.000000e-002 1.000000e-002 1.000000e-002 1.000000e-002 1.000000e-002 1.000000e-002 1.000000e-002 1.000000e-002 1.000000e-002 1.000000e-002 1.000000e-002 1.000000e-002 1.000000e-002 1.000000e-002 1.000000e-002 1.000000e-002 1.000000e-002 1.000000e-002 1.000000e-002 1.000000e-002 1.000000e-002 1.000000e-002 1.000000e-002 1.000000e-002 1.000000e-002 1.000000e-002 1.000000e-002 1.000000e-002 1.000000e-002 1.000000e-002 1.000000e-002 1.000000e-002 1.000000e-002 1.000000e-002 1.000000e-002 1.000000e-002 1.000000e-002 1.000000e-002 1.000000e-002 1.000000e-002 1.000000e-002 1.000000e-002 1.000000e-002 1.000000e-002 1.000000e-002 1.000000e-002 1.000000e-002 1.000000e-002 1.000000e-002 1.000000e-002 1.000000e-002 1.000000e-002 1.000000e-002 1.000000e-002 1.000000e-002 1.000000e-002 1.000000e-002 1.000000e-002 1.000000e-002 1.000000e-002 1.000000e-002 1.000000e-002 1.000000e-002 1.000000e-002 1.000000e-002 1.000000e-002 1.000000e-002 1.000000e-002 1.000000e-002 1.000000e-002 1.000000e-002 1.000000e-002 1.000000e-002 1.000000e-002 1.000000e-002 1.000000e-002 1.000000e-002 1.000000e-002 1.000000e-002 1.000000e-002 1.000000e-002 1.000000e-002 1.000000e-002 1.000000e-002 1.000000e-002 1.000000e-002 1.000000e-002 1.000000e-002 1.000000e-002 1.000000e-002 1.000000e-002 1.000000e-002 1.000000e-002 1.000000e-002 1.000000e-002 1.000000e-002 1.000000e-002 1.000000e-002 1.000000e-002 1.000000e-002 1.000000e-002 1.000000e-002 1.000000e-002 1.000000e-002 1.000000e-002 1.000000e-002 1.000000e-002 1.000000e-002 1.000000e-002 1.000000e-002 1.000000e-002 1.000000e-002 1.000000e-002 1.000000e-002 1.000000e-002 1.000000e-002 1.000000e-002 1.000000e-002 1.000000e-002 1.000000e-002 1.000000e-002 1.000000e-002 1.000000e-002 1.000000e-002 1.000000e-002 1.000000e-002 1.000000e-002 1.000000e-002 1.000000e-002 1.000000e-002 1.000000e-002 1.000000e-002 1.000000e-002 1.000000e-002 1.000000e-002 1.000000e-002 1.000000e-002 1.000000e-002 1.000000e-002 1.000000e-002 1.000000e-002 1.000000e-002 1.000000e-002 1.000000e-002 1.000000e-002 1.000000e-002 1.000000e-002 1.000000e-002 1.000000e-002 1.000000e-002 1.000000e-002 1.000000e-002 1.000000e-002 1.000000e-002 1.000000e-002 1.000000e-002 1.000000e-002 1.000000e-002 1.000000e-002 1.000000e-002 1.000000e-002 1.000000e-002 1.000000e-002 1.000000e-002 1.000000e-002 1.000000e-002 1.000000e-002 1.000000e-002 1.000000e-002 1.000000e-002 1.000000e-002 1.000000e-002 1.000000e-002 1.000000e-002 1.000000e-002 1.000000e-002 1.000000e-002 1.000000e-002 1.000000e-002 1.000000e-002 1.000000e-002 1.000000e-002 1.000000e-002 1.000000e-002 1.000000e-002 1.000000e-002 1.000000e-002 1.000000e-002 1.000000e-002 1.000000e-002 1.000000e-002 1.000000e-002 1.000000e-002 1.000000e-002 1.000000e-002 1.000000e-002 1.000000e-002 1.000000e-002 1.000000e-002 1.000000e-002 1.000000e-002 1.000000e-002 1.000000e-002 1.000000e-002 1.000000e-002 1.000000e-002 1.000000e-002 1.000000e-002 1.000000e-002 1.000000e-002 1.000000e-002 1.000000e-002 1.000000e-002 1.000000e-002 1.000000e-002 1.000000e-002 1.000000e-002 1.000000e-002 1.000000e-002 1.000000e-002 1.000000e-002 1.000000e-002 1.000000e-002 1.000000e-002 1.000000e-002 1.000000e-002 1.000000e-002 1.000000e-002 1.000000e-002
<GCONST> -8.855338e+002
<STATE> 3
<MEAN> 320
 2.370393e+001 9.353519e+000 9.562215e+000 8.507516e+000 9.678324e+000 7.989758e+000 8.560022e+000 8.703071e+000 6.056944e+000 9.185232e+000 9.315070e+000 8.477710e+000 9.338139e+000 7.905834e+000 8.345187e+000 8.654480e+000 7.761652e+000 9.008292e+000 8.964952e+000 8.673838e+000 8.722522e+000 8.176222e+000 8.182022e+000 8.487693e+000 9.599113e+000 9.033675e+000 8.675070e+000 8.976807e+000 8.363785e+000 8.638505e+000 8.135068e+000 8.263495e+000 1.053358e+001 9.108366e+000 8.474109e+000 9.050575e+000 8.271130e+000 8.765158e+000 8.130354e+000 8.234251e+000 1.022032e+001 9.021943e+000 8.408152e+000 8.781914e+000 8.381302e+000 8.577060e+000 8.140910e+000 8.423467e+000 9.135183e+000 8.925036e+000 8.516197e+000 8.377625e+000 8.649219e+000 8.300448e+000 8.225899e+000 8.635373e+000 8.403329e+000 8.789866e+000 8.673895e+000 8.233714e+000 8.799026e+000 8.159962e+000 8.366378e+000 8.712459e+000 8.196727e+000 8.510264e+000 8.800653e+000 8.213101e+000 8.539997e+000 8.126777e+000 8.410421e+000 8.726189e+000 8.688228e+000 8.484814e+000 8.813833e+000 8.446267e+000 8.344488e+000 8.326781e+000 8.349034e+000 8.659231e+000 9.295962e+000 8.579228e+000 8.703772e+000 8.588937e+000 8.285943e+000 8.377660e+000 8.214336e+000 8.587493e+000 9.360546e+000 8.802535e+000 8.748680e+000 8.617848e+000 8.589705e+000 8.256818e+000 8.178593e+000 8.611069e+000 9.205269e+000 9.094226e+000 8.950251e+000 8.704467e+000 8.926062e+000 8.239557e+000 8.257809e+000 8.524112e+000 9.284374e+000 9.381855e+000 9.124277e+000 8.989535e+000 8.976332e+000 8.435565e+000 8.339449e+000 8.389561e+000 9.348435e+000 9.348306e+000 9.211709e+000 9.155296e+000 9.010808e+000 8.659419e+000 8.496357e+000 8.249734e+000 9.486021e+000 9.248914e+000 9.332645e+000 9.212156e+000 8.971927e+000 8.846898e+000 8.571864e+000 8.114758e+000 9.443185e+000 9.477192e+000 9.125076e+000 9.209934e+000 8.871585e+000 8.901506e+000 8.576969e+000 8.100807e+000 9.439501e+000 9.164512e+000 9.108506e+000 9.043436e+000 8.835666e+000 8.783790e+000 8.514999e+000 8.156244e+000 9.229901e+000 9.214193e+000 9.058781e+000 8.994059e+000 8.784303e+000 8.688138e+000 8.425310e+000 8.180111e+000 9.254168e+000 9.089139e+000 8.988933e+000 8.946305e+000 8.744939e+000 8.606186e+000 8.403336e+000 8.229918e+000 9.145371e+000 9.061859e+000 8.970625e+000 8.938965e+000 8.742957e+000 8.611261e+000 8.373799e+000 8.211453e+000 9.121240e+000 9.007092e+000 8.925285e+000 8.891474e+000 8.728185e+000 8.587093e+000 8.419052e+000 8.222276e+000 8.991632e+000 9.002224e+000 8.899718e+000 8.878265e+000 8.702724e+000 8.584576e+000 8.388012e+000 8.165589e+000 9.113373e+000 8.902208e+000 8.892611e+000 8.829041e+000 8.666276e+000 8.539523e+000 8.372320e+000 8.128739e+000 8.810345e+000 8.993431e+000 8.821230e+000 8.783233e+000 8.613038e+000 8.507547e+000 8.361598e+000 8.125253e+000 9.017163e+000 8.752632e+000 8.766332e+000 8.708707e+000 8.571931e+000 8.481323e+000 8.313493e+000 8.135646e+000 8.687495e+000 8.762224e+000 8.716248e+000 8.615061e+000 8.524374e+000 8.426171e+000 8.338414e+000 8.189837e+000 8.577734e+000 8.703037e+000 8.678889e+000 8.590044e+000 8.522999e+000 8.431772e+000 8.325379e+000 8.191433e+000 8.814019e+000 8.619430e+000 8.665073e+000 8.612753e+000 8.543155e+000 8.448567e+000 8.281725e+000 8.121385e+000 8.639757e+000 8.624492e+000 8.624024e+000 8.501800e+000 8.426169e+000 8.332418e+000 8.212775e+000 8.059043e+000 8.348198e+000 8.684933e+000 8.593930e+000 8.472353e+000 8.398272e+000 8.326842e+000 8.242038e+000 8.092937e+000 8.581518e+000 8.542555e+000 8.472428e+000 8.490298e+000 8.414350e+000 8.359276e+000 8.254365e+000 8.120670e+000 8.623972e+000 8.372252e+000 8.365653e+000 8.405685e+000 8.338557e+000 8.287753e+000 8.160601e+000 8.096026e+000 8.608177e+000 8.355754e+000 8.368510e+000 8.352138e+000 8.288347e+000 8.223180e+000 8.102899e+000 8.067464e+000 8.299460e+000 8.407118e+000 8.376359e+000 8.299915e+000 8.263498e+000 8.184128e+000 8.140119e+000 8.053617e+000 8.060650e+000 8.389049e+000 8.338034e+000 8.217395e+000 8.203094e+000 8.141510e+000 8.146789e+000 8.045685e+000 7.940529e+000 8.304123e+000 8.289708e+000 8.158988e+000 8.159031e+000 8.124201e+000 8.136355e+000 8.064853e+000 7.984818e+000 8.199438e+000 8.236087e+000 8.142072e+000 8.150022e+000 8.132375e+000 8.129196e+000 8.086773e+000 7.997049e+000 8.143277e+000 8.159654e+000 8.117185e+000 8.105279e+000 8.082173e+000 8.062754e+000 8.035035e+000 8.038828e+000 8.025640e+000 8.010071e+000 8.000882e+000 7.969824e+000 7.960116e+000 7.947969e+000 7.960694e+000
<VARIANCE> 320
