~o
<STREAMINFO> 1 320
<VECSIZE> 320<NULLD><USER><DIAGC>
~h "h1"
<BEGINHMM>
<NUMSTATES> 4
<STATE> 2
<MEAN> 320
 2.422354e+001 9.626423e+000 9.170418e+000 8.328878e+000 9.646578e+000 8.317121e+000 8.642181e+000 8.636985e+000 6.879472e+000 9.435684e+000 8.905566e+000 8.290518e+000 9.477720e+000 8.130847e+000 8.522462e+000 8.643961e+000 7.283608e+000 9.194542e+000 8.815652e+000 8.380909e+000 9.061317e+000 8.122169e+000 8.342540e+000 8.568343e+000 8.156943e+000 9.191517e+000 8.779319e+000 8.673540e+000 8.717595e+000 8.188566e+000 8.199950e+000 8.477285e+000 9.009620e+000 9.103043e+000 8.853616e+000 8.937840e+000 8.488852e+000 8.283727e+000 8.147746e+000 8.420302e+000 9.677320e+000 8.940406e+000 8.747712e+000 9.047668e+000 8.338511e+000 8.369580e+000 8.139050e+000 8.439390e+000 9.828032e+000 8.758684e+000 8.688285e+000 9.032298e+000 8.348739e+000 8.346576e+000 8.173274e+000 8.498696e+000 9.621879e+000 8.665241e+000 8.864584e+000 8.931362e+000 8.475244e+000 8.275269e+000 8.201741e+000 8.525889e+000 9.523686e+000 8.868713e+000 8.959266e+000 8.933861e+000 8.713711e+000 8.365582e+000 8.333323e+000 8.500467e+000 9.415891e+000 9.129925e+000 9.092074e+000 9.041957e+000 8.828394e+000 8.557617e+000 8.386604e+000 8.457882e+000 9.229347e+000 9.347277e+000 9.141513e+000 9.071415e+000 8.955967e+000 8.665281e+000 8.498607e+000 8.410786e+000 9.322443e+000 9.185450e+000 9.215779e+000 9.101094e+000 8.989642e+000 8.747506e+000 8.547757e+000 8.340652e+000 9.383258e+000 9.130124e+000 9.292674e+000 9.112519e+000 8.973835e+000 8.803156e+000 8.551002e+000 8.272548e+000 9.398342e+000 9.397396e+000 9.172133e+000 9.138340e+000 8.917397e+000 8.801456e+000 8.536067e+000 8.226485e+000 9.412950e+000 9.283985e+000 9.084789e+000 9.070326e+000 8.860919e+000 8.732099e+000 8.522263e+000 8.222730e+000 9.479896e+000 9.147750e+000 9.159895e+000 9.023155e+000 8.833567e+000 8.688343e+000 8.452677e+000 8.174119e+000 9.274324e+000 9.376670e+000 9.053272e+000 9.012661e+000 8.787408e+000 8.649630e+000 8.431697e+000 8.168827e+000 9.386195e+000 9.105832e+000 9.045678e+000 8.939349e+000 8.762559e+000 8.612469e+000 8.419771e+000 8.177835e+000 9.164200e+000 9.181888e+000 9.000063e+000 8.914309e+000 8.736182e+000 8.614696e+000 8.409208e+000 8.188541e+000 9.148069e+000 9.068562e+000 8.935665e+000 8.847581e+000 8.724715e+000 8.599832e+000 8.453189e+000 8.240314e+000 9.003452e+000 8.991818e+000 8.905043e+000 8.820518e+000 8.702730e+000 8.595276e+000 8.419358e+000 8.236859e+000 8.982519e+000 8.938714e+000 8.883780e+000 8.778869e+000 8.684197e+000 8.554996e+000 8.417893e+000 8.231375e+000 8.848546e+000 8.919785e+000 8.844103e+000 8.757812e+000 8.640898e+000 8.517412e+000 8.343894e+000 8.171899e+000 9.019456e+000 8.829240e+000 8.836425e+000 8.723840e+000 8.605162e+000 8.468118e+000 8.310675e+000 8.127073e+000 8.703386e+000 8.934817e+000 8.781620e+000 8.704123e+000 8.571231e+000 8.447069e+000 8.321577e+000 8.117052e+000 8.994661e+000 8.731745e+000 8.730947e+000 8.683400e+000 8.557436e+000 8.462760e+000 8.303165e+000 8.109380e+000 8.677996e+000 8.765519e+000 8.698217e+000 8.625709e+000 8.529074e+000 8.440623e+000 8.351477e+000 8.157405e+000 8.587701e+000 8.704798e+000 8.658747e+000 8.615885e+000 8.521543e+000 8.444081e+000 8.326944e+000 8.163511e+000 8.815652e+000 8.592843e+000 8.623672e+000 8.614985e+000 8.512535e+000 8.421205e+000 8.252160e+000 8.116133e+000 8.623873e+000 8.571381e+000 8.554304e+000 8.458712e+000 8.357479e+000 8.261646e+000 8.168580e+000 8.075865e+000 8.290017e+000 8.629258e+000 8.544136e+000 8.411364e+000 8.340282e+000 8.259629e+000 8.215064e+000 8.107373e+000 8.527503e+000 8.498263e+000 8.432253e+000 8.439914e+000 8.375797e+000 8.328171e+000 8.259856e+000 8.128329e+000 8.560349e+000 8.335329e+000 8.330692e+000 8.353964e+000 8.306753e+000 8.282845e+000 8.195058e+000 8.102793e+000 8.546616e+000 8.326810e+000 8.333282e+000 8.304247e+000 8.257873e+000 8.229083e+000 8.145218e+000 8.077007e+000 8.248051e+000 8.383141e+000 8.347630e+000 8.270528e+000 8.239654e+000 8.191394e+000 8.167667e+000 8.063928e+000 8.029033e+000 8.367211e+000 8.319240e+000 8.211123e+000 8.192534e+000 8.143517e+000 8.148164e+000 8.046864e+000 7.951154e+000 8.289474e+000 8.264495e+000 8.164270e+000 8.150043e+000 8.115186e+000 8.120095e+000 8.061920e+000 8.033481e+000 8.199751e+000 8.215251e+000 8.155004e+000 8.144815e+000 8.121977e+000 8.110736e+000 8.082329e+000 8.034465e+000 8.137763e+000 8.144475e+000 8.119033e+000 8.101733e+000 8.073520e+000 8.049861e+000 8.033933e+000 8.037879e+000 8.000906e+000 7.991556e+000 7.981492e+000 7.958232e+000 7.948579e+000 7.941040e+000 7.967728e+000
<VARIANCE> 320
 1.000000e-002 1.000000e-002 1.000000e-002 1.000000e-002 1.000000e-002 1.000000e-002 1.000000e-002 1.000000e-002 1.000000e-002 1.000000e-002 1.000000e-002 1.000000e-002 1.000000e-002 1.000000e-002 1.000000e-002 1.000000e-002 1.000000e-002 1.000000e-002 1.000000e-002 1.000000e-002 1.000000e-002 1.000000e-002 1.000000e-002 1.000000e-002 1.000000e-002 1.000000e-002 1.000000e-002 1.000000e-002 1.000000e-002 1.000000e-002 1.000000e-002 1.000000e-002 1.000000e-002 1.000000e-002 1.000000e-002 1.000000e-002 1.000000e-002 1.000000e-002 1.000000e-002 1.000000e-002 1.000000e-002 1.000000e-002 1.000000e-002 1.000000e-002 1.000000e-002 1.000000e-002 1.000000e-002 1.000000e-002 1.000000e-002 1.000000e-002 1.000000e-002 1.000000e-002 1.000000e-002 1.000000e-002 1.000000e-002 1.000000e-002 1.000000e-002 1.000000e-002 1.000000e-002 1.000000e-002 1.000000e-002 1.000000e-002 1.000000e-002 1.000000e-002 1.000000e-002 1.000000e-002 1.000000e-002 1.000000e-002 1.000000e-002 1.000000e-002 1.000000e-002 1.000000e-002 1.000000e-002 1.000000e-002 1.000000e-002 1.000000e-002 1.000000e-002 1.000000e-002 1.000000e-002 1.000000e-002 1.000000e-002 1.000000e-002 1.000000e-002 1.000000e-002 1.000000e-002 1.000000e-002 1.000000e-002 1.000000e-002 1.000000e-002 1.000000e-002 1.000000e-002 1.000000e-002 1.000000e-002 1.000000e-002 1.000000e-002 1.000000e-002 1.000000e-002 1.000000e-002 1.000000e-002 1.000000e-002 1.000000e-002 1.000000e-002 1.000000e-002 1.000000e-002 1.000000e-002 1.000000e-002 1.000000e-002 1.000000e-002 1.000000e-002 1.000000e-002 1.000000e-002 1.000000e-002 1.000000e-002 1.000000e-002 1.000000e-002 1.000000e-002 1.000000e-002 1.000000e-002 1.000000e-002 1.000000e-002 1.000000e-002 1.000000e-002 1.000000e-002 1.000000e-002 1.000000e-002 1.000000e-002 1.000000e-002 1.000000e-002 1.000000e-002 1.000000e-002 1.000000e-002 1.000000e-002 1.000000e-002 1.000000e-002 1.000000e-002 1.000000e-002 1.000000e-002 1.000000e-002 1.000000e-002 1.000000e-002 1.000000e-002 1.000000e-002 1.000000e-002 1.000000e-002 1.000000e-002 1.000000e-002 1.000000e-002 1.000000e-002 1.000000e-002 1.000000e-002 1.000000e-002 1.000000e-002 1.000000e-002 1.000000e-002 1.000000e-002 1.000000e-002 1.000000e-002 1.000000e-002 1.000000e-002 1.000000e-002 1.000000e-002 1.000000e-002 1.000000e-002 1.000000e-002 1.000000e-002 1.000000e-002 1.000000e-002 1.000000e-002 1.000000e-002 1.000000e-002 1.000000e-002 1.000000e-002 1.000000e-002 1.000000e-002 1.000000e-002 1.000000e-002 1.000000e-002 1.000000e-002 1.000000e-002 1.000000e-002 1.000000e-002 1.000000e-002 1.000000e-002 1.000000e-002 1.000000e-002 1.000000e-002 1.000000e-002 1.000000e-002 1.000000e-002 1.000000e-002 1.000000e-002 1.000000e-002 1.000000e-002 1.000000e-002 1.000000e-002 1.000000e-002 1.000000e-002 1.000000e-002 1.000000e-002 1.000000e-002 1.000000e-002 1.000000e-002 1.000000e-002 1.000000e-002 1.000000e-002 1.000000e-002 1.000000e-002 1.000000e-002 1.000000e-002 1.000000e-002 1.000000e-002 1.000000e-002 1.000000e-002 1.000000e-002 1.000000e-002 1.000000e-002 1.000000e-002 1.000000e-002 1.000000e-002 1.000000e-002 1.000000e-002 1.000000e-002 1.000000e-002 1.000000e-002 1.000000e-002 1.000000e-002 1.000000e-002 1.000000e-002 1.000000e-002 1.000000e-002 1.000000e-002 1.000000e-002 1.000000e-002 1.000000e-002 1.000000e-002 1.000000e-002 1.000000e-002 1.000000e-002 1.000000e-002 1.000000e-002 1.000000e-002 1.000000e-002 1.000000e-002 1.000000e-002 1.000000e-002 1.000000e-002 1.000000e-002 1.000000e-002 1.000000e-002 1.000000e-002 1.000000e-002 1.000000e-002 1.000000e-002 1.000000e-002 1.000000e-002 1.000000e-002 1.000000e-002 1.000000e-002 1.000000e-002 1.000000e-002 1.000000e-002 1.000000e-002 1.000000e-002 1.000000e-002 1.000000e-002 1.000000e-002 1.000000e-002 1.000000e-002 1.000000e-002 1.000000e-002 1.000000e-002 1.000000e-002 1.000000e-002 1.000000e-002 1.000000e-002 1.000000e-002 1.000000e-002 1.000000e-002 1.000000e-002 1.000000e-002 1.000000e-002 1.000000e-002 1.000000e-002 1.000000e-002 1.000000e-002 1.000000e-002 1.000000e-002 1.000000e-002 1.000000e-002 1.000000e-002 1.000000e-002 1.000000e-002 1.000000e-002 1.000000e-002 1.000000e-002 1.000000e-002 1.000000e-002 1.000000e-002 1.000000e-002 1.000000e-002 1.000000e-002 1.000000e-002 1.000000e-002 1.000000e-002 1.000000e-002 1.000000e-002 1.000000e-002 1.000000e-002 1.000000e-002 1.000000e-002 1.000000e-002 1.000000e-002 1.000000e-002 1.000000e-002 1.000000e-002 1.000000e-002 1.000000e-002 1.000000e-002 1.000000e-002 1.000000e-002
<GCONST> -8.855338e+002
<STATE> 3
<MEAN> 320
 2.566692e+001 8.582911e+000 9.123451e+000 9.371669e+000 9.332601e+000 9.072666e+000 8.617739e+000 8.278567e+000 8.585434e+000 8.785458e+000 8.888419e+000 9.325842e+000 9.323540e+000 9.028630e+000 8.608571e+000 8.246961e+000 8.679496e+000 8.994979e+000 8.811694e+000 9.316427e+000 9.237011e+000 8.948087e+000 8.547618e+000 8.221338e+000 8.927482e+000 9.353758e+000 8.882498e+000 9.307752e+000 9.099681e+000 8.810259e+000 8.451280e+000 8.181108e+000 9.273591e+000 9.666185e+000 8.919642e+000 9.199989e+000 8.929602e+000 8.697788e+000 8.440829e+000 8.209084e+000 9.541075e+000 9.695654e+000 8.937620e+000 9.149353e+000 8.895048e+000 8.693948e+000 8.502356e+000 8.265190e+000 9.517276e+000 9.337715e+000 8.963872e+000 9.149262e+000 8.961433e+000 8.757890e+000 8.579546e+000 8.310118e+000 9.406259e+000 8.864917e+000 9.004621e+000 9.040334e+000 8.936378e+000 8.779898e+000 8.641135e+000 8.355858e+000 9.318733e+000 8.827164e+000 9.080616e+000 9.051884e+000 8.962797e+000 8.827136e+000 8.668104e+000 8.376833e+000 9.241496e+000 9.037622e+000 9.077788e+000 9.109818e+000 8.984315e+000 8.882212e+000 8.678753e+000 8.385743e+000 9.160181e+000 9.203359e+000 9.056823e+000 9.134991e+000 8.972923e+000 8.877831e+000 8.667037e+000 8.390186e+000 9.269381e+000 9.113160e+000 9.145975e+000 9.084613e+000 8.956345e+000 8.813761e+000 8.625364e+000 8.365316e+000 9.314280e+000 9.113440e+000 9.249478e+000 9.035484e+000 8.923053e+000 8.762759e+000 8.558880e+000 8.316126e+000 9.268301e+000 9.382168e+000 9.181649e+000 9.023643e+000 8.859961e+000 8.706041e+000 8.496566e+000 8.269517e+000 9.279721e+000 9.280872e+000 9.124087e+000 8.983252e+000 8.835233e+000 8.651984e+000 8.469385e+000 8.234727e+000 9.366605e+000 9.120117e+000 9.174913e+000 8.946306e+000 8.799316e+000 8.623002e+000 8.398650e+000 8.181115e+000 9.103868e+000 9.341485e+000 9.068472e+000 8.926930e+000 8.757465e+000 8.589190e+000 8.399391e+000 8.181611e+000 9.252801e+000 9.075623e+000 9.060343e+000 8.875149e+000 8.743869e+000 8.576700e+000 8.404216e+000 8.189422e+000 9.023720e+000 9.126108e+000 9.002229e+000 8.847081e+000 8.710997e+000 8.585673e+000 8.409768e+000 8.209888e+000 9.032589e+000 9.030244e+000 8.947239e+000 8.812754e+000 8.724037e+000 8.595017e+000 8.465084e+000 8.249571e+000 8.924003e+000 8.947648e+000 8.890594e+000 8.801574e+000 8.710669e+000 8.605661e+000 8.441068e+000 8.243690e+000 8.928308e+000 8.904761e+000 8.862617e+000 8.771163e+000 8.699427e+000 8.575429e+000 8.440965e+000 8.236540e+000 8.815839e+000 8.881407e+000 8.804309e+000 8.751040e+000 8.656036e+000 8.532183e+000 8.357653e+000 8.181107e+000 9.000674e+000 8.796521e+000 8.788218e+000 8.702875e+000 8.608179e+000 8.468901e+000 8.309506e+000 8.143940e+000 8.677795e+000 8.898456e+000 8.735715e+000 8.671652e+000 8.569902e+000 8.431879e+000 8.308278e+000 8.138272e+000 8.989267e+000 8.709227e+000 8.682761e+000 8.648211e+000 8.549794e+000 8.442042e+000 8.282133e+000 8.131908e+000 8.673180e+000 8.750698e+000 8.661801e+000 8.585411e+000 8.522255e+000 8.419636e+000 8.337186e+000 8.175735e+000 8.592219e+000 8.700101e+000 8.629195e+000 8.581278e+000 8.514893e+000 8.425288e+000 8.316740e+000 8.177133e+000 8.820974e+000 8.589872e+000 8.595881e+000 8.584626e+000 8.506824e+000 8.408616e+000 8.246725e+000 8.122538e+000 8.607460e+000 8.558549e+000 8.542254e+000 8.432149e+000 8.356891e+000 8.257503e+000 8.168765e+000 8.076653e+000 8.261250e+000 8.611386e+000 8.553308e+000 8.407122e+000 8.349501e+000 8.263449e+000 8.213416e+000 8.102197e+000 8.517182e+000 8.489318e+000 8.451132e+000 8.456567e+000 8.396775e+000 8.335771e+000 8.249999e+000 8.116475e+000 8.563269e+000 8.328016e+000 8.346738e+000 8.374587e+000 8.322115e+000 8.283484e+000 8.173470e+000 8.095332e+000 8.551321e+000 8.316209e+000 8.340529e+000 8.317907e+000 8.258978e+000 8.217339e+000 8.116169e+000 8.077791e+000 8.237594e+000 8.370150e+000 8.356917e+000 8.274075e+000 8.239049e+000 8.175104e+000 8.144001e+000 8.064678e+000 8.011229e+000 8.357712e+000 8.327047e+000 8.210053e+000 8.196127e+000 8.132636e+000 8.136894e+000 8.045897e+000 7.945325e+000 8.290263e+000 8.263788e+000 8.160180e+000 8.154549e+000 8.111746e+000 8.121046e+000 8.055964e+000 8.039424e+000 8.210366e+000 8.209106e+000 8.148780e+000 8.147078e+000 8.122157e+000 8.118948e+000 8.071153e+000 8.034359e+000 8.143608e+000 8.137525e+000 8.111670e+000 8.103598e+000 8.074794e+000 8.058763e+000 8.023284e+000 8.027605e+000 7.995922e+000 7.983957e+000 7.974109e+000 7.958624e+000 7.950149e+000 7.946933e+000 7.963808e+000
<VARIANCE> 320
 1.000000e-002 1.000000e-002 1.000000e-002 1.000000e-002 1.000000e-002 1.000000e-002 1.000000e-002 1.000000e-002 1.000000e-002 1.000000e-002 1.000000e-002 1.000000e-002 1.000000e-002 1.000000e-002 1.000000e-002 1.000000e-002 1.000000e-002 1.000000e-002 1.000000e-002 1.000000e-002 1.000000e-002 1.000000e-002 1.000000e-002 1.000000e-002 1.000000e-002 1.000000e-002 1.000000e-002 1.000000e-002 1.000000e-002 1.000000e-002 1.000000e-002 1.000000e-002 1.000000e-002 1.000000e-002 1.000000e-002 1.000000e-002 1.000000e-002 1.000000e-002 1.000000e-002 1.000000e-002 1.000000e-002 1.000000e-002 1.000000e-002 1.000000e-002 1.000000e-002 1.000000e-002 1.000000e-002 1.000000e-002 1.000000e-002 1.000000e-002 1.000000e-002 1.000000e-002 1.000000e-002 1.000000e-002 1.000000e-002 1.000000e-002 1.000000e-002 1.000000e-002 1.000000e-002 1.000000e-002 1.000000e-002 1.000000e-002 1.000000e-002 1.000000e-002 1.000000e-002 1.000000e-002 1.000000e-002 1.000000e-002 1.000000e-002 1.000000e-002 1.000000e-002 1.000000e-002 1.000000e-002 1.000000e-002 1.000000e-002 1.000000e-002 1.000000e-002 1.000000e-002 1.000000e-002 1.000000e-002 1.000000e-002 1.000000e-002 1.000000e-002 1.000000e-002 1.000000e-002 1.000000e-002 1.000000e-002 1.000000e-002 1.000000e-002 1.000000e-002 1.000000e-002 1.000000e-002 1.000000e-002 1.000000e-002 1.000000e-002 1.000000e-002 1.000000e-002 1.000000e-002 1.000000e-002 1.000000e-002 1.000000e-002 1.000000e-002 1.000000e-002 1.000000e-002 1.000000e-002 1.000000e-002 1.000000e-002 1.000000e-002 1.000000e-002 1.000000e-002 1.000000e-002 1.000000e-002 1.000000e-002 1.000000e-002 1.000000e-002 1.000000e-002 1.000000e-002 1.000000e-002 1.000000e-002 1.000000e-002 1.000000e-002 1.000000e-002 1.000000e-002 1.000000e-002 1.000000e-002 1.000000e-002 1.000000e-002 1.000000e-002 1.000000e-002 1.000000e-002 1.000000e-002 1.000000e-002 1.000000e-002 1.000000e-002 1.000000e-002 1.000000e-002 1.000000e-002 1.000000e-002 1.000000e-002 1.000000e-002 1.000000e-002 1.000000e-002 1.000000e-002 1.000000e-002 1.000000e-002 1.000000e-002 1.000000e-002 1.000000e-002 1.000000e-002 1.000000e-002 1.000000e-002 1.000000e-002 1.000000e-002 1.000000e-002 1.000000e-002 1.000000e-002 1.000000e-002 1.000000e-002 1.000000e-002 1.000000e-002 1.000000e-002 1.000000e-002 1.000000e-002 1.000000e-002 1.000000e-002 1.000000e-002 1.000000e-002 1.000000e-002 1.000000e-002 1.000000e-002 1.000000e-002 1.000000e-002 1.000000e-002 1.000000e-002 1.000000e-002 1.000000e-002 1.000000e-002 1.000000e-002 1.000000e-002 1.000000e-002 1.000000e-002 1.000000e-002 1.000000e-002 1.000000e-002 1.000000e-002 1.000000e-002 1.000000e-002 1.000000e-002 1.000000e-002 1.000000e-002 1.000000e-002 1.000000e-002 1.000000e-002 1.000000e-002 1.000000e-002 1.000000e-002 1.000000e-002 1.000000e-002 1.000000e-002 1.000000e-002 1.000000e-002 1.000000e-002 1.000000e-002 1.000000e-002 1.000000e-002 1.000000e-002 1.000000e-002 1.000000e-002 1.000000e-002 1.000000e-002 1.000000e-002 1.000000e-002 1.000000e-002 1.000000e-002 1.000000e-002 1.000000e-002 1.000000e-002 1.000000e-002 1.000000e-002 1.000000e-002 1.000000e-002 1.000000e-002 1.000000e-002 1.000000e-002 1.000000e-002 1.000000e-002 1.000000e-002 1.000000e-002 1.000000e-002 1.000000e-002 1.000000e-002 1.000000e-002 1.000000e-002 1.000000e-002 1.000000e-002 1.000000e-002 1.000000e-002 1.000000e-002 1.000000e-002 1.000000e-002 1.000000e-002 1.000000e-002 1.000000e-002 1.000000e-002 1.000000e-002 1.000000e-002 1.000000e-002 1.000000e-002 1.000000e-002 1.000000e-002 1.000000e-002 1.000000e-002 1.000000e-002 1.000000e-002 1.000000e-002 1.000000e-002 1.000000e-002 1.000000e-002 1.000000e-002 1.000000e-002 1.000000e-002 1.000000e-002 1.000000e-002 1.000000e-002 1.000000e-002 1.000000e-002 1.000000e-002 1.000000e-002 1.000000e-002 1.000000e-002 1.000000e-002 1.000000e-002 1.000000e-002 1.000000e-002 1.000000e-002 1.000000e-002 1.000000e-002 1.000000e-002 1.000000e-002 1.000000e-002 1.000000e-002 1.000000e-002 1.000000e-002 1.000000e-002 1.000000e-002 1.000000e-002 1.000000e-002 1.000000e-002 1.000000e-002 1.000000e-002 1.000000e-002 1.000000e-002 1.000000e-002 1.000000e-002 1.000000e-002 1.000000e-002 1.000000e-002 1.000000e-002 1.000000e-002 1.000000e-002 1.000000e-002 1.000000e-002 1.000000e-002 1.000000e-002 1.000000e-002 1.000000e-002 1.000000e-002 1.000000e-002 1.000000e-002 1.000000e-002 1.000000e-002 1.000000e-002 1.000000e-002 1.000000e-002 1.000000e-002 1.000000e-002 1.000000e-002 1.000000e-002 1.000000e-002 1.000000e-002
<GCONST> -8.855338e+002
<TRANSP> 4
 0.000000e+000 1.000000e+000 0.000000e+000 0.000000e+000
 0.000000e+000 0.000000e+000 1.000000e+000 0.000000e+000
 0.000000e+000 0.000000e+000 0.000000e+000 1.000000e+000
 0.000000e+000 0.000000e+000 0.000000e+000 0.000000e+000
<ENDHMM>
~h "h2"
<BEGINHMM>
<NUMSTATES> 4
<STATE> 2
<MEAN> 320
 2.416581e+001 9.293099e+000 9.523659e+000 9.347882e+000 8.951693e+000 8.585914e+000 8.152338e+000 8.442204e+000 6.206203e+000 9.271211e+000 9.315721e+000 9.027207e+000 8.809013e+000 8.392272e+000 8.155659e+000 8.376691e+000 7.218046e+000 9.138674e+000 8.955145e+000 8.754249e+000 8.723694e+000 8.389868e+000 8.162268e+000 8.268936e+000 8.098969e+000 9.179622e+000 8.707333e+000 8.525495e+000 8.685268e+000 8.397921e+000 8.309484e+000 8.169232e+000 9.151017e+000 9.149462e+000 8.649972e+000 8.470207e+000 8.650113e+000 8.414786e+000 8.390096e+000 8.106469e+000 9.907067e+000 9.027783e+000 8.527538e+000 8.411268e+000 8.619606e+000 8.445017e+000 8.463402e+000 8.092499e+000 9.948332e+000 8.775648e+000 8.594873e+000 8.335281e+000 8.669148e+000 8.514009e+000 8.422505e+000 8.061126e+000 9.692769e+000 8.775317e+000 8.611341e+000 8.357208e+000 8.702957e+000 8.462341e+000 8.460173e+000 8.087690e+000 9.403382e+000 8.967286e+000 8.798028e+000 8.558986e+000 8.751915e+000 8.553451e+000 8.502184e+000 8.157500e+000 9.378104e+000 9.167867e+000 8.929877e+000 8.829219e+000 8.834145e+000 8.656030e+000 8.504881e+000 8.223826e+000 9.158973e+000 9.381153e+000 9.031660e+000 9.010265e+000 8.907585e+000 8.734837e+000 8.567862e+000 8.295473e+000 9.296795e+000 9.226693e+000 9.153112e+000 9.085183e+000 8.973143e+000 8.785804e+000 8.614588e+000 8.325772e+000 9.399683e+000 9.174091e+000 9.272509e+000 9.112082e+000 9.000708e+000 8.819705e+000 8.608038e+000 8.311682e+000 9.457018e+000 9.427302e+000 9.192831e+000 9.141995e+000 8.974307e+000 8.818742e+000 8.571643e+000 8.281705e+000 9.452440e+000 9.299696e+000 9.117122e+000 9.070093e+000 8.930448e+000 8.764314e+000 8.539197e+000 8.256104e+000 9.479392e+000 9.161234e+000 9.200245e+000 9.019406e+000 8.898284e+000 8.722542e+000 8.463736e+000 8.196858e+000 9.294360e+000 9.383362e+000 9.090733e+000 9.024498e+000 8.851189e+000 8.678690e+000 8.437211e+000 8.183783e+000 9.393065e+000 9.110765e+000 9.096977e+000 8.961292e+000 8.818349e+000 8.640059e+000 8.412784e+000 8.180444e+000 9.187402e+000 9.185801e+000 9.048096e+000 8.944324e+000 8.782433e+000 8.633160e+000 8.398085e+000 8.190189e+000 9.169039e+000 9.061086e+000 8.978234e+000 8.890409e+000 8.756308e+000 8.606890e+000 8.431232e+000 8.235134e+000 9.019423e+000 8.984935e+000 8.939439e+000 8.868870e+000 8.730713e+000 8.603638e+000 8.403312e+000 8.230938e+000 9.001015e+000 8.937120e+000 8.907480e+000 8.836685e+000 8.709782e+000 8.558868e+000 8.412801e+000 8.233053e+000 8.879445e+000 8.931293e+000 8.863357e+000 8.820739e+000 8.680413e+000 8.530643e+000 8.351640e+000 8.182641e+000 9.044971e+000 8.849740e+000 8.856197e+000 8.786949e+000 8.651423e+000 8.485957e+000 8.332413e+000 8.151244e+000 8.756336e+000 8.960356e+000 8.798199e+000 8.761618e+000 8.626806e+000 8.469047e+000 8.347415e+000 8.148392e+000 9.023844e+000 8.763985e+000 8.760233e+000 8.732028e+000 8.607803e+000 8.483221e+000 8.330496e+000 8.143027e+000 8.726729e+000 8.792693e+000 8.721212e+000 8.667333e+000 8.573231e+000 8.460536e+000 8.375683e+000 8.182212e+000 8.639616e+000 8.735370e+000 8.684174e+000 8.652178e+000 8.560785e+000 8.464449e+000 8.346685e+000 8.175639e+000 8.855559e+000 8.627540e+000 8.658971e+000 8.645686e+000 8.551063e+000 8.440899e+000 8.265201e+000 8.114893e+000 8.680133e+000 8.610777e+000 8.596604e+000 8.500105e+000 8.407815e+000 8.287450e+000 8.169785e+000 8.062535e+000 8.357151e+000 8.671479e+000 8.584856e+000 8.460156e+000 8.393886e+000 8.284295e+000 8.206270e+000 8.090841e+000 8.577147e+000 8.538960e+000 8.479657e+000 8.489289e+000 8.427406e+000 8.347423e+000 8.245442e+000 8.114364e+000 8.602706e+000 8.380646e+000 8.384633e+000 8.415035e+000 8.367653e+000 8.304419e+000 8.183447e+000 8.095320e+000 8.584546e+000 8.372141e+000 8.382366e+000 8.367745e+000 8.321765e+000 8.253054e+000 8.142621e+000 8.077984e+000 8.294571e+000 8.422360e+000 8.377885e+000 8.319859e+000 8.291401e+000 8.210640e+000 8.176306e+000 8.069369e+000 8.074373e+000 8.400110e+000 8.332997e+000 8.243592e+000 8.227381e+000 8.157588e+000 8.171671e+000 8.052900e+000 7.977883e+000 8.313323e+000 8.265241e+000 8.176137e+000 8.166880e+000 8.126001e+000 8.153143e+000 8.063721e+000 8.040088e+000 8.212805e+000 8.204078e+000 8.146024e+000 8.144273e+000 8.127891e+000 8.144567e+000 8.077916e+000 8.036137e+000 8.144321e+000 8.130050e+000 8.106051e+000 8.094963e+000 8.075957e+000 8.078012e+000 8.027648e+000 8.042717e+000 8.007254e+000 7.986341e+000 7.980451e+000 7.958055e+000 7.951014e+000 7.957602e+000 7.963701e+000
<VARIANCE> 320
 1.000000e-002 1.000000e-002 1.000000e-002 1.000000e-002 1.000000e-002 1.000000e-002 1.000000e-002 1.000000e-002 1.000000e-002 1.000000e-002 1.000000e-002 1.000000e-002 1.000000e-002 1.000000e-002 1.000000e-002 1.000000e-002 1.000000e-002 1.000000e-002 1.000000e-002 1.000000e-002 1.000000e-002 1.000000e-002 1.000000e-002 1.000000e-002 1.000000e-002 1.000000e-002 1.000000e-002 1.000000e-002 1.000000e-002 1.000000e-002 1.000000e-002 1.000000e-002 1.000000e-002 1.000000e-002 1.000000e-002 1.000000e-002 1.000000e-002 1.000000e-002 1.000000e-002 1.000000e-002 1.000000e-002 1.000000e-002 1.000000e-002 1.000000e-002 1.000000e-002 1.000000e-002 1.000000e-002 1.000000e-002 1.000000e-002 1.000000e-002 1.000000e-002 1.000000e-002 1.000000e-002 1.000000e-002 1.000000e-002 1.000000e-002 1.000000e-002 1.000000e-002 1.000000e-002 1.000000e-002 1.000000e-002 1.000000e-002 1.000000e-002 1.000000e-002 1.000000e-002 1.000000e-002 1.000000e-002 1.000000e-002 1.000000e-002 1.000000e-002 1.000000e-002 1.000000e-002 1.000000e-002 1.000000e-002 1.000000e-002 1.000000e-002 1.000000e-002 1.000000e-002 1.000000e-002 1.000000e-002 1.000000e-002 1.000000e-002 1.000000e-002 1.000000e-002 1.000000e-002 1.000000e-002 1.000000e-002 1.000000e-002 1.000000e-002 1.000000e-002 1.000000e-002 1.000000e-002 1.000000e-002 1.000000e-002 1.000000e-002 1.000000e-002 1.000000e-002 1.000000e-002 1.000000e-002 1.000000e-002 1.000000e-002 1.000000e-002 1.000000e-002 1.000000e-002 1.000000e-002 1.000000e-002 1.000000e-002 1.000000e-002 1.000000e-002 1.000000e-002 1.000000e-002 1.000000e-002 1.000000e-002 1.000000e-002 1.000000e-002 1.000000e-002 1.000000e-002 1.000000e-002 1.000000e-002 1.000000e-002 1.000000e-002 1.000000e-002 1.000000e-002 1.000000e-002 1.000000e-002 1.000000e-002 1.000000e-002 1.000000e-002 1.000000e-002 1.000000e-002 1.000000e-002 1.000000e-002 1.000000e-002 1.000000e-002 1.000000e-002 1.000000e-002 1.000000e-002 1.000000e-002 1.000000e-002 1.000000e-002 1.000000e-002 1.000000e-002 1.000000e-002 1.000000e-002 1.000000e-002 1.000000e-002 1.000000e-002 1.000000e-002 1.000000e-002 1.000000e-002 1.000000e-002 1.000000e-002 1.000000e-002 1.000000e-002 1.000000e-002 1.000000e-002 1.000000e-002 1.000000e-002 1.000000e-002 1.000000e-002 1.000000e-002 1.000000e-002 1.000000e-002 1.000000e-002 1.000000e-002 1.000000e-002 1.000000e-002 1.000000e-002 1.000000e-002 1.000000e-002 1.000000e-002 1.000000e-002 1.000000e-002 1.000000e-002 1.000000e-002 1.000000e-002 1.000000e-002 1.000000e-002 1.000000e-002 1.000000e-002 1.000000e-002 1.000000e-002 1.000000e-002 1.000000e-002 1.000000e-002 1.000000e-002 1.000000e-002 1.000000e-002 1.000000e-002 1.000000e-002 1.000000e-002 1.000000e-002 1.000000e-002 1.000000e-002 1.000000e-002 1.000000e-002 1.000000e-002 1.000000e-002 1.000000e-002 1.000000e-002 1.000000e-002 1.000000e-002 1.000000e-002 1.000000e-002 1.000000e-002 1.000000e-002 1.000000e-002 1.000000e-002 1.000000e-002 1.000000e-002 1.000000e-002 1.000000e-002 1.000000e-002 1.000000e-002 1.000000e-002 1.000000e-002 1.000000e-002 1.000000e-002 1.000000e-002 1.000000e-002 1.000000e-002 1.000000e-002 1.000000e-002 1.000000e-002 1.000000e-002 1.000000e-002 1.000000e-002 1.000000e-002 1.000000e-002 1.000000e-002 1.000000e-002 1.000000e-002 1.000000e-002 1.000000e-002 1.000000e-002 1.000000e-002 1.000000e-002 1.000000e-002 1.000000e-002 1.000000e-002 1.000000e-002 1.000000e-002 1.000000e-002 1.000000e-002 1.000000e-002 1.000000e-002 1.000000e-002 1.000000e-002 1.000000e-002 1.000000e-002 1.000000e-002 1.000000e-002 1.000000e-002 1.000000e-002 1.000000e-002 1.000000e-002 1.000000e-002 1.000000e-002 1.000000e-002 1.000000e-002 1.000000e-002 1.000000e-002 1.000000e-002 1.000000e-002 1.000000e-002 1.000000e-002 1.000000e-002 1.000000e-002 1.000000e-002 1.000000e-002 1.000000e-002 1.000000e-002 1.000000e-002 1.000000e-002 1.000000e-002 1.000000e-002 1.000000e-002 1.000000e-002 1.000000e-002 1.000000e-002 1.000000e-002 1.000000e-002 1.000000e-002 1.000000e-002 1.000000e-002 1.000000e-002 1.000000e-002 1.000000e-002 1.000000e-002 1.000000e-002 1.000000e-002 1.000000e-002 1.000000e-002 1.000000e-002 1.000000e-002 1.000000e-002 1.000000e-002 1.000000e-002 1.000000e-002 1.000000e-002 1.000000e-002 1.000000e-002 1.000000e-002 1.000000e-002 1.000000e-002 1.000000e-002 1.000000e-002 1.000000e-002 1.000000e-002 1.000000e-002 1.000000e-002 1.000000e-002 1.000000e-002 1.000000e-002 1.000000e-002 1.000000e-002 1.000000e-002 1.000000e-002 1.000000e-002 1.000000e-002
<GCONST> -8.855338e+002
<STATE> 3
<MEAN> 320
 2.537824e+001 7.947684e+000 8.259645e+000 8.813781e+000 9.081068e+000 9.109807e+000 8.853210e+000 8.482925e+000 7.760805e+000 7.998652e+000 8.344138e+000 8.859981e+000 9.030499e+000 9.052062e+000 8.847220e+000 8.465934e+000 8.111659e+000 8.456098e+000 8.594885e+000 9.067753e+000 9.012617e+000 8.938845e+000 8.662774e+000 8.339261e+000 8.631513e+000 9.058458e+000 8.959753e+000 9.278376e+000 8.992605e+000 8.800907e+000 8.465862e+000 8.203975e+000 9.118261e+000 9.569736e+000 9.241343e+000 9.421860e+000 8.985856e+000 8.697390e+000 8.351493e+000 8.131489e+000 9.417997e+000 9.609512e+000 9.322924e+000 9.444088e+000 8.989834e+000 8.677664e+000 8.380336e+000 8.167553e+000 9.266695e+000 9.102290e+000 9.272564e+000 9.349634e+000 8.971411e+000 8.709088e+000 8.485023e+000 8.261664e+000 8.997969e+000 8.523787e+000 9.217004e+000 9.226254e+000 8.951687e+000 8.755815e+000 8.572090e+000 8.335134e+000 8.784245e+000 8.374811e+000 9.176704e+000 9.166625e+000 8.980542e+000 8.841847e+000 8.643246e+000 8.379915e+000 8.784769e+000 8.661852e+000 9.127819e+000 9.180660e+000 9.005676e+000 8.896795e+000 8.660411e+000 8.379441e+000 8.877332e+000 8.950666e+000 9.063057e+000 9.173845e+000 9.001746e+000 8.898089e+000 8.663469e+000 8.387982e+000 9.146752e+000 9.019661e+000 9.191590e+000 9.135619e+000 8.992250e+000 8.823195e+000 8.611828e+000 8.356987e+000 9.330509e+000 9.147513e+000 9.325728e+000 9.093070e+000 8.961377e+000 8.762659e+000 8.537246e+000 8.306032e+000 9.382907e+000 9.499676e+000 9.249469e+000 9.086546e+000 8.903874e+000 8.696342e+000 8.471283e+000 8.259776e+000 9.392534e+000 9.380924e+000 9.157467e+000 9.046755e+000 8.874545e+000 8.643278e+000 8.453270e+000 8.229490e+000 9.436142e+000 9.192121e+000 9.205540e+000 9.014800e+000 8.836844e+000 8.616517e+000 8.377906e+000 8.172017e+000 9.201988e+000 9.421053e+000 9.078070e+000 8.990872e+000 8.799536e+000 8.580236e+000 8.378397e+000 8.169905e+000 9.328394e+000 9.134857e+000 9.070351e+000 8.929184e+000 8.772426e+000 8.567658e+000 8.390529e+000 8.181545e+000 9.109062e+000 9.198714e+000 9.020147e+000 8.896793e+000 8.741700e+000 8.577040e+000 8.393455e+000 8.198722e+000 9.101072e+000 9.083291e+000 8.956258e+000 8.850904e+000 8.748219e+000 8.589786e+000 8.458265e+000 8.241299e+000 8.974163e+000 8.995447e+000 8.914288e+000 8.839016e+000 8.734971e+000 8.604434e+000 8.433085e+000 8.234129e+000 8.966759e+000 8.945435e+000 8.895802e+000 8.810742e+000 8.723702e+000 8.577672e+000 8.435139e+000 8.228634e+000 8.852314e+000 8.930630e+000 8.856205e+000 8.790871e+000 8.679717e+000 8.535861e+000 8.351149e+000 8.174799e+000 9.023199e+000 8.843494e+000 8.850043e+000 8.747767e+000 8.632565e+000 8.472926e+000 8.302965e+000 8.139754e+000 8.713742e+000 8.954418e+000 8.788706e+000 8.709375e+000 8.590742e+000 8.434288e+000 8.304853e+000 8.137193e+000 9.001752e+000 8.751677e+000 8.732904e+000 8.677451e+000 8.563441e+000 8.444360e+000 8.282008e+000 8.132644e+000 8.692272e+000 8.786579e+000 8.693040e+000 8.610403e+000 8.536877e+000 8.424256e+000 8.339314e+000 8.176077e+000 8.610698e+000 8.727466e+000 8.652439e+000 8.604315e+000 8.529936e+000 8.430556e+000 8.317236e+000 8.175688e+000 8.839321e+000 8.616820e+000 8.621917e+000 8.610591e+000 8.523735e+000 8.411914e+000 8.243216e+000 8.119260e+000 8.644920e+000 8.595551e+000 8.563598e+000 8.464579e+000 8.378752e+000 8.257442e+000 8.161497e+000 8.070826e+000 8.311047e+000 8.654296e+000 8.560080e+000 8.430919e+000 8.369659e+000 8.261163e+000 8.207126e+000 8.095396e+000 8.551328e+000 8.524865e+000 8.453893e+000 8.469303e+000 8.408216e+000 8.332510e+000 8.245203e+000 8.110367e+000 8.592136e+000 8.361719e+000 8.353937e+000 8.386930e+000 8.333274e+000 8.281770e+000 8.167327e+000 8.088789e+000 8.578666e+000 8.349549e+000 8.348405e+000 8.330107e+000 8.270868e+000 8.215939e+000 8.108813e+000 8.071651e+000 8.264878e+000 8.403549e+000 8.358677e+000 8.280201e+000 8.247329e+000 8.171818e+000 8.139537e+000 8.061146e+000 8.030516e+000 8.384434e+000 8.329195e+000 8.212352e+000 8.200177e+000 8.129150e+000 8.135175e+000 8.044235e+000 7.948239e+000 8.299794e+000 8.269115e+000 8.163626e+000 8.156406e+000 8.111156e+000 8.121132e+000 8.055636e+000 8.028227e+000 8.202722e+000 8.213541e+000 8.152796e+000 8.148439e+000 8.125178e+000 8.120817e+000 8.072029e+000 8.025229e+000 8.136360e+000 8.143041e+000 8.117581e+000 8.105846e+000 8.077254e+000 8.060515e+000 8.024394e+000 8.030286e+000 7.999222e+000 7.993382e+000 7.983365e+000 7.962388e+000 7.949796e+000 7.946019e+000 7.964068e+000
<VARIANCE> 320
 1.000000e-002 1.000000e-002 1.000000e-002 1.000000e-002 1.000000e-002 1.000000e-002 1.000000e-002 1.000000e-002 1.000000e-002 1.000000e-002 1.000000e-002 1.000000e-002 1.000000e-002 1.000000e-002 1.000000e-002 1.000000e-002 1.000000e-002 1.000000e-002 1.000000e-002 1.000000e-002 1.000000e-002 1.000000e-002 1.000000e-002 1.000000e-002 1.000000e-002 1.000000e-002 1.000000e-002 1.000000e-002 1.000000e-002 1.000000e-002 1.000000e-002 1.000000e-002 1.000000e-002 1.000000e-002 1.000000e-002 1.000000e-002 1.000000e-002 1.000000e-002 1.000000e-002 1.000000e-002 1.000000e-002 1.000000e-002 1.000000e-002 1.000000e-002 1.000000e-002 1.000000e-002 1.000000e-002 1.000000e-002 1.000000e-002 1.000000e-002 1.000000e-002 1.000000e-002 1.000000e-002 1.000000e-002 1.000000e-002 1.000000e-002 1.000000e-002 1.000000e-002 1.000000e-002 1.000000e-002 1.000000e-002 1.000000e-002 1.000000e-002 1.000000e-002 1.000000e-002 1.000000e-002 1.000000e-002 1.000000e-002 1.000000e-002 1.000000e-002 1.000000e-002 1.000000e-002 1.000000e-002 1.000000e-002 1.000000e-002 1.000000e-002 1.000000e-002 1.000000e-002 1.000000e-002 1.000000e-002 1.000000e-002 1.000000e-002 1.000000e-002 1.000000e-002 1.000000e-002 1.000000e-002 1.000000e-002 1.000000e-002 1.000000e-002 1.000000e-002 1.000000e-002 1.000000e-002 1.000000e-002 1.000000e-002 1.000000e-002 1.000000e-002 1.000000e-002 1.000000e-002 1.000000e-002 1.000000e-002 1.000000e-002 1.000000e-002 1.000000e-002 1.000000e-002 1.000000e-002 1.000000e-002 1.000000e-002 1.000000e-002 1.000000e-002 1.000000e-002 1.000000e-002 1.000000e-002 1.000000e-002 1.000000e-002 1.000000e-002 1.000000e-002 1.000000e-002 1.000000e-002 1.000000e-002 1.000000e-002 1.000000e-002 1.000000e-002 1.000000e-002 1.000000e-002 1.000000e-002 1.000000e-002 1.000000e-002 1.000000e-002 1.000000e-002 1.000000e-002 1.000000e-002 1.000000e-002 1.000000e-002 1.000000e-002 1.000000e-002 1.000000e-002 1.000000e-002 1.000000e-002 1.000000e-002 1.000000e-002 1.000000e-002 1.000000e-002 1.000000e-002 1.000000e-002 1.000000e-002 1.000000e-002 1.000000e-002 1.000000e-002 1.000000e-002 1.000000e-002 1.000000e-002 1.000000e-002 1.000000e-002 1.000000e-002 1.000000e-002 1.000000e-002 1.000000e-002 1.000000e-002 1.000000e-002 1.000000e-002 1.000000e-002 1.000000e-002 1.000000e-002 1.000000e-002 1.000000e-002 1.000000e-002 1.000000e-002 1.000000e-002 1.000000e-002 1.000000e-002 1.000000e-002 1.000000e-002 1.000000e-002 1.000000e-002 1.000000e-002 1.000000e-002 1.000000e-002 1.000000e-002 1.000000e-002 1.000000e-002 1.000000e-002 1.000000e-002 1.000000e-002 1.000000e-002 1.000000e-002 1.000000e-002 1.000000e-002 1.000000e-002 1.000000e-002 1.000000e-002 1.000000e-002 1.000000e-002 1.000000e-002 1.000000e-002 1.000000e-002 1.000000e-002 1.000000e-002 1.000000e-002 1.000000e-002 1.000000e-002 1.000000e-002 1.000000e-002 1.000000e-002 1.000000e-002 1.000000e-002 1.000000e-002 1.000000e-002 1.000000e-002 1.000000e-002 1.000000e-002 1.000000e-002 1.000000e-002 1.000000e-002 1.000000e-002 1.000000e-002 1.000000e-002 1.000000e-002 1.000000e-002 1.000000e-002 1.000000e-002 1.000000e-002 1.000000e-002 1.000000e-002 1.000000e-002 1.000000e-002 1.000000e-002 1.000000e-002 1.000000e-002 1.000000e-002 1.000000e-002 1.000000e-002 1.000000e-002 1.000000e-002 1.000000e-002 1.000000e-002 1.000000e-002 1.000000e-002 1.000000e-002 1.000000e-002 1.000000e-002 1.000000e-002 1.000000e-002 1.000000e-002 1.000000e-002 1.000000e-002 1.000000e-002 1.000000e-002 1.000000e-002 1.000000e-002 1.000000e-002 1.000000e-002 1.000000e-002 1.000000e-002 1.000000e-002 1.000000e-002 1.000000e-002 1.000000e-002 1.000000e-002 1.000000e-002 1.000000e-002 1.000000e-002 1.000000e-002 1.000000e-002 1.000000e-002 1.000000e-002 1.000000e-002 1.000000e-002 1.000000e-002 1.000000e-002 1.000000e-002 1.000000e-002 1.000000e-002 1.000000e-002 1.000000e-002 1.000000e-002 1.000000e-002 1.000000e-002 1.000000e-002 1.000000e-002 1.000000e-002 1.000000e-002 1.000000e-002 1.000000e-002 1.000000e-002 1.000000e-002 1.000000e-002 1.000000e-002 1.000000e-002 1.000000e-002 1.000000e-002 1.000000e-002 1.000000e-002 1.000000e-002 1.000000e-002 1.000000e-002 1.000000e-002 1.000000e-002 1.000000e-002 1.000000e-002 1.000000e-002 1.000000e-002 1.000000e-002 1.000000e-002 1.000000e-002 1.000000e-002 1.000000e-002 1.000000e-002 1.000000e-002 1.000000e-002 1.000000e-002 1.000000e-002 1.000000e-002 1.000000e-002 1.000000e-002 1.000000e-002 1.000000e-002 1.000000e-002 1.000000e-002 1.000000e-002 1.000000e-002
<GCONST> -8.855338e+002
<TRANSP> 4
 0.000000e+000 1.000000e+000 0.000000e+000 0.000000e+000
 0.000000e+000 0.000000e+000 1.000000e+000 0.000000e+000
 0.000000e+000 0.000000e+000 0.000000e+000 1.000000e+000
 0.000000e+000 0.000000e+000 0.000000e+000 0.000000e+000
<ENDHMM>
~h "h3"
<BEGINHMM>
<NUMSTATES> 4
<STATE> 2
<MEAN> 320
 2.422354e+001 9.446403e+000 9.313797e+000 9.595520e+000 7.991905e+000 9.207070e+000 8.729096e+000 8.346721e+000 6.339254e+000 9.423963e+000 9.216971e+000 9.251533e+000 7.820193e+000 9.069089e+000 8.704968e+000 8.139113e+000 7.429697e+000 9.353828e+000 9.028944e+000 8.956953e+000 7.886709e+000 8.934128e+000 8.499847e+000 7.913166e+000 8.445416e+000 9.379444e+000 8.967191e+000 8.633831e+000 8.199851e+000 8.704859e+000 8.384287e+000 7.765208e+000 9.424709e+000 9.416889e+000 8.943030e+000 8.440949e+000 8.532285e+000 8.532322e+000 8.318227e+000 7.704402e+000 1.017867e+001 9.283591e+000 8.860104e+000 8.395689e+000 8.744705e+000 8.500924e+000 8.271838e+000 7.689115e+000 1.008769e+001 8.887953e+000 8.725553e+000 8.271924e+000 8.745973e+000 8.532926e+000 8.367674e+000 7.728829e+000 9.730910e+000 8.554806e+000 8.700682e+000 8.393328e+000 8.599032e+000 8.648583e+000 8.391964e+000 7.845513e+000 9.343910e+000 8.610202e+000 8.814289e+000 8.683194e+000 8.630595e+000 8.793479e+000 8.408187e+000 7.954469e+000 9.216305e+000 8.954894e+000 8.881013e+000 8.897707e+000 8.768654e+000 8.857674e+000 8.507064e+000 8.047794e+000 9.052660e+000 9.156722e+000 9.016427e+000 9.045280e+000 8.891921e+000 8.848454e+000 8.586602e+000 8.173860e+000 9.261455e+000 9.111476e+000 9.173400e+000 9.100779e+000 8.985229e+000 8.807766e+000 8.591731e+000 8.275681e+000 9.426514e+000 9.147332e+000 9.314892e+000 9.107171e+000 9.034168e+000 8.770984e+000 8.552532e+000 8.338432e+000 9.507450e+000 9.455136e+000 9.226967e+000 9.123939e+000 9.025496e+000 8.719952e+000 8.499809e+000 8.365277e+000 9.497629e+000 9.327089e+000 9.114153e+000 9.060650e+000 8.964030e+000 8.666135e+000 8.472774e+000 8.338888e+000 9.506676e+000 9.175592e+000 9.171379e+000 9.032301e+000 8.909702e+000 8.640005e+000 8.388784e+000 8.264223e+000 9.305306e+000 9.396097e+000 9.065888e+000 9.014707e+000 8.890031e+000 8.595473e+000 8.391603e+000 8.228354e+000 9.406443e+000 9.117183e+000 9.071771e+000 8.949690e+000 8.846680e+000 8.583874e+000 8.403714e+000 8.204728e+000 9.191346e+000 9.190708e+000 9.032128e+000 8.928493e+000 8.819307e+000 8.597279e+000 8.411488e+000 8.212579e+000 9.154234e+000 9.065440e+000 8.969067e+000 8.870608e+000 8.799294e+000 8.604102e+000 8.472037e+000 8.238068e+000 8.993879e+000 8.976931e+000 8.934242e+000 8.852447e+000 8.765553e+000 8.617146e+000 8.447965e+000 8.234998e+000 8.973696e+000 8.927276e+000 8.919374e+000 8.828035e+000 8.740866e+000 8.586340e+000 8.442465e+000 8.234861e+000 8.859708e+000 8.917885e+000 8.882217e+000 8.813122e+000 8.697823e+000 8.549317e+000 8.361708e+000 8.197640e+000 9.033571e+000 8.842253e+000 8.879065e+000 8.785072e+000 8.657866e+000 8.488946e+000 8.311111e+000 8.172807e+000 8.755231e+000 8.962702e+000 8.815474e+000 8.755462e+000 8.630199e+000 8.451611e+000 8.314991e+000 8.167479e+000 9.032677e+000 8.776058e+000 8.767809e+000 8.729328e+000 8.607257e+000 8.462731e+000 8.293359e+000 8.149617e+000 8.736446e+000 8.815375e+000 8.717531e+000 8.660142e+000 8.583398e+000 8.444203e+000 8.357055e+000 8.176589e+000 8.650517e+000 8.760861e+000 8.672517e+000 8.647376e+000 8.575964e+000 8.455190e+000 8.341799e+000 8.167666e+000 8.865808e+000 8.650095e+000 8.641566e+000 8.639839e+000 8.570093e+000 8.436980e+000 8.277210e+000 8.112771e+000 8.692011e+000 8.629606e+000 8.573503e+000 8.489913e+000 8.428246e+000 8.288542e+000 8.196565e+000 8.063921e+000 8.368296e+000 8.681070e+000 8.565859e+000 8.449582e+000 8.409625e+000 8.288421e+000 8.234958e+000 8.087040e+000 8.579420e+000 8.542515e+000 8.468881e+000 8.479668e+000 8.432704e+000 8.352292e+000 8.269032e+000 8.102437e+000 8.602824e+000 8.376912e+000 8.382459e+000 8.409636e+000 8.357810e+000 8.303035e+000 8.188148e+000 8.083437e+000 8.584485e+000 8.362619e+000 8.384172e+000 8.365406e+000 8.299470e+000 8.238866e+000 8.123909e+000 8.072451e+000 8.285945e+000 8.413133e+000 8.385612e+000 8.314014e+000 8.273365e+000 8.188857e+000 8.148388e+000 8.064173e+000 8.056087e+000 8.389071e+000 8.346726e+000 8.238235e+000 8.217461e+000 8.138311e+000 8.139602e+000 8.047852e+000 7.956064e+000 8.300279e+000 8.276760e+000 8.174666e+000 8.162421e+000 8.115921e+000 8.124778e+000 8.061169e+000 8.020401e+000 8.200854e+000 8.209209e+000 8.148483e+000 8.144413e+000 8.126379e+000 8.125134e+000 8.078560e+000 8.019246e+000 8.132916e+000 8.134076e+000 8.108310e+000 8.100427e+000 8.077765e+000 8.065786e+000 8.033558e+000 8.032463e+000 7.997876e+000 7.990627e+000 7.981359e+000 7.963522e+000 7.952441e+000 7.950184e+000 7.973676e+000
<VARIANCE> 320
 1.000000e-002 1.000000e-002 1.000000e-002 1.000000e-002 1.000000e-002 1.000000e-002 1.000000e-002 1.000000e-002 1.000000e-002 1.000000e-002 1.000000e-002 1.000000e-002 1.000000e-002 1.000000e-002 1.000000e-002 1.000000e-002 1.000000e-002 1.000000e-002 1.000000e-002 1.000000e-002 1.000000e-002 1.000000e-002 1.000000e-002 1.000000e-002 1.000000e-002 1.000000e-002 1.000000e-002 1.000000e-002 1.000000e-002 1.000000e-002 1.000000e-002 1.000000e-002 1.000000e-002 1.000000e-002 1.000000e-002 1.000000e-002 1.000000e-002 1.000000e-002 1.000000e-002 1.000000e-002 1.000000e-002 1.000000e-002 1.000000e-002 1.000000e-002 1.000000e-002 1.000000e-002 1.000000e-002 1.000000e-002 1.000000e-002 1.000000e-002 1.000000e-002 1.000000e-002 1.000000e-002 1.000000e-002 1.000000e-002 1.000000e-002 1.000000e-002 1.000000e-002 1.000000e-002 1.000000e-002 1.000000e-002 1.000000e-002 1.000000e-002 1.000000e-002 1.000000e-002 1.000000e-002 1.000000e-002 1.000000e-002 1.000000e-002 1.000000e-002 1.000000e-002 1.000000e-002 1.000000e-002 1.000000e-002 1.000000e-002 1.000000e-002 1.000000e-002 1.000000e-002 1.000000e-002 1.000000e-002 1.000000e-002 1.000000e-002 1.000000e-002 1.000000e-002 1.000000e-002 1.000000e-002 1.000000e-002 1.000000e-002 1.000000e-002 1.000000e-002 1.000000e-002 1.000000e-002 1.000000e-002 1.000000e-002 1.000000e-002 1.000000e-002 1.000000e-002 1.000000e-002 1.000000e-002 1.000000e-002 1.000000e-002 1.000000e-002 1.000000e-002 1.000000e-002 1.000000e-002 1.000000e-002 1.000000e-002 1.000000e-002 1.000000e-002 1.000000e-002 1.000000e-002 1.000000e-002 1.000000e-002 1.000000e-002 1.000000e-002 1.000000e-002 1.000000e-002 1.000000e-002 1.000000e-002 1.000000e-002 1.000000e-002 1.000000e-002 1.000000e-002 1.000000e-002 1.000000e-002 1.000000e-002 1.000000e-002 1.000000e-002 1.000000e-002 1.000000e-002 1.000000e-002 1.000000e-002 1.000000e-002 1.000000e-002 1.000000e-002 1.000000e-002 1.000000e-002 1.000000e-002 1.000000e-002 1.000000e-002 1.000000e-002 1.000000e-002 1.000000e-002 1.000000e-002 1.000000e-002 1.000000e-002 1.000000e-002 1.000000e-002 1.000000e-002 1.000000e-002 1.000000e-002 1.000000e-002 1.000000e-002 1.000000e-002 1.000000e-002 1.000000e-002 1.000000e-002 1.000000e-002 1.000000e-002 1.000000e-002 1.000000e-002 1.000000e-002 1.000000e-002 1.000000e-002 1.000000e-002 1.000000e-002 1.000000e-002 1.000000e-002 1.000000e-002 1.000000e-002 1.000000e-002 1.000000e-002 1.000000e-002 1.000000e-002 1.000000e-002 1.000000e-002 1.000000e-002 1.000000e-002 1.000000e-002 1.000000e-002 1.000000e-002 1.000000e-002 1.000000e-002 1.000000e-002 1.000000e-002 1.000000e-002 1.000000e-002 1.000000e-002 1.000000e-002 1.000000e-002 1.000000e-002 1.000000e-002 1.000000e-002 1.000000e-002 1.000000e-002 1.000000e-002 1.000000e-002 1.000000e-002 1.000000e-002 1.000000e-002 1.000000e-002 1.000000e-002 1.000000e-002 1.000000e-002 1.000000e-002 1.000000e-002 1.000000e-002 1.000000e-002 1.000000e-002 1.000000e-002 1.000000e-002 1.000000e-002 1.000000e-002 1.000000e-002 1.000000e-002 1.000000e-002 1.000000e-002 1.000000e-002 1.000000e-002 1.000000e-002 1.000000e-002 1.000000e-002 1.000000e-002 1.000000e-002 1.000000e-002 1.000000e-002 1.000000e-002 1.000000e-002 1.000000e-002 1.000000e-002 1.000000e-002 1.000000e-002 1.000000e-002 1.000000e-002 1.000000e-002 1.000000e-002 1.000000e-002 1.000000e-002 1.000000e-002 1.000000e-002 1.000000e-002 1.000000e-002 1.000000e-002 1.000000e-002 1.000000e-002 1.000000e-002 1.000000e-002 1.000000e-002 1.000000e-002 1.000000e-002 1.000000e-002 1.000000e-002 1.000000e-002 1.000000e-002 1.000000e-002 1.000000e-002 1.000000e-002 1.000000e-002 1.000000e-002 1.000000e-002 1.000000e-002 1.000000e-002 1.000000e-002 1.000000e-002 1.000000e-002 1.000000e-002 1.000000e-002 1.000000e-002 1.000000e-002 1.000000e-002 1.000000e-002 1.000000e-002 1.000000e-002 1.000000e-002 1.000000e-002 1.000000e-002 1.000000e-002 1.000000e-002 1.000000e-002 1.000000e-002 1.000000e-002 1.000000e-002 1.000000e-002 1.000000e-002 1.000000e-002 1.000000e-002 1.000000e-002 1.000000e-002 1.000000e-002 1.000000e-002 1.000000e-002 1.000000e-002 1.000000e-002 1.000000e-002 1.000000e-002 1.000000e-002 1.000000e-002 1.000000e-002 1.000000e-002 1.000000e-002 1.000000e-002 1.000000e-002 1.000000e-002 1.000000e-002 1.000000e-002 1.000000e-002 1.000000e-002 1.000000e-002 1.000000e-002 1.000000e-002 1.000000e-002 1.000000e-002 1.000000e-002 1.000000e-002 1.000000e-002 1.000000e-002 1.000000e-002 1.000000e-002 1.000000e-002 1.000000e-002
<GCONST> -8.855338e+002
<STATE> 3
<MEAN> 320
 2.589786e+001 8.577912e+000 8.537722e+000 8.609893e+000 8.527736e+000 8.486170e+000 8.290913e+000 8.174538e+000 8.347397e+000 8.760133e+000 8.686496e+000 8.698214e+000 8.571718e+000 8.461746e+000 8.278660e+000 8.127825e+000 8.370510e+000 9.172945e+000 8.906110e+000 8.899092e+000 8.728702e+000 8.580794e+000 8.360370e+000 8.161663e+000 8.552184e+000 9.574984e+000 9.159312e+000 9.132956e+000 8.912624e+000 8.720042e+000 8.459291e+000 8.206861e+000 8.784822e+000 9.853785e+000 9.344600e+000 9.327743e+000 9.076545e+000 8.847719e+000 8.560109e+000 8.261448e+000 8.978284e+000 9.801764e+000 9.412046e+000 9.407188e+000 9.169342e+000 8.925340e+000 8.641956e+000 8.316268e+000 8.875669e+000 9.413385e+000 9.428144e+000 9.346766e+000 9.159304e+000 8.905698e+000 8.658118e+000 8.330102e+000 8.752615e+000 8.989957e+000 9.438967e+000 9.215956e+000 9.087554e+000 8.829815e+000 8.617332e+000 8.303715e+000 8.683975e+000 8.872677e+000 9.381579e+000 9.124477e+000 9.040533e+000 8.829746e+000 8.626010e+000 8.324527e+000 8.740281e+000 9.080700e+000 9.243777e+000 9.124994e+000 9.025475e+000 8.873194e+000 8.658921e+000 8.363910e+000 8.841063e+000 9.231471e+000 9.111363e+000 9.125187e+000 8.998026e+000 8.866714e+000 8.657433e+000 8.377364e+000 9.111917e+000 9.144469e+000 9.178515e+000 9.113336e+000 9.009029e+000 8.835738e+000 8.635160e+000 8.356829e+000 9.284758e+000 9.129961e+000 9.275339e+000 9.096066e+000 8.994910e+000 8.799424e+000 8.572144e+000 8.306388e+000 9.335485e+000 9.379292e+000 9.188679e+000 9.116066e+000 8.943619e+000 8.747204e+000 8.501548e+000 8.256533e+000 9.355479e+000 9.244030e+000 9.131550e+000 9.071795e+000 8.891294e+000 8.672331e+000 8.462338e+000 8.222375e+000 9.414279e+000 9.075261e+000 9.201469e+000 9.029222e+000 8.852073e+000 8.644352e+000 8.391798e+000 8.169506e+000 9.170302e+000 9.302805e+000 9.075191e+000 9.006255e+000 8.813860e+000 8.610975e+000 8.394080e+000 8.171055e+000 9.307700e+000 9.049970e+000 9.076232e+000 8.942051e+000 8.781069e+000 8.584407e+000 8.393470e+000 8.179638e+000 9.093303e+000 9.126650e+000 9.015451e+000 8.909478e+000 8.749699e+000 8.594272e+000 8.399236e+000 8.200845e+000 9.094137e+000 9.033148e+000 8.953686e+000 8.857934e+000 8.741502e+000 8.591632e+000 8.454077e+000 8.244633e+000 8.970029e+000 8.966008e+000 8.912561e+000 8.837795e+000 8.723506e+000 8.603289e+000 8.429564e+000 8.238049e+000 8.960498e+000 8.926476e+000 8.893054e+000 8.802726e+000 8.709617e+000 8.570509e+000 8.428779e+000 8.230741e+000 8.840817e+000 8.909688e+000 8.848935e+000 8.779834e+000 8.666634e+000 8.529053e+000 8.345620e+000 8.174832e+000 9.016050e+000 8.814257e+000 8.841250e+000 8.738769e+000 8.621597e+000 8.467394e+000 8.296858e+000 8.137126e+000 8.704015e+000 8.912496e+000 8.782383e+000 8.705510e+000 8.581904e+000 8.431308e+000 8.299334e+000 8.134052e+000 9.005951e+000 8.711066e+000 8.729774e+000 8.677745e+000 8.555759e+000 8.443765e+000 8.277714e+000 8.131087e+000 8.694489e+000 8.750987e+000 8.693801e+000 8.608495e+000 8.525304e+000 8.419271e+000 8.334122e+000 8.175545e+000 8.608576e+000 8.702182e+000 8.654135e+000 8.599729e+000 8.520118e+000 8.429164e+000 8.317171e+000 8.176685e+000 8.834851e+000 8.595387e+000 8.618987e+000 8.606322e+000 8.517588e+000 8.413365e+000 8.245680e+000 8.119697e+000 8.635082e+000 8.571472e+000 8.557952e+000 8.460314e+000 8.372571e+000 8.258714e+000 8.162704e+000 8.071275e+000 8.300919e+000 8.632261e+000 8.555454e+000 8.427989e+000 8.363380e+000 8.260930e+000 8.206538e+000 8.096701e+000 8.550263e+000 8.511024e+000 8.451957e+000 8.466180e+000 8.400793e+000 8.330019e+000 8.243104e+000 8.112045e+000 8.590230e+000 8.349158e+000 8.351730e+000 8.380177e+000 8.324331e+000 8.278056e+000 8.165296e+000 8.090405e+000 8.577032e+000 8.334445e+000 8.345923e+000 8.324665e+000 8.264662e+000 8.213816e+000 8.107087e+000 8.071788e+000 8.268834e+000 8.383035e+000 8.355965e+000 8.280993e+000 8.242339e+000 8.170402e+000 8.136969e+000 8.059838e+000 8.037249e+000 8.365967e+000 8.326600e+000 8.215046e+000 8.195341e+000 8.127696e+000 8.132788e+000 8.043067e+000 7.949958e+000 8.292264e+000 8.268578e+000 8.162699e+000 8.152869e+000 8.109506e+000 8.119803e+000 8.055725e+000 8.024627e+000 8.204080e+000 8.215183e+000 8.148730e+000 8.146153e+000 8.123871e+000 8.120965e+000 8.072955e+000 8.019105e+000 8.137296e+000 8.143649e+000 8.113621e+000 8.103924e+000 8.077009e+000 8.061544e+000 8.025384e+000 8.022392e+000 7.995781e+000 7.991328e+000 7.980203e+000 7.961025e+000 7.950353e+000 7.946827e+000 7.964647e+000
<VARIANCE> 320
 1.000000e-002 1.000000e-002 1.000000e-002 1.000000e-002 1.000000e-002 1.000000e-002 1.000000e-002 1.000000e-002 1.000000e-002 1.000000e-002 1.000000e-002 1.000000e-002 1.000000e-002 1.000000e-002 1.000000e-002 1.000000e-002 1.000000e-002 1.000000e-002 1.000000e-002 1.000000e-002 1.000000e-002 1.000000e-002 1.000000e-002 1.000000e-002 1.000000e-002 1.000000e-002 1.000000e-002 1.000000e-002 1.000000e-002 1.000000e-002 1.000000e-002 1.000000e-002 1.000000e-002 1.000000e-002 1.000000e-002 1.000000e-002 1.000000e-002 1.000000e-002 1.000000e-002 1.000000e-002 1.000000e-002 1.000000e-002 1.000000e-002 1.000000e-002 1.000000e-002 1.000000e-002 1.000000e-002 1.000000e-002 1.000000e-002 1.000000e-002 1.000000e-002 1.000000e-002 1.000000e-002 1.000000e-002 1.000000e-002 1.000000e-002 1.000000e-002 1.000000e-002 1.000000e-002 1.000000e-002 1.000000e-002 1.000000e-002 1.000000e-002 1.000000e-002 1.000000e-002 1.000000e-002 1.000000e-002 1.000000e-002 1.000000e-002 1.000000e-002 1.000000e-002 1.000000e-002 1.000000e-002 1.000000e-002 1.000000e-002 1.000000e-002 1.000000e-002 1.000000e-002 1.000000e-002 1.000000e-002 1.000000e-002 1.000000e-002 1.000000e-002 1.000000e-002 1.000000e-002 1.000000e-002 1.000000e-002 1.000000e-002 1.000000e-002 1.000000e-002 1.000000e-002 1.000000e-002 1.000000e-002 1.000000e-002 1.000000e-002 1.000000e-002 1.000000e-002 1.000000e-002 1.000000e-002 1.000000e-002 1.000000e-002 1.000000e-002 1.000000e-002 1.000000e-002 1.000000e-002 1.000000e-002 1.000000e-002 1.000000e-002 1.000000e-002 1.000000e-002 1.000000e-002 1.000000e-002 1.000000e-002 1.000000e-002 1.000000e-002 1.000000e-002 1.000000e-002 1.000000e-002 1.000000e-002 1.000000e-002 1.000000e-002 1.000000e-002 1.000000e-002 1.000000e-002 1.000000e-002 1.000000e-002 1.000000e-002 1.000000e-002 1.000000e-002 1.000000e-002 1.000000e-002 1.000000e-002 1.000000e-002 1.000000e-002 1.000000e-002 1.000000e-002 1.000000e-002 1.000000e-002 1.000000e-002 1.000000e-002 1.000000e-002 1.000000e-002 1.000000e-002 1.000000e-002 1.000000e-002 1.000000e-002 1.000000e-002 1.000000e-002 1.000000e-002 1.000000e-002 1.000000e-002 1.000000e-002 1.000000e-002 1.000000e-002 1.000000e-002 1.000000e-002 1.000000e-002 1.000000e-002 1.000000e-002 1.000000e-002 1.000000e-002 1.000000e-002 1.000000e-002 1.000000e-002 1.000000e-002 1.000000e-002 1.000000e-002 1.000000e-002 1.000000e-002 1.000000e-002 1.000000e-002 1.000000e-002 1.000000e-002 1.000000e-002 1.000000e-002 1.000000e-002 1.000000e-002 1.000000e-002 1.000000e-002 1.000000e-002 1.000000e-002 1.000000e-002 1.000000e-002 1.000000e-002 1.000000e-002 1.000000e-002 1.000000e-002 1.000000e-002 1.000000e-002 1.000000e-002 1.000000e-002 1.000000e-002 1.000000e-002 1.000000e-002 1.000000e-002 1.000000e-002 1.000000e-002 1.000000e-002 1.000000e-002 1.000000e-002 1.000000e-002 1.000000e-002 1.000000e-002 1.000000e-002 1.000000e-002 1.000000e-002 1.000000e-002 1.000000e-002 1.000000e-002 1.000000e-002 1.000000e-002 1.000000e-002 1.000000e-002 1.000000e-002 1.000000e-002 1.000000e-002 1.000000e-002 1.000000e-002 1.000000e-002 1.000000e-002 1.000000e-002 1.000000e-002 1.000000e-002 1.000000e-002 1.000000e-002 1.000000e-002 1.000000e-002 1.000000e-002 1.000000e-002 1.000000e-002 1.000000e-002 1.000000e-002 1.000000e-002 1.000000e-002 1.000000e-002 1.000000e-002 1.000000e-002 1.000000e-002 1.000000e-002 1.000000e-002 1.000000e-002 1.000000e-002 1.000000e-002 1.000000e-002 1.000000e-002 1.000000e-002 1.000000e-002 1.000000e-002 1.000000e-002 1.000000e-002 1.000000e-002 1.000000e-002 1.000000e-002 1.000000e-002 1.000000e-002 1.000000e-002 1.000000e-002 1.000000e-002 1.000000e-002 1.000000e-002 1.000000e-002 1.000000e-002 1.000000e-002 1.000000e-002 1.000000e-002 1.000000e-002 1.000000e-002 1.000000e-002 1.000000e-002 1.000000e-002 1.000000e-002 1.000000e-002 1.000000e-002 1.000000e-002 1.000000e-002 1.000000e-002 1.000000e-002 1.000000e-002 1.000000e-002 1.000000e-002 1.000000e-002 1.000000e-002 1.000000e-002 1.000000e-002 1.000000e-002 1.000000e-002 1.000000e-002 1.000000e-002 1.000000e-002 1.000000e-002 1.000000e-002 1.000000e-002 1.000000e-002 1.000000e-002 1.000000e-002 1.000000e-002 1.000000e-002 1.000000e-002 1.000000e-002 1.000000e-002 1.000000e-002 1.000000e-002 1.000000e-002 1.000000e-002 1.000000e-002 1.000000e-002 1.000000e-002 1.000000e-002 1.000000e-002 1.000000e-002 1.000000e-002 1.000000e-002 1.000000e-002 1.000000e-002 1.000000e-002 1.000000e-002 1.000000e-002 1.000000e-002 1.000000e-002 1.000000e-002
<GCONST> -8.855338e+002
<TRANSP> 4
 0.000000e+000 1.000000e+000 0.000000e+000 0.000000e+000
 0.000000e+000 0.000000e+000 1.000000e+000 0.000000e+000
 0.000000e+000 0.000000e+000 0.000000e+000 1.000000e+000
 0.000000e+000 0.000000e+000 0.000000e+000 0.000000e+000
<ENDHMM>
~h "h4"
<BEGINHMM>
<NUMSTATES> 3
<STATE> 2
<MEAN> 320
 2.485863e+001 8.972667e+000 9.539831e+000 8.339936e+000 9.235590e+000 8.769734e+000 7.837528e+000 8.613216e+000 7.255988e+000 9.025949e+000 9.293867e+000 8.270078e+000 9.088618e+000 8.476772e+000 7.971295e+000 8.676433e+000 7.753364e+000 9.196592e+000 9.107949e+000 8.490547e+000 8.926523e+000 8.314505e+000 8.358078e+000 8.519753e+000 8.563899e+000 9.493036e+000 9.110010e+000 8.824678e+000 8.667718e+000 8.242945e+000 8.737135e+000 8.391593e+000 9.535335e+000 9.702421e+000 8.974209e+000 9.135021e+000 8.529835e+000 8.317246e+000 8.981677e+000 8.261899e+000 9.876535e+000 9.624073e+000 8.884177e+000 9.204993e+000 8.549688e+000 8.322792e+000 9.078393e+000 8.289491e+000 9.667512e+000 9.221960e+000 8.692857e+000 9.060597e+000 8.724550e+000 8.300223e+000 9.019240e+000 8.368005e+000 8.901658e+000 8.775704e+000 8.833151e+000 8.824338e+000 8.896041e+000 8.265631e+000 8.786323e+000 8.425427e+000 8.562877e+000 8.684285e+000 8.866479e+000 8.751582e+000 9.061289e+000 8.351487e+000 8.678452e+000 8.484600e+000 8.549795e+000 8.843383e+000 8.900651e+000 8.841035e+000 8.998967e+000 8.400969e+000 8.699371e+000 8.490121e+000 8.795844e+000 9.060656e+000 8.910112e+000 9.042626e+000 8.964390e+000 8.507342e+000 8.689714e+000 8.443436e+000 9.158528e+000 9.105322e+000 9.086279e+000 9.104226e+000 8.988631e+000 8.626504e+000 8.689590e+000 8.353744e+000 9.447603e+000 9.214084e+000 9.266635e+000 9.173247e+000 8.983167e+000 8.742748e+000 8.629343e+000 8.256270e+000 9.563326e+000 9.561675e+000 9.244211e+000 9.215988e+000 8.949964e+000 8.828854e+000 8.544904e+000 8.184448e+000 9.520526e+000 9.398428e+000 9.179349e+000 9.137111e+000 8.913523e+000 8.814987e+000 8.499537e+000 8.182319e+000 9.478554e+000 9.188685e+000 9.258517e+000 9.054376e+000 8.878181e+000 8.777792e+000 8.445076e+000 8.139142e+000 9.283985e+000 9.401882e+000 9.097098e+000 9.040534e+000 8.803605e+000 8.711069e+000 8.446513e+000 8.143600e+000 9.385411e+000 9.127376e+000 9.072142e+000 8.955960e+000 8.769805e+000 8.639557e+000 8.440638e+000 8.163668e+000 9.171593e+000 9.199813e+000 9.008869e+000 8.926853e+000 8.728683e+000 8.622344e+000 8.427089e+000 8.181943e+000 9.151019e+000 9.070151e+000 8.922932e+000 8.859811e+000 8.711291e+000 8.599497e+000 8.474135e+000 8.243845e+000 8.997445e+000 8.978590e+000 8.879462e+000 8.837014e+000 8.699896e+000 8.603342e+000 8.443004e+000 8.240730e+000 8.981012e+000 8.932760e+000 8.862547e+000 8.795620e+000 8.690571e+000 8.572181e+000 8.441483e+000 8.239275e+000 8.864264e+000 8.927481e+000 8.836879e+000 8.782533e+000 8.663178e+000 8.546862e+000 8.354708e+000 8.177356e+000 9.035924e+000 8.842163e+000 8.846395e+000 8.745733e+000 8.630512e+000 8.506104e+000 8.302279e+000 8.138371e+000 8.734083e+000 8.945597e+000 8.793454e+000 8.719162e+000 8.589652e+000 8.477164e+000 8.301024e+000 8.136126e+000 9.012148e+000 8.733229e+000 8.741139e+000 8.684214e+000 8.559593e+000 8.481455e+000 8.275146e+000 8.139772e+000 8.700819e+000 8.758148e+000 8.692798e+000 8.616949e+000 8.522823e+000 8.437716e+000 8.328276e+000 8.191929e+000 8.613453e+000 8.701059e+000 8.645459e+000 8.609798e+000 8.519863e+000 8.433807e+000 8.313079e+000 8.189356e+000 8.850091e+000 8.605337e+000 8.608303e+000 8.620684e+000 8.518041e+000 8.416005e+000 8.245017e+000 8.123733e+000 8.660249e+000 8.592175e+000 8.542178e+000 8.468703e+000 8.371904e+000 8.266319e+000 8.169399e+000 8.071836e+000 8.321158e+000 8.651024e+000 8.531047e+000 8.425379e+000 8.356286e+000 8.270658e+000 8.215884e+000 8.099051e+000 8.544420e+000 8.513834e+000 8.421188e+000 8.455989e+000 8.391011e+000 8.338417e+000 8.252167e+000 8.118516e+000 8.572929e+000 8.346149e+000 8.332705e+000 8.376281e+000 8.321935e+000 8.292341e+000 8.174156e+000 8.097444e+000 8.558693e+000 8.337488e+000 8.348632e+000 8.335730e+000 8.270620e+000 8.234529e+000 8.114197e+000 8.074064e+000 8.265871e+000 8.395962e+000 8.363640e+000 8.307265e+000 8.249021e+000 8.189369e+000 8.140741e+000 8.061128e+000 8.051291e+000 8.382734e+000 8.331606e+000 8.251375e+000 8.205083e+000 8.141458e+000 8.130733e+000 8.044416e+000 7.975301e+000 8.307781e+000 8.275794e+000 8.206406e+000 8.173060e+000 8.119729e+000 8.113503e+000 8.052980e+000 8.055203e+000 8.217196e+000 8.226244e+000 8.195557e+000 8.176191e+000 8.133470e+000 8.113867e+000 8.064366e+000 8.051411e+000 8.154136e+000 8.154482e+000 8.155416e+000 8.137041e+000 8.089330e+000 8.056758e+000 8.011465e+000 8.050220e+000 8.015544e+000 8.000741e+000 8.007534e+000 7.986287e+000 7.962587e+000 7.944646e+000 7.950700e+000
<VARIANCE> 320
 1.000000e-002 1.000000e-002 1.000000e-002 1.000000e-002 1.000000e-002 1.000000e-002 1.000000e-002 1.000000e-002 1.000000e-002 1.000000e-002 1.000000e-002 1.000000e-002 1.000000e-002 1.000000e-002 1.000000e-002 1.000000e-002 1.000000e-002 1.000000e-002 1.000000e-002 1.000000e-002 1.000000e-002 1.000000e-002 1.000000e-002 1.000000e-002 1.000000e-002 1.000000e-002 1.000000e-002 1.000000e-002 1.000000e-002 1.000000e-002 1.000000e-002 1.000000e-002 1.000000e-002 1.000000e-002 1.000000e-002 1.000000e-002 1.000000e-002 1.000000e-002 1.000000e-002 1.000000e-002 1.000000e-002 1.000000e-002 1.000000e-002 1.000000e-002 1.000000e-002 1.000000e-002 1.000000e-002 1.000000e-002 1.000000e-002 1.000000e-002 1.000000e-002 1.000000e-002 1.000000e-002 1.000000e-002 1.000000e-002 1.000000e-002 1.000000e-002 1.000000e-002 1.000000e-002 1.000000e-002 1.000000e-002 1.000000e-002 1.000000e-002 1.000000e-002 1.000000e-002 1.000000e-002 1.000000e-002 1.000000e-002 1.000000e-002 1.000000e-002 1.000000e-002 1.000000e-002 1.000000e-002 1.000000e-002 1.000000e-002 1.000000e-002 1.000000e-002 1.000000e-002 1.000000e-002 1.000000e-002 1.000000e-002 1.000000e-002 1.000000e-002 1.000000e-002 1.000000e-002 1.000000e-002 1.000000e-002 1.000000e-002 1.000000e-002 1.000000e-002 1.000000e-002 1.000000e-002 1.000000e-002 1.000000e-002 1.000000e-002 1.000000e-002 1.000000e-002 1.000000e-002 1.000000e-002 1.000000e-002 1.000000e-002 1.000000e-002 1.000000e-002 1.000000e-002 1.000000e-002 1.000000e-002 1.000000e-002 1.000000e-002 1.000000e-002 1.000000e-002 1.000000e-002 1.000000e-002 1.000000e-002 1.000000e-002 1.000000e-002 1.000000e-002 1.000000e-002 1.000000e-002 1.000000e-002 1.000000e-002 1.000000e-002 1.000000e-002 1.000000e-002 1.000000e-002 1.000000e-002 1.000000e-002 1.000000e-002 1.000000e-002 1.000000e-002 1.000000e-002 1.000000e-002 1.000000e-002 1.000000e-002 1.000000e-002 1.000000e-002 1.000000e-002 1.000000e-002 1.000000e-002 1.000000e-002 1.000000e-002 1.000000e-002 1.000000e-002 1.000000e-002 1.000000e-002 1.000000e-002 1.000000e-002 1.000000e-002 1.000000e-002 1.000000e-002 1.000000e-002 1.000000e-002 1.000000e-002 1.000000e-002 1.000000e-002 1.000000e-002 1.000000e-002 1.000000e-002 1.000000e-002 1.000000e-002 1.000000e-002 1.000000e-002 1.000000e-002 1.000000e-002 1.000000e-002 1.000000e-002 1.000000e-002 1.000000e-002 1.000000e-002 1.000000e-002 1.000000e-002 1.000000e-002 1.000000e-002 1.000000e-002 1.000000e-002 1.000000e-002 1.000000e-002 1.000000e-002 1.000000e-002 1.000000e-002 1.000000e-002 1.000000e-002 1.000000e-002 1.000000e-002 1.000000e-002 1.000000e-002 1.000000e-002 1.000000e-002 1.000000e-002 1.000000e-002 1.000000e-002 1.000000e-002 1.000000e-002 1.000000e-002 1.000000e-002 1.000000e-002 1.000000e-002 1.000000e-002 1.000000e-002 1.000000e-002 1.000000e-002 1.000000e-002 1.000000e-002 1.000000e-002 1.000000e-002 1.000000e-002 1.000000e-002 1.000000e-002 1.000000e-002 1.000000e-002 1.000000e-002 1.000000e-002 1.000000e-002 1.000000e-002 1.000000e-002 1.000000e-002 1.000000e-002 1.000000e-002 1.000000e-002 1.000000e-002 1.000000e-002 1.000000e-002 1.000000e-002 1.000000e-002 1.000000e-002 1.000000e-002 1.000000e-002 1.000000e-002 1.000000e-002 1.000000e-002 1.000000e-002 1.000000e-002 1.000000e-002 1.000000e-002 1.000000e-002 1.000000e-002 1.000000e-002 1.000000e-002 1.000000e-002 1.000000e-002 1.000000e-002 1.000000e-002 1.000000e-002 1.000000e-002 1.000000e-002 1.000000e-002 1.000000e-002 1.000000e-002 1.000000e-002 1.000000e-002 1.000000e-002 1.000000e-002 1.000000e-002 1.000000e-002 1.000000e-002 1.000000e-002 1.000000e-002 1.000000e-002 1.000000e-002 1.000000e-002 1.000000e-002 1.000000e-002 1.000000e-002 1.000000e-002 1.000000e-002 1.000000e-002 1.000000e-002 1.000000e-002 1.000000e-002 1.000000e-002 1.000000e-002 1.000000e-002 1.000000e-002 1.000000e-002 1.000000e-002 1.000000e-002 1.000000e-002 1.000000e-002 1.000000e-002 1.000000e-002 1.000000e-002 1.000000e-002 1.000000e-002 1.000000e-002 1.000000e-002 1.000000e-002 1.000000e-002 1.000000e-002 1.000000e-002 1.000000e-002 1.000000e-002 1.000000e-002 1.000000e-002 1.000000e-002 1.000000e-002 1.000000e-002 1.000000e-002 1.000000e-002 1.000000e-002 1.000000e-002 1.000000e-002 1.000000e-002 1.000000e-002 1.000000e-002 1.000000e-002 1.000000e-002 1.000000e-002 1.000000e-002 1.000000e-002 1.000000e-002 1.000000e-002 1.000000e-002 1.000000e-002 1.000000e-002 1.000000e-002 1.000000e-002 1.000000e-002 1.000000e-002 1.000000e-002 1.000000e-002 1.000000e-002
<GCONST> -8.855338e+002
<TRANSP> 3
 0.000000e+000 1.000000e+000 0.000000e+000
 0.000000e+000 0.000000e+000 1.000000e+000
 0.000000e+000 0.000000e+000 0.000000e+000
<ENDHMM>
~h "h5"
<BEGINHMM>
<NUMSTATES> 3
<STATE> 2
<MEAN> 320
 2.543598e+001 8.590536e+000 9.514704e+000 9.266550e+000 8.367484e+000 8.288584e+000 8.647996e+000 8.731564e+000 7.943670e+000 8.667073e+000 9.377518e+000 9.022470e+000 8.404098e+000 8.385036e+000 8.649120e+000 8.630421e+000 8.179160e+000 8.921700e+000 9.172674e+000 8.785019e+000 8.540867e+000 8.606252e+000 8.584658e+000 8.406636e+000 8.643267e+000 9.344960e+000 9.070349e+000 8.619499e+000 8.738730e+000 8.844577e+000 8.488613e+000 8.173379e+000 9.300737e+000 9.732978e+000 8.883449e+000 8.617395e+000 9.010633e+000 9.098338e+000 8.459526e+000 7.979549e+000 9.597975e+000 9.688043e+000 8.843798e+000 8.576119e+000 9.093068e+000 9.185262e+000 8.496012e+000 8.012996e+000 9.457110e+000 9.274459e+000 8.957669e+000 8.501108e+000 9.038168e+000 9.077594e+000 8.544610e+000 8.191486e+000 9.193002e+000 8.861089e+000 9.197834e+000 8.549434e+000 8.978465e+000 8.913364e+000 8.581426e+000 8.365698e+000 8.956482e+000 8.742910e+000 9.365379e+000 8.654689e+000 8.952286e+000 8.874849e+000 8.655910e+000 8.475083e+000 9.052169e+000 8.993916e+000 9.236684e+000 8.728825e+000 8.984104e+000 8.930063e+000 8.690222e+000 8.445829e+000 9.113186e+000 9.181148e+000 9.089821e+000 8.818924e+000 8.993817e+000 8.915350e+000 8.682307e+000 8.417756e+000 9.261518e+000 9.123334e+000 9.166383e+000 8.922227e+000 9.020233e+000 8.864414e+000 8.621411e+000 8.343534e+000 9.368347e+000 9.163947e+000 9.254583e+000 9.013815e+000 9.015788e+000 8.802740e+000 8.537333e+000 8.270262e+000 9.374489e+000 9.463734e+000 9.181560e+000 9.146777e+000 8.968907e+000 8.729676e+000 8.461048e+000 8.217221e+000 9.377470e+000 9.336281e+000 9.130770e+000 9.163928e+000 8.912882e+000 8.658413e+000 8.448487e+000 8.205999e+000 9.438191e+000 9.157434e+000 9.212358e+000 9.130728e+000 8.870452e+000 8.639894e+000 8.375677e+000 8.148899e+000 9.239231e+000 9.393582e+000 9.056932e+000 9.069816e+000 8.830688e+000 8.612046e+000 8.372421e+000 8.145246e+000 9.358539e+000 9.108369e+000 9.047722e+000 8.959632e+000 8.787812e+000 8.586587e+000 8.380145e+000 8.165677e+000 9.131042e+000 9.177195e+000 8.991514e+000 8.905100e+000 8.753684e+000 8.587463e+000 8.385130e+000 8.187910e+000 9.119622e+000 9.065585e+000 8.924209e+000 8.829409e+000 8.743393e+000 8.590093e+000 8.453189e+000 8.238568e+000 8.981031e+000 8.982415e+000 8.891481e+000 8.802967e+000 8.721725e+000 8.598897e+000 8.431757e+000 8.239594e+000 8.959624e+000 8.933799e+000 8.882458e+000 8.768033e+000 8.710711e+000 8.572017e+000 8.433765e+000 8.233955e+000 8.827249e+000 8.914878e+000 8.853456e+000 8.758673e+000 8.667221e+000 8.526600e+000 8.351604e+000 8.182961e+000 8.991721e+000 8.827744e+000 8.858847e+000 8.739076e+000 8.626540e+000 8.465512e+000 8.302912e+000 8.143395e+000 8.675367e+000 8.931316e+000 8.797930e+000 8.711479e+000 8.583710e+000 8.429209e+000 8.306649e+000 8.140563e+000 8.968616e+000 8.721075e+000 8.733736e+000 8.677885e+000 8.550774e+000 8.443361e+000 8.288944e+000 8.137645e+000 8.658816e+000 8.752436e+000 8.687387e+000 8.596148e+000 8.518044e+000 8.425359e+000 8.347837e+000 8.181922e+000 8.577769e+000 8.689669e+000 8.639927e+000 8.578347e+000 8.510578e+000 8.436814e+000 8.328618e+000 8.180713e+000 8.818733e+000 8.586588e+000 8.603092e+000 8.586205e+000 8.514101e+000 8.420321e+000 8.251845e+000 8.120488e+000 8.627197e+000 8.570326e+000 8.546041e+000 8.448312e+000 8.374036e+000 8.265137e+000 8.164092e+000 8.069425e+000 8.301965e+000 8.638173e+000 8.544353e+000 8.424573e+000 8.369309e+000 8.265686e+000 8.205503e+000 8.094074e+000 8.551172e+000 8.516570e+000 8.447676e+000 8.473135e+000 8.412156e+000 8.335781e+000 8.240275e+000 8.109248e+000 8.589159e+000 8.354092e+000 8.357276e+000 8.399812e+000 8.337686e+000 8.284714e+000 8.161753e+000 8.086892e+000 8.580972e+000 8.346867e+000 8.354252e+000 8.354858e+000 8.278639e+000 8.217309e+000 8.101317e+000 8.067347e+000 8.274118e+000 8.401355e+000 8.357373e+000 8.306561e+000 8.255600e+000 8.174022e+000 8.132552e+000 8.055877e+000 8.038445e+000 8.379971e+000 8.322428e+000 8.228924e+000 8.205361e+000 8.132737e+000 8.131823e+000 8.040741e+000 7.951101e+000 8.296693e+000 8.264736e+000 8.170350e+000 8.158886e+000 8.114193e+000 8.120183e+000 8.055262e+000 8.027372e+000 8.201101e+000 8.214097e+000 8.154232e+000 8.150138e+000 8.128587e+000 8.120767e+000 8.073034e+000 8.024013e+000 8.135384e+000 8.146310e+000 8.116266e+000 8.108576e+000 8.080650e+000 8.059669e+000 8.024978e+000 8.028719e+000 7.998065e+000 7.996934e+000 7.981706e+000 7.965235e+000 7.951322e+000 7.943895e+000 7.964012e+000
<VARIANCE> 320
 1.000000e-002 1.000000e-002 1.000000e-002 1.000000e-002 1.000000e-002 1.000000e-002 1.000000e-002 1.000000e-002 1.000000e-002 1.000000e-002 1.000000e-002 1.000000e-002 1.000000e-002 1.000000e-002 1.000000e-002 1.000000e-002 1.000000e-002 1.000000e-002 1.000000e-002 1.000000e-002 1.000000e-002 1.000000e-002 1.000000e-002 1.000000e-002 1.000000e-002 1.000000e-002 1.000000e-002 1.000000e-002 1.000000e-002 1.000000e-002 1.000000e-002 1.000000e-002 1.000000e-002 1.000000e-002 1.000000e-002 1.000000e-002 1.000000e-002 1.000000e-002 1.000000e-002 1.000000e-002 1.000000e-002 1.000000e-002 1.000000e-002 1.000000e-002 1.000000e-002 1.000000e-002 1.000000e-002 1.000000e-002 1.000000e-002 1.000000e-002 1.000000e-002 1.000000e-002 1.000000e-002 1.000000e-002 1.000000e-002 1.000000e-002 1.000000e-002 1.000000e-002 1.000000e-002 1.000000e-002 1.000000e-002 1.000000e-002 1.000000e-002 1.000000e-002 1.000000e-002 1.000000e-002 1.000000e-002 1.000000e-002 1.000000e-002 1.000000e-002 1.000000e-002 1.000000e-002 1.000000e-002 1.000000e-002 1.000000e-002 1.000000e-002 1.000000e-002 1.000000e-002 1.000000e-002 1.000000e-002 1.000000e-002 1.000000e-002 1.000000e-002 1.000000e-002 1.000000e-002 1.000000e-002 1.000000e-002 1.000000e-002 1.000000e-002 1.000000e-002 1.000000e-002 1.000000e-002 1.000000e-002 1.000000e-002 1.000000e-002 1.000000e-002 1.000000e-002 1.000000e-002 1.000000e-002 1.000000e-002 1.000000e-002 1.000000e-002 1.000000e-002 1.000000e-002 1.000000e-002 1.000000e-002 1.000000e-002 1.000000e-002 1.000000e-002 1.000000e-002 1.000000e-002 1.000000e-002 1.000000e-002 1.000000e-002 1.000000e-002 1.000000e-002 1.000000e-002 1.000000e-002 1.000000e-002 1.000000e-002 1.000000e-002 1.000000e-002 1.000000e-002 1.000000e-002 1.000000e-002 1.000000e-002 1.000000e-002 1.000000e-002 1.000000e-002 1.000000e-002 1.000000e-002 1.000000e-002 1.000000e-002 1.000000e-002 1.000000e-002 1.000000e-002 1.000000e-002 1.000000e-002 1.000000e-002 1.000000e-002 1.000000e-002 1.000000e-002 1.000000e-002 1.000000e-002 1.000000e-002 1.000000e-002 1.000000e-002 1.000000e-002 1.000000e-002 1.000000e-002 1.000000e-002 1.000000e-002 1.000000e-002 1.000000e-002 1.000000e-002 1.000000e-002 1.000000e-002 1.000000e-002 1.000000e-002 1.000000e-002 1.000000e-002 1.000000e-002 1.000000e-002 1.000000e-002 1.000000e-002 1.000000e-002 1.000000e-002 1.000000e-002 1.000000e-002 1.000000e-002 1.000000e-002 1.000000e-002 1.000000e-002 1.000000e-002 1.000000e-002 1.000000e-002 1.000000e-002 1.000000e-002 1.000000e-002 1.000000e-002 1.000000e-002 1.000000e-002 1.000000e-002 1.000000e-002 1.000000e-002 1.000000e-002 1.000000e-002 1.000000e-002 1.000000e-002 1.000000e-002 1.000000e-002 1.000000e-002 1.000000e-002 1.000000e-002 1.000000e-002 1.000000e-002 1.000000e-002 1.000000e-002 1.000000e-002 1.000000e-002 1.000000e-002 1.000000e-002 1.000000e-002 1.000000e-002 1.000000e-002 1.000000e-002 1.000000e-002 1.000000e-002 1.000000e-002 1.000000e-002 1.000000e-002 1.000000e-002 1.000000e-002 1.000000e-002 1.000000e-002 1.000000e-002 1.000000e-002 1.000000e-002 1.000000e-002 1.000000e-002 1.000000e-002 1.000000e-002 1.000000e-002 1.000000e-002 1.000000e-002 1.000000e-002 1.000000e-002 1.000000e-002 1.000000e-002 1.000000e-002 1.000000e-002 1.000000e-002 1.000000e-002 1.000000e-002 1.000000e-002 1.000000e-002 1.000000e-002 1.000000e-002 1.000000e-002 1.000000e-002 1.000000e-002 1.000000e-002 1.000000e-002 1.000000e-002 1.000000e-002 1.000000e-002 1.000000e-002 1.000000e-002 1.000000e-002 1.000000e-002 1.000000e-002 1.000000e-002 1.000000e-002 1.000000e-002 1.000000e-002 1.000000e-002 1.000000e-002 1.000000e-002 1.000000e-002 1.000000e-002 1.000000e-002 1.000000e-002 1.000000e-002 1.000000e-002 1.000000e-002 1.000000e-002 1.000000e-002 1.000000e-002 1.000000e-002 1.000000e-002 1.000000e-002 1.000000e-002 1.000000e-002 1.000000e-002 1.000000e-002 1.000000e-002 1.000000e-002 1.000000e-002 1.000000e-002 1.000000e-002 1.000000e-002 1.000000e-002 1.000000e-002 1.000000e-002 1.000000e-002 1.000000e-002 1.000000e-002 1.000000e-002 1.000000e-002 1.000000e-002 1.000000e-002 1.000000e-002 1.000000e-002 1.000000e-002 1.000000e-002 1.000000e-002 1.000000e-002 1.000000e-002 1.000000e-002 1.000000e-002 1.000000e-002 1.000000e-002 1.000000e-002 1.000000e-002 1.000000e-002 1.000000e-002 1.000000e-002 1.000000e-002 1.000000e-002 1.000000e-002 1.000000e-002 1.000000e-002 1.000000e-002 1.000000e-002 1.000000e-002 1.000000e-002 1.000000e-002 1.000000e-002 1.000000e-002 1.000000e-002
<GCONST> -8.855338e+002
<TRANSP> 3
 0.000000e+000 1.000000e+000 0.000000e+000
 0.000000e+000 0.000000e+000 1.000000e+000
 0.000000e+000 0.000000e+000 0.000000e+000
<ENDHMM>
~h "h6"
<BEGINHMM>
<NUMSTATES> 3
<STATE> 2
<MEAN> 320
 2.514730e+001 9.076102e+000 9.426824e+000 8.434598e+000 9.258655e+000 8.754734e+000 7.976066e+000 8.703375e+000 7.609415e+000 9.111107e+000 9.286902e+000 8.434810e+000 9.146448e+000 8.538984e+000 8.103523e+000 8.658399e+000 8.029230e+000 9.265944e+000 9.165278e+000 8.647843e+000 8.960421e+000 8.368161e+000 8.337167e+000 8.504951e+000 8.723194e+000 9.548150e+000 9.157986e+000 8.932201e+000 8.781054e+000 8.276241e+000 8.642728e+000 8.320569e+000 9.617132e+000 9.690494e+000 8.972558e+000 9.240706e+000 8.647262e+000 8.330148e+000 8.856812e+000 8.167330e+000 9.880039e+000 9.551052e+000 8.862776e+000 9.265335e+000 8.621922e+000 8.336672e+000 8.978153e+000 8.216640e+000 9.638523e+000 9.204587e+000 8.771285e+000 9.124092e+000 8.832695e+000 8.377936e+000 8.941315e+000 8.360197e+000 9.084450e+000 8.762430e+000 8.818306e+000 8.801134e+000 8.913431e+000 8.346617e+000 8.799709e+000 8.466102e+000 8.703886e+000 8.714476e+000 8.943872e+000 8.684910e+000 8.992326e+000 8.408297e+000 8.716193e+000 8.545423e+000 8.743736e+000 8.908238e+000 8.991402e+000 8.867651e+000 9.006875e+000 8.476590e+000 8.726522e+000 8.509771e+000 8.914282e+000 9.059161e+000 9.011765e+000 9.065138e+000 8.948159e+000 8.533478e+000 8.684592e+000 8.444059e+000 9.173684e+000 9.049132e+000 9.146470e+000 9.121062e+000 8.981232e+000 8.625188e+000 8.662818e+000 8.348771e+000 9.405795e+000 9.142562e+000 9.275902e+000 9.174999e+000 8.988124e+000 8.734663e+000 8.599012e+000 8.254725e+000 9.480556e+000 9.492391e+000 9.207479e+000 9.201864e+000 8.968041e+000 8.818604e+000 8.522539e+000 8.188411e+000 9.457016e+000 9.368400e+000 9.142675e+000 9.120766e+000 8.931949e+000 8.814028e+000 8.484467e+000 8.186801e+000 9.454939e+000 9.186634e+000 9.231752e+000 9.043957e+000 8.888239e+000 8.775393e+000 8.423781e+000 8.140320e+000 9.259779e+000 9.401804e+000 9.087851e+000 9.040254e+000 8.811177e+000 8.699390e+000 8.421224e+000 8.142501e+000 9.359814e+000 9.118225e+000 9.082982e+000 8.963485e+000 8.772476e+000 8.628405e+000 8.414241e+000 8.164121e+000 9.132421e+000 9.183718e+000 9.027504e+000 8.927628e+000 8.731008e+000 8.610115e+000 8.407452e+000 8.185444e+000 9.111483e+000 9.062380e+000 8.956674e+000 8.868587e+000 8.719794e+000 8.588484e+000 8.459759e+000 8.245111e+000 8.967863e+000 8.971595e+000 8.909441e+000 8.838415e+000 8.703814e+000 8.590326e+000 8.435418e+000 8.246956e+000 8.962732e+000 8.928881e+000 8.884474e+000 8.800239e+000 8.698169e+000 8.556937e+000 8.438431e+000 8.242271e+000 8.859335e+000 8.922812e+000 8.842909e+000 8.782122e+000 8.671679e+000 8.528344e+000 8.352433e+000 8.182466e+000 9.045082e+000 8.839719e+000 8.836804e+000 8.740319e+000 8.636744e+000 8.483675e+000 8.301304e+000 8.139282e+000 8.748706e+000 8.946289e+000 8.775805e+000 8.707127e+000 8.594940e+000 8.451188e+000 8.299011e+000 8.135350e+000 9.027601e+000 8.733558e+000 8.720882e+000 8.668003e+000 8.556475e+000 8.454258e+000 8.273864e+000 8.137888e+000 8.699249e+000 8.754930e+000 8.682121e+000 8.592667e+000 8.514478e+000 8.415416e+000 8.331863e+000 8.187690e+000 8.589873e+000 8.691051e+000 8.645856e+000 8.581120e+000 8.505651e+000 8.418188e+000 8.319345e+000 8.187850e+000 8.815458e+000 8.590951e+000 8.614580e+000 8.591694e+000 8.506328e+000 8.406989e+000 8.252919e+000 8.123359e+000 8.612646e+000 8.579903e+000 8.563121e+000 8.450832e+000 8.369246e+000 8.266390e+000 8.174416e+000 8.069204e+000 8.277172e+000 8.643690e+000 8.560254e+000 8.423270e+000 8.361917e+000 8.277428e+000 8.219710e+000 8.095116e+000 8.520857e+000 8.513235e+000 8.452846e+000 8.463731e+000 8.405600e+000 8.348715e+000 8.256771e+000 8.111139e+000 8.569201e+000 8.351542e+000 8.355828e+000 8.387692e+000 8.340952e+000 8.299657e+000 8.176407e+000 8.087451e+000 8.569374e+000 8.344101e+000 8.356759e+000 8.347379e+000 8.288523e+000 8.237697e+000 8.112471e+000 8.063980e+000 8.277040e+000 8.398657e+000 8.361359e+000 8.310578e+000 8.262347e+000 8.187700e+000 8.139032e+000 8.051404e+000 8.056610e+000 8.381687e+000 8.323133e+000 8.241399e+000 8.209690e+000 8.134645e+000 8.133913e+000 8.037442e+000 7.976564e+000 8.306642e+000 8.264739e+000 8.185114e+000 8.168364e+000 8.110801e+000 8.120413e+000 8.049525e+000 8.052882e+000 8.217036e+000 8.214561e+000 8.166922e+000 8.163754e+000 8.124749e+000 8.122854e+000 8.063287e+000 8.045506e+000 8.152038e+000 8.146319e+000 8.127995e+000 8.122005e+000 8.081244e+000 8.065844e+000 8.012727e+000 8.043652e+000 8.011966e+000 7.997945e+000 7.991245e+000 7.976349e+000 7.956612e+000 7.950146e+000 7.953317e+000
<VARIANCE> 320
 1.000000e-002 1.000000e-002 1.000000e-002 1.000000e-002 1.000000e-002 1.000000e-002 1.000000e-002 1.000000e-002 1.000000e-002 1.000000e-002 1.000000e-002 1.000000e-002 1.000000e-002 1.000000e-002 1.000000e-002 1.000000e-002 1.000000e-002 1.000000e-002 1.000000e-002 1.000000e-002 1.000000e-002 1.000000e-002 1.000000e-002 1.000000e-002 1.000000e-002 1.000000e-002 1.000000e-002 1.000000e-002 1.000000e-002 1.000000e-002 1.000000e-002 1.000000e-002 1.000000e-002 1.000000e-002 1.000000e-002 1.000000e-002 1.000000e-002 1.000000e-002 1.000000e-002 1.000000e-002 1.000000e-002 1.000000e-002 1.000000e-002 1.000000e-002 1.000000e-002 1.000000e-002 1.000000e-002 1.000000e-002 1.000000e-002 1.000000e-002 1.000000e-002 1.000000e-002 1.000000e-002 1.000000e-002 1.000000e-002 1.000000e-002 1.000000e-002 1.000000e-002 1.000000e-002 1.000000e-002 1.000000e-002 1.000000e-002 1.000000e-002 1.000000e-002 1.000000e-002 1.000000e-002 1.000000e-002 1.000000e-002 1.000000e-002 1.000000e-002 1.000000e-002 1.000000e-002 1.000000e-002 1.000000e-002 1.000000e-002 1.000000e-002 1.000000e-002 1.000000e-002 1.000000e-002 1.000000e-002 1.000000e-002 1.000000e-002 1.000000e-002 1.000000e-002 1.000000e-002 1.000000e-002 1.000000e-002 1.000000e-002 1.000000e-002 1.000000e-002 1.000000e-002 1.000000e-002 1.000000e-002 1.000000e-002 1.000000e-002 1.000000e-002 1.000000e-002 1.000000e-002 1.000000e-002 1.000000e-002 1.000000e-002 1.000000e-002 1.000000e-002 1.000000e-002 1.000000e-002 1.000000e-002 1.000000e-002 1.000000e-002 1.000000e-002 1.000000e-002 1.000000e-002 1.000000e-002 1.000000e-002 1.000000e-002 1.000000e-002 1.000000e-002 1.000000e-002 1.000000e-002 1.000000e-002 1.000000e-002 1.000000e-002 1.000000e-002 1.000000e-002 1.000000e-002 1.000000e-002 1.000000e-002 1.000000e-002 1.000000e-002 1.000000e-002 1.000000e-002 1.000000e-002 1.000000e-002 1.000000e-002 1.000000e-002 1.000000e-002 1.000000e-002 1.000000e-002 1.000000e-002 1.000000e-002 1.000000e-002 1.000000e-002 1.000000e-002 1.000000e-002 1.000000e-002 1.000000e-002 1.000000e-002 1.000000e-002 1.000000e-002 1.000000e-002 1.000000e-002 1.000000e-002 1.000000e-002 1.000000e-002 1.000000e-002 1.000000e-002 1.000000e-002 1.000000e-002 1.000000e-002 1.000000e-002 1.000000e-002 1.000000e-002 1.000000e-002 1.000000e-002 1.000000e-002 1.000000e-002 1.000000e-002 1.000000e-002 1.000000e-002 1.000000e-002 1.000000e-002 1.000000e-002 1.000000e-002 1.000000e-002 1.000000e-002 1.000000e-002 1.000000e-002 1.000000e-002 1.000000e-002 1.000000e-002 1.000000e-002 1.000000e-002 1.000000e-002 1.000000e-002 1.000000e-002 1.000000e-002 1.000000e-002 1.000000e-002 1.000000e-002 1.000000e-002 1.000000e-002 1.000000e-002 1.000000e-002 1.000000e-002 1.000000e-002 1.000000e-002 1.000000e-002 1.000000e-002 1.000000e-002 1.000000e-002 1.000000e-002 1.000000e-002 1.000000e-002 1.000000e-002 1.000000e-002 1.000000e-002 1.000000e-002 1.000000e-002 1.000000e-002 1.000000e-002 1.000000e-002 1.000000e-002 1.000000e-002 1.000000e-002 1.000000e-002 1.000000e-002 1.000000e-002 1.000000e-002 1.000000e-002 1.000000e-002 1.000000e-002 1.000000e-002 1.000000e-002 1.000000e-002 1.000000e-002 1.000000e-002 1.000000e-002 1.000000e-002 1.000000e-002 1.000000e-002 1.000000e-002 1.000000e-002 1.000000e-002 1.000000e-002 1.000000e-002 1.000000e-002 1.000000e-002 1.000000e-002 1.000000e-002 1.000000e-002 1.000000e-002 1.000000e-002 1.000000e-002 1.000000e-002 1.000000e-002 1.000000e-002 1.000000e-002 1.000000e-002 1.000000e-002 1.000000e-002 1.000000e-002 1.000000e-002 1.000000e-002 1.000000e-002 1.000000e-002 1.000000e-002 1.000000e-002 1.000000e-002 1.000000e-002 1.000000e-002 1.000000e-002 1.000000e-002 1.000000e-002 1.000000e-002 1.000000e-002 1.000000e-002 1.000000e-002 1.000000e-002 1.000000e-002 1.000000e-002 1.000000e-002 1.000000e-002 1.000000e-002 1.000000e-002 1.000000e-002 1.000000e-002 1.000000e-002 1.000000e-002 1.000000e-002 1.000000e-002 1.000000e-002 1.000000e-002 1.000000e-002 1.000000e-002 1.000000e-002 1.000000e-002 1.000000e-002 1.000000e-002 1.000000e-002 1.000000e-002 1.000000e-002 1.000000e-002 1.000000e-002 1.000000e-002 1.000000e-002 1.000000e-002 1.000000e-002 1.000000e-002 1.000000e-002 1.000000e-002 1.000000e-002 1.000000e-002 1.000000e-002 1.000000e-002 1.000000e-002 1.000000e-002 1.000000e-002 1.000000e-002 1.000000e-002 1.000000e-002 1.000000e-002 1.000000e-002 1.000000e-002 1.000000e-002 1.000000e-002 1.000000e-002 1.000000e-002 1.000000e-002 1.000000e-002 1.000000e-002 1.000000e-002
<GCONST> -8.855338e+002
<TRANSP> 3
 0.000000e+000 1.000000e+000 0.000000e+000
 0.000000e+000 0.000000e+000 1.000000e+000
 0.000000e+000 0.000000e+000 0.000000e+000
<ENDHMM>
~h "h7"
<BEGINHMM>
<NUMSTATES> 3
<STATE> 2
<MEAN> 320
 2.595559e+001 8.662618e+000 8.620169e+000 8.673772e+000 8.582852e+000 8.529319e+000 8.323370e+000 8.191027e+000 8.491181e+000 8.806587e+000 8.687712e+000 8.741261e+000 8.649762e+000 8.551878e+000 8.364061e+000 8.177486e+000 8.460840e+000 9.137016e+000 8.893408e+000 8.938763e+000 8.794153e+000 8.659684e+000 8.432326e+000 8.204002e+000 8.660425e+000 9.599940e+000 9.228146e+000 9.211644e+000 8.970179e+000 8.768018e+000 8.489045e+000 8.222093e+000 8.975412e+000 9.942419e+000 9.423642e+000 9.419379e+000 9.144352e+000 8.903707e+000 8.594419e+000 8.279295e+000 9.107619e+000 9.843041e+000 9.449347e+000 9.460430e+000 9.203887e+000 8.954541e+000 8.658298e+000 8.326610e+000 8.881615e+000 9.379443e+000 9.408696e+000 9.334508e+000 9.138682e+000 8.889145e+000 8.646105e+000 8.327106e+000 8.678562e+000 8.901716e+000 9.371777e+000 9.153256e+000 9.023603e+000 8.777950e+000 8.582394e+000 8.289767e+000 8.574858e+000 8.766041e+000 9.297131e+000 9.052108e+000 8.969788e+000 8.773753e+000 8.586007e+000 8.308487e+000 8.592343e+000 8.994015e+000 9.197639e+000 9.075941e+000 8.982946e+000 8.839380e+000 8.636957e+000 8.356317e+000 8.726725e+000 9.189028e+000 9.114499e+000 9.107127e+000 8.985902e+000 8.854292e+000 8.651296e+000 8.375612e+000 9.031013e+000 9.140437e+000 9.196821e+000 9.112572e+000 9.009268e+000 8.830624e+000 8.630754e+000 8.353483e+000 9.277646e+000 9.151350e+000 9.292733e+000 9.096039e+000 8.992912e+000 8.793674e+000 8.566715e+000 8.303021e+000 9.382473e+000 9.419374e+000 9.196031e+000 9.109574e+000 8.935240e+000 8.737919e+000 8.495237e+000 8.254095e+000 9.423887e+000 9.273098e+000 9.115098e+000 9.051361e+000 8.876041e+000 8.662172e+000 8.458296e+000 8.221844e+000 9.479043e+000 9.103349e+000 9.185324e+000 9.014656e+000 8.840178e+000 8.636172e+000 8.387823e+000 8.168617e+000 9.227163e+000 9.338516e+000 9.074423e+000 8.998431e+000 8.807764e+000 8.605300e+000 8.391251e+000 8.169239e+000 9.341479e+000 9.079674e+000 9.073788e+000 8.932003e+000 8.777010e+000 8.580947e+000 8.392731e+000 8.177675e+000 9.114993e+000 9.160872e+000 9.016283e+000 8.897808e+000 8.743885e+000 8.588286e+000 8.397038e+000 8.198392e+000 9.102926e+000 9.061218e+000 8.947197e+000 8.841803e+000 8.737960e+000 8.590067e+000 8.455616e+000 8.243159e+000 8.963855e+000 8.984756e+000 8.903656e+000 8.819734e+000 8.715904e+000 8.597537e+000 8.428713e+000 8.236877e+000 8.945821e+000 8.939194e+000 8.882980e+000 8.783521e+000 8.703191e+000 8.568316e+000 8.430897e+000 8.231495e+000 8.819991e+000 8.913539e+000 8.835611e+000 8.757963e+000 8.655965e+000 8.524136e+000 8.347192e+000 8.177162e+000 8.998891e+000 8.817194e+000 8.825267e+000 8.716585e+000 8.612636e+000 8.465034e+000 8.300440e+000 8.140437e+000 8.681771e+000 8.911185e+000 8.768821e+000 8.685158e+000 8.573212e+000 8.428951e+000 8.302376e+000 8.136818e+000 8.985162e+000 8.706539e+000 8.711874e+000 8.659505e+000 8.549227e+000 8.441499e+000 8.280252e+000 8.132671e+000 8.664463e+000 8.743566e+000 8.681813e+000 8.594613e+000 8.521777e+000 8.419525e+000 8.337077e+000 8.176238e+000 8.576738e+000 8.690733e+000 8.643233e+000 8.589954e+000 8.517913e+000 8.429120e+000 8.319158e+000 8.176960e+000 8.813830e+000 8.588409e+000 8.611622e+000 8.600779e+000 8.517966e+000 8.414137e+000 8.247502e+000 8.120040e+000 8.621883e+000 8.568297e+000 8.553271e+000 8.455834e+000 8.372749e+000 8.260427e+000 8.165257e+000 8.072167e+000 8.294901e+000 8.630889e+000 8.552415e+000 8.424708e+000 8.363223e+000 8.262548e+000 8.208880e+000 8.097779e+000 8.542389e+000 8.507400e+000 8.450520e+000 8.465544e+000 8.402954e+000 8.332297e+000 8.245046e+000 8.113004e+000 8.579697e+000 8.340343e+000 8.349386e+000 8.380242e+000 8.325505e+000 8.280240e+000 8.167226e+000 8.091520e+000 8.572872e+000 8.326608e+000 8.343260e+000 8.325377e+000 8.263511e+000 8.213838e+000 8.107604e+000 8.072683e+000 8.266650e+000 8.378536e+000 8.355106e+000 8.281612e+000 8.241635e+000 8.169547e+000 8.135938e+000 8.059565e+000 8.032867e+000 8.362409e+000 8.325195e+000 8.213820e+000 8.195017e+000 8.126954e+000 8.131616e+000 8.042213e+000 7.948522e+000 8.288564e+000 8.267555e+000 8.163362e+000 8.152716e+000 8.109098e+000 8.119185e+000 8.055199e+000 8.027884e+000 8.202138e+000 8.217113e+000 8.154030e+000 8.148146e+000 8.124822e+000 8.120973e+000 8.072855e+000 8.022030e+000 8.138527e+000 8.147609e+000 8.118179e+000 8.106761e+000 8.078856e+000 8.062410e+000 8.025846e+000 8.023298e+000 7.998287e+000 7.993847e+000 7.980461e+000 7.962085e+000 7.951892e+000 7.948412e+000 7.965568e+000
<VARIANCE> 320
 1.000000e-002 1.000000e-002 1.000000e-002 1.000000e-002 1.000000e-002 1.000000e-002 1.000000e-002 1.000000e-002 1.000000e-002 1.000000e-002 1.000000e-002 1.000000e-002 1.000000e-002 1.000000e-002 1.000000e-002 1.000000e-002 1.000000e-002 1.000000e-002 1.000000e-002 1.000000e-002 1.000000e-002 1.000000e-002 1.000000e-002 1.000000e-002 1.000000e-002 1.000000e-002 1.000000e-002 1.000000e-002 1.000000e-002 1.000000e-002 1.000000e-002 1.000000e-002 1.000000e-002 1.000000e-002 1.000000e-002 1.000000e-002 1.000000e-002 1.000000e-002 1.000000e-002 1.000000e-002 1.000000e-002 1.000000e-002 1.000000e-002 1.000000e-002 1.000000e-002 1.000000e-002 1.000000e-002 1.000000e-002 1.000000e-002 1.000000e-002 1.000000e-002 1.000000e-002 1.000000e-002 1.000000e-002 1.000000e-002 1.000000e-002 1.000000e-002 1.000000e-002 1.000000e-002 1.000000e-002 1.000000e-002 1.000000e-002 1.000000e-002 1.000000e-002 1.000000e-002 1.000000e-002 1.000000e-002 1.000000e-002 1.000000e-002 1.000000e-002 1.000000e-002 1.000000e-002 1.000000e-002 1.000000e-002 1.000000e-002 1.000000e-002 1.000000e-002 1.000000e-002 1.000000e-002 1.000000e-002 1.000000e-002 1.000000e-002 1.000000e-002 1.000000e-002 1.000000e-002 1.000000e-002 1.000000e-002 1.000000e-002 1.000000e-002 1.000000e-002 1.000000e-002 1.000000e-002 1.000000e-002 1.000000e-002 1.000000e-002 1.000000e-002 1.000000e-002 1.000000e-002 1.000000e-002 1.000000e-002 1.000000e-002 1.000000e-002 1.000000e-002 1.000000e-002 1.000000e-002 1.000000e-002 1.000000e-002 1.000000e-002 1.000000e-002 1.000000e-002 1.000000e-002 1.000000e-002 1.000000e-002 1.000000e-002 1.000000e-002 1.000000e-002 1.000000e-002 1.000000e-002 1.000000e-002 1.000000e-002 1.000000e-002 1.000000e-002 1.000000e-002 1.000000e-002 1.000000e-002 1.000000e-002 1.000000e-002 1.000000e-002 1.000000e-002 1.000000e-002 1.000000e-002 1.000000e-002 1.000000e-002 1.000000e-002 1.000000e-002 1.000000e-002 1.000000e-002 1.000000e-002 1.000000e-002 1.000000e-002 1.000000e-002 1.000000e-002 1.000000e-002 1.000000e-002 1.000000e-002 1.000000e-002 1.000000e-002 1.000000e-002 1.000000e-002 1.000000e-002 1.000000e-002 1.000000e-002 1.000000e-002 1.000000e-002 1.000000e-002 1.000000e-002 1.000000e-002 1.000000e-002 1.000000e-002 1.000000e-002 1.000000e-002 1.000000e-002 1.000000e-002 1.000000e-002 1.000000e-002 1.000000e-002 1.000000e-002 1.000000e-002 1.000000e-002 1.000000e-002 1.000000e-002 1.000000e-002 1.000000e-002 1.000000e-002 1.000000e-002 1.000000e-002 1.000000e-002 1.000000e-002 1.000000e-002 1.000000e-002 1.000000e-002 1.000000e-002 1.000000e-002 1.000000e-002 1.000000e-002 1.000000e-002 1.000000e-002 1.000000e-002 1.000000e-002 1.000000e-002 1.000000e-002 1.000000e-002 1.000000e-002 1.000000e-002 1.000000e-002 1.000000e-002 1.000000e-002 1.000000e-002 1.000000e-002 1.000000e-002 1.000000e-002 1.000000e-002 1.000000e-002 1.000000e-002 1.000000e-002 1.000000e-002 1.000000e-002 1.000000e-002 1.000000e-002 1.000000e-002 1.000000e-002 1.000000e-002 1.000000e-002 1.000000e-002 1.000000e-002 1.000000e-002 1.000000e-002 1.000000e-002 1.000000e-002 1.000000e-002 1.000000e-002 1.000000e-002 1.000000e-002 1.000000e-002 1.000000e-002 1.000000e-002 1.000000e-002 1.000000e-002 1.000000e-002 1.000000e-002 1.000000e-002 1.000000e-002 1.000000e-002 1.000000e-002 1.000000e-002 1.000000e-002 1.000000e-002 1.000000e-002 1.000000e-002 1.000000e-002 1.000000e-002 1.000000e-002 1.000000e-002 1.000000e-002 1.000000e-002 1.000000e-002 1.000000e-002 1.000000e-002 1.000000e-002 1.000000e-002 1.000000e-002 1.000000e-002 1.000000e-002 1.000000e-002 1.000000e-002 1.000000e-002 1.000000e-002 1.000000e-002 1.000000e-002 1.000000e-002 1.000000e-002 1.000000e-002 1.000000e-002 1.000000e-002 1.000000e-002 1.000000e-002 1.000000e-002 1.000000e-002 1.000000e-002 1.000000e-002 1.000000e-002 1.000000e-002 1.000000e-002 1.000000e-002 1.000000e-002 1.000000e-002 1.000000e-002 1.000000e-002 1.000000e-002 1.000000e-002 1.000000e-002 1.000000e-002 1.000000e-002 1.000000e-002 1.000000e-002 1.000000e-002 1.000000e-002 1.000000e-002 1.000000e-002 1.000000e-002 1.000000e-002 1.000000e-002 1.000000e-002 1.000000e-002 1.000000e-002 1.000000e-002 1.000000e-002 1.000000e-002 1.000000e-002 1.000000e-002 1.000000e-002 1.000000e-002 1.000000e-002 1.000000e-002 1.000000e-002 1.000000e-002 1.000000e-002 1.000000e-002 1.000000e-002 1.000000e-002 1.000000e-002 1.000000e-002 1.000000e-002 1.000000e-002 1.000000e-002 1.000000e-002 1.000000e-002 1.000000e-002 1.000000e-002 1.000000e-002
<GCONST> -8.855338e+002
<TRANSP> 3
 0.000000e+000 1.000000e+000 0.000000e+000
 0.000000e+000 0.000000e+000 1.000000e+000
 0.000000e+000 0.000000e+000 0.000000e+000
<ENDHMM>
~h "h8"
<BEGINHMM>
<NUMSTATES> 3
<STATE> 2
<MEAN> 320
 2.555145e+001 8.887750e+000 9.746327e+000 9.318584e+000 8.692420e+000 8.595824e+000 8.570653e+000 8.540403e+000 8.162704e+000 8.978075e+000 9.557109e+000 9.125944e+000 8.674035e+000 8.599418e+000 8.588443e+000 8.514284e+000 8.406884e+000 9.183253e+000 9.279652e+000 8.929907e+000 8.702580e+000 8.641995e+000 8.553021e+000 8.468050e+000 8.835160e+000 9.510550e+000 9.100188e+000 8.746951e+000 8.769026e+000 8.695333e+000 8.542466e+000 8.366806e+000 9.459950e+000 9.757655e+000 8.807565e+000 8.686712e+000 8.868581e+000 8.823112e+000 8.521605e+000 8.252478e+000 9.686243e+000 9.721261e+000 8.741090e+000 8.576972e+000 8.889962e+000 8.937182e+000 8.587681e+000 8.235454e+000 9.610398e+000 9.339528e+000 8.767120e+000 8.440914e+000 8.800609e+000 8.922379e+000 8.637989e+000 8.264484e+000 9.397137e+000 9.012829e+000 8.958426e+000 8.567363e+000 8.877161e+000 8.932270e+000 8.666370e+000 8.271176e+000 9.171682e+000 8.891315e+000 9.127804e+000 8.677644e+000 8.861469e+000 8.915485e+000 8.716638e+000 8.327488e+000 9.126257e+000 9.091081e+000 9.109145e+000 8.874964e+000 8.894474e+000 8.942102e+000 8.696762e+000 8.325086e+000 9.142064e+000 9.246285e+000 9.011681e+000 9.025504e+000 8.916556e+000 8.887353e+000 8.675960e+000 8.375741e+000 9.245079e+000 9.154171e+000 9.143719e+000 9.057041e+000 8.926419e+000 8.822931e+000 8.638164e+000 8.356197e+000 9.320560e+000 9.147566e+000 9.257936e+000 9.081480e+000 8.947328e+000 8.776521e+000 8.564116e+000 8.297935e+000 9.309011e+000 9.417173e+000 9.192187e+000 9.119262e+000 8.925823e+000 8.729361e+000 8.487847e+000 8.238875e+000 9.317713e+000 9.299449e+000 9.141339e+000 9.095852e+000 8.908205e+000 8.675403e+000 8.460522e+000 8.207693e+000 9.392591e+000 9.130181e+000 9.203032e+000 9.055367e+000 8.878612e+000 8.650041e+000 8.387149e+000 8.153815e+000 9.180127e+000 9.360558e+000 9.048383e+000 9.023589e+000 8.834380e+000 8.614748e+000 8.386023e+000 8.159267e+000 9.320549e+000 9.090329e+000 9.040084e+000 8.940881e+000 8.790201e+000 8.591997e+000 8.392448e+000 8.178991e+000 9.108374e+000 9.156189e+000 8.987211e+000 8.903961e+000 8.753834e+000 8.594614e+000 8.390772e+000 8.199375e+000 9.112733e+000 9.051453e+000 8.929303e+000 8.842532e+000 8.743443e+000 8.593236e+000 8.447138e+000 8.247688e+000 8.989764e+000 8.979960e+000 8.898061e+000 8.822996e+000 8.727015e+000 8.600701e+000 8.421787e+000 8.243220e+000 8.974275e+000 8.934037e+000 8.883279e+000 8.786410e+000 8.713451e+000 8.568832e+000 8.424025e+000 8.235323e+000 8.840229e+000 8.916134e+000 8.848059e+000 8.768350e+000 8.670033e+000 8.525234e+000 8.343232e+000 8.180223e+000 8.996101e+000 8.822686e+000 8.846747e+000 8.731366e+000 8.624555e+000 8.465868e+000 8.299247e+000 8.141665e+000 8.664204e+000 8.920884e+000 8.788373e+000 8.694430e+000 8.578736e+000 8.430984e+000 8.307008e+000 8.141307e+000 8.956313e+000 8.712156e+000 8.727957e+000 8.657766e+000 8.541891e+000 8.444015e+000 8.291292e+000 8.142341e+000 8.644974e+000 8.746320e+000 8.692601e+000 8.583202e+000 8.506127e+000 8.422149e+000 8.348680e+000 8.188857e+000 8.571426e+000 8.686930e+000 8.648537e+000 8.569567e+000 8.496225e+000 8.429307e+000 8.329586e+000 8.188721e+000 8.819492e+000 8.583216e+000 8.608637e+000 8.582917e+000 8.504082e+000 8.411656e+000 8.251748e+000 8.126826e+000 8.631072e+000 8.563123e+000 8.546805e+000 8.444941e+000 8.370618e+000 8.256813e+000 8.162897e+000 8.071610e+000 8.311766e+000 8.630920e+000 8.537036e+000 8.423153e+000 8.373418e+000 8.258698e+000 8.203276e+000 8.091708e+000 8.568783e+000 8.515449e+000 8.433926e+000 8.475302e+000 8.421700e+000 8.329434e+000 8.236346e+000 8.102237e+000 8.602468e+000 8.353923e+000 8.338604e+000 8.396212e+000 8.344753e+000 8.279554e+000 8.160915e+000 8.078496e+000 8.581996e+000 8.344495e+000 8.337114e+000 8.344283e+000 8.282695e+000 8.215879e+000 8.106341e+000 8.060209e+000 8.259098e+000 8.396618e+000 8.355536e+000 8.299330e+000 8.258344e+000 8.176701e+000 8.140205e+000 8.051599e+000 8.016417e+000 8.377601e+000 8.335043e+000 8.227942e+000 8.209125e+000 8.137200e+000 8.139324e+000 8.039169e+000 7.929090e+000 8.298177e+000 8.286242e+000 8.173908e+000 8.166894e+000 8.119631e+000 8.125711e+000 8.054370e+000 8.007418e+000 8.204247e+000 8.237976e+000 8.159679e+000 8.161656e+000 8.134905e+000 8.124804e+000 8.072446e+000 8.009578e+000 8.138229e+000 8.163896e+000 8.121512e+000 8.119945e+000 8.086174e+000 8.062155e+000 8.024612e+000 8.021325e+000 7.998714e+000 8.002810e+000 7.983629e+000 7.972073e+000 7.954704e+000 7.945388e+000 7.963522e+000
<VARIANCE> 320
